{
    "input_size": 72,
    "layers": [
        {
            "weights": [
                [
                    0.6926270131376696,
                    0.5986409555289198,
                    0.4530695567961323,
                    0.12952432665745248,
                    0.11138853056839883,
                    -0.34368835030218114,
                    -0.8519787557011556,
                    -0.008769690122964207,
                    -0.0007803946271184611,
                    0.4857115596576294,
                    0.3531701318752958,
                    0.500460540962438,
                    -0.31229473960189863,
                    -2.779992823316806,
                    -3.404219146153217,
                    -2.86430568987647,
                    -0.28635375018671017,
                    -0.2605261998624379,
                    -0.0863116903858083,
                    -0.16491345380702763,
                    -0.9676747428789114,
                    -1.369900961201284,
                    -3.825186768950334,
                    -2.787338278187138,
                    -0.4235426143940324,
                    -0.09500098311455743,
                    -0.619907123998606,
                    -0.4045160859409276,
                    -0.7903709055552345,
                    -1.3864795889001769,
                    -1.6781607822356752,
                    -1.7949013885477645,
                    1.0421928696982272,
                    0.42554876165017735,
                    0.7075061452273118,
                    0.054408741653713545,
                    -0.10179422341725632,
                    0.7648804358466076,
                    1.4716501585095423,
                    2.074655610494079,
                    0.12385501006051322,
                    0.7342425802867388,
                    0.37814310010368535,
                    -0.3271152105348481,
                    0.28855562647715943,
                    1.7803164933489937,
                    3.3566570544367154,
                    2.9822053202790553,
                    0.47678804093216476,
                    0.2513625644312028,
                    0.16810847679978158,
                    -0.3756199541201719,
                    0.18003378217242688,
                    2.3064812595281556,
                    3.8236299711422785,
                    2.410023698742426,
                    -0.5530602978596881,
                    -0.48782649052215404,
                    -0.3020007018727341,
                    -0.09350344741425538,
                    -0.12682752655328627,
                    0.19059982119062327,
                    0.8032735746183487,
                    0.21621312918958857,
                    -13.998606905639297,
                    -2.7099314892671603e-08,
                    4.057917954539914e-07,
                    5.449922046351983e-07,
                    7.83727056005998e-07,
                    0.016520952335521595,
                    325.892154438753,
                    658.3872601062859
                ],
                [
                    0.6926282476905219,
                    0.5986434202421286,
                    0.4530708562362603,
                    0.1295242321540073,
                    0.11138782746082336,
                    -0.3436863890693154,
                    -0.8519847722137575,
                    -0.008769644823638496,
                    -0.0007810233878919833,
                    0.48571415205221663,
                    0.3531708869307766,
                    0.5004631128187871,
                    -0.31229456755198426,
                    -2.780020222885742,
                    -3.4042553998585525,
                    -2.8643266195764876,
                    -0.286356092687329,
                    -0.2605226880987236,
                    -0.08630945080046451,
                    -0.164915050109643,
                    -0.9676827090103048,
                    -1.369919588380025,
                    -3.8252691993755765,
                    -2.7873614975247394,
                    -0.42354492586156445,
                    -0.09500045919901419,
                    -0.6199086316511341,
                    -0.40451356841080993,
                    -0.7903777337102725,
                    -1.386495987751734,
                    -1.6781675046481344,
                    -1.7949205776105004,
                    1.0421979936115828,
                    0.42555194629747345,
                    0.7075123126535077,
                    0.05440556769853936,
                    -0.10178423568391307,
                    0.7649111691433599,
                    1.4716663916668071,
                    2.0746860610899716,
                    0.12385642418848404,
                    0.7342447849978561,
                    0.37814621151172045,
                    -0.32712003851249466,
                    0.28856056600280244,
                    1.780329213263871,
                    3.356727345469996,
                    2.982230694370269,
                    0.4767893560219974,
                    0.2513605109478707,
                    0.1681089639542858,
                    -0.3756195089640809,
                    0.18003293417843125,
                    2.3065110311552175,
                    3.8236716450242536,
                    2.41004595017974,
                    -0.5530632309673293,
                    -0.4878279761335325,
                    -0.30200248426984305,
                    -0.09350470242775405,
                    -0.1268286312980044,
                    0.1906003250378567,
                    0.8032771834644425,
                    0.21621314847361317,
                    -16.35942366292639,
                    -4.1035020145005085e-07,
                    2.875399237911974e-07,
                    1.6698601014182953e-08,
                    -6.690218861338445e-08,
                    0.016521457223182254,
                    366.0384598790349,
                    742.7304116393345
                ],
                [
                    0.692628490346196,
                    0.5986428903501625,
                    0.4530706776007545,
                    0.12952608457357442,
                    0.11138824830407708,
                    -0.34368652675478184,
                    -0.8519853813826468,
                    -0.00877210951987711,
                    -0.0007792807718141349,
                    0.4857174113326125,
                    0.3531711585024893,
                    0.5004625923409821,
                    -0.3122949715204479,
                    -2.7800209590477767,
                    -3.4042529995634982,
                    -2.864330376526825,
                    -0.28635704733437495,
                    -0.2605261835453051,
                    -0.08631094741572387,
                    -0.16491587455158702,
                    -0.9676804350266986,
                    -1.3699174035636859,
                    -3.8252651183250608,
                    -2.7873609964149266,
                    -0.423540584101544,
                    -0.09500413018009934,
                    -0.6199086818456819,
                    -0.40451304536579047,
                    -0.7903656194659952,
                    -1.3865044515945308,
                    -1.6781697235147341,
                    -1.7949238507257443,
                    1.042202011155966,
                    0.4255510372445829,
                    0.7075121562196324,
                    0.05440702610831294,
                    -0.10178790898560139,
                    0.7649128756884697,
                    1.4716785310145215,
                    2.074689947123956,
                    0.12385510113492762,
                    0.734245218701137,
                    0.37814654127448644,
                    -0.3271177351497332,
                    0.28856132305017856,
                    1.7803359293774614,
                    3.3567273384859995,
                    2.982230635021967,
                    0.47679219917135895,
                    0.2513631779033005,
                    0.16810827877253143,
                    -0.37562301803501413,
                    0.1800359474699084,
                    2.306508524731217,
                    3.823668842367814,
                    2.410047553224838,
                    -0.5530627275196215,
                    -0.48782801885853233,
                    -0.302002744795293,
                    -0.09350293905269394,
                    -0.1268287118927906,
                    0.19059817367842466,
                    0.8032744712041431,
                    0.21621294708378264,
                    -17.99911539855974,
                    7.0143174009578e-07,
                    -1.1707968970155603e-07,
                    -4.814710764194187e-07,
                    3.9960739265463225e-07,
                    0.01652128265454336,
                    364.6524976368903,
                    742.7758389271188
                ],
                [
                    0.6926285520215145,
                    0.5986424436791017,
                    0.4530715915920333,
                    0.12952573431298048,
                    0.11138933747447499,
                    -0.3436866781037981,
                    -0.8519832402965443,
                    -0.008770163394900582,
                    -0.0007824144385410462,
                    0.48571776949562184,
                    0.3531701277588956,
                    0.5004624712090016,
                    -0.3122956697219162,
                    -2.7800213446768907,
                    -3.4042521436969566,
                    -2.864326934406757,
                    -0.28635525732038913,
                    -0.26052154996094024,
                    -0.0863115380479414,
                    -0.1649175449032131,
                    -0.9676847353038227,
                    -1.3699194380875985,
                    -3.8252847280034907,
                    -2.787359068439086,
                    -0.4235451371583053,
                    -0.09500114876632564,
                    -0.6199074308357635,
                    -0.4045190300306324,
                    -0.7903794886065749,
                    -1.3864989012223645,
                    -1.6781655779788456,
                    -1.7949248186304438,
                    1.0422028768304776,
                    0.42554897235770317,
                    0.7075100875923428,
                    0.054407277401668265,
                    -0.10179327186265355,
                    0.7649230381658269,
                    1.4716776552490156,
                    2.074680628511904,
                    0.12385808265468795,
                    0.7342473910164705,
                    0.37814636509398714,
                    -0.3271190073077717,
                    0.28856095609941657,
                    1.780329570693418,
                    3.3567256281104343,
                    2.9822282311149295,
                    0.4767896340305437,
                    0.2513633205485091,
                    0.16810785029605538,
                    -0.37562115286874803,
                    0.18003552369250905,
                    2.306505096602708,
                    3.8236688244258192,
                    2.4100487168865934,
                    -0.5530620026755982,
                    -0.48782796086474933,
                    -0.30200296666218374,
                    -0.09350486337867,
                    -0.1268287740089895,
                    0.190600912711335,
                    0.8032760324514977,
                    0.21621467450041798,
                    -17.644979627458493,
                    -1.5688666063109114e-07,
                    3.4218550606839866e-08,
                    3.3042344245287846e-07,
                    2.178445637858746e-08,
                    0.016521569887932287,
                    365.20849622247914,
                    741.6068915603332
                ],
                [
                    -4.0035578622461237e-07,
                    2.9019707307877508e-08,
                    -6.690549539503229e-08,
                    -2.0376731445920086e-08,
                    1.7654731948161123e-07,
                    -2.440848638513616e-07,
                    -3.0303794290841784e-08,
                    -1.0663121128552198e-07,
                    1.4964062591788082e-07,
                    2.8141147183567494e-07,
                    -3.426066315879991e-07,
                    2.1010204263766697e-07,
                    7.407707256687749e-07,
                    -5.225118612974879e-07,
                    -2.9769193666316597e-07,
                    -3.1069323256100147e-07,
                    -1.0008185258182182e-07,
                    5.819386202255314e-07,
                    4.788145809150224e-09,
                    -2.4911067567524116e-07,
                    2.2297296555721133e-07,
                    -2.1508433793226312e-07,
                    4.0806264777734017e-07,
                    1.0946592738504517e-07,
                    4.929661346498266e-07,
                    -2.371519075221451e-07,
                    1.0868372304856888e-06,
                    2.9568839339676714e-07,
                    2.3472636742398214e-07,
                    -1.83557022215528e-08,
                    -2.601923925048672e-07,
                    -3.111737938554805e-07,
                    -4.876020710602025e-08,
                    -2.8081384765476215e-07,
                    1.0136488684061208e-07,
                    -2.9623087187954497e-07,
                    2.1762215598819188e-07,
                    3.428563691360864e-07,
                    -2.5310785490290924e-07,
                    4.276861543310777e-07,
                    -8.532376977247805e-08,
                    4.1427551348573565e-07,
                    1.5712238542626138e-07,
                    4.0245651958525746e-07,
                    -3.575220451302826e-07,
                    -3.829533248197964e-08,
                    5.154362885238019e-07,
                    -2.216222774509665e-07,
                    -7.305214518437549e-07,
                    -6.96594450906004e-07,
                    -8.938292605413031e-07,
                    -7.581195604073069e-07,
                    -1.476099834112883e-07,
                    4.584683042238133e-07,
                    -1.585793152121335e-07,
                    1.1090022575538704e-07,
                    -3.944192751892873e-08,
                    3.065572488830044e-09,
                    -6.031454284428152e-08,
                    -6.245945486509114e-08,
                    1.6536916609248803e-07,
                    -4.216964714407749e-07,
                    3.622222305932548e-07,
                    3.29909891986166e-07,
                    -7.509663196406037e-08,
                    2.888066069069353e-07,
                    -2.514956019333362e-07,
                    -1.9264319028384184e-07,
                    5.603476638977944e-08,
                    -6.821149411480538e-08,
                    -1.6608237072685711e-07,
                    -2.4631874989674146e-07
                ],
                [
                    0.6926277763861142,
                    0.598643451094042,
                    0.4530692913767503,
                    0.12952589804941494,
                    0.11138788196439521,
                    -0.34368646496140526,
                    -0.8519844619153397,
                    -0.008772379159269397,
                    -0.0007799083388343706,
                    0.48571486872537334,
                    0.35317071139336537,
                    0.5004622164037882,
                    -0.3122937267460053,
                    -2.780022154433631,
                    -3.4042466599974572,
                    -2.8643261013861783,
                    -0.2863530804357249,
                    -0.260525803029557,
                    -0.08631410523344714,
                    -0.16491414381239988,
                    -0.9676795847994388,
                    -1.3699165458519398,
                    -3.8252834277477934,
                    -2.787363246298668,
                    -0.42354325714587837,
                    -0.09500089021408757,
                    -0.6199076544301186,
                    -0.4045158139955181,
                    -0.7903797023409237,
                    -1.3865062248015154,
                    -1.678179401052739,
                    -1.7949158537770462,
                    1.0421990614084549,
                    0.4255525200057277,
                    0.7075088501914317,
                    0.05440958984405056,
                    -0.10178991516925229,
                    0.7649166117673942,
                    1.4716749551178205,
                    2.0746933439399315,
                    0.12385353508678189,
                    0.734246461210334,
                    0.37814623743997294,
                    -0.3271162636242587,
                    0.2885597537630825,
                    1.7803367216496737,
                    3.356707141038892,
                    2.982226771658466,
                    0.47679008733780054,
                    0.2513631681721997,
                    0.1681072301260126,
                    -0.37561942134394644,
                    0.1800373656623301,
                    2.3065071429362787,
                    3.823657777045386,
                    2.4100410093075237,
                    -0.5530629652356183,
                    -0.48782779448192526,
                    -0.3020021487345516,
                    -0.09350572947446646,
                    -0.12682782348582305,
                    0.19060131434661398,
                    0.8032759096507645,
                    0.2162130531135531,
                    -14.793937728792882,
                    1.9152164190944375e-08,
                    -1.718212884686836e-07,
                    1.2556669318209191e-07,
                    6.155111568377241e-09,
                    0.01652133932769796,
                    366.2190479062146,
                    743.0157018022537
                ],
                [
                    2.891229890702494e-07,
                    -4.0925566711613375e-08,
                    4.112678303575602e-07,
                    -1.2407765976000987e-08,
                    1.673339446157122e-07,
                    3.6616587057955345e-07,
                    2.838537243476589e-07,
                    6.228038983982098e-07,
                    1.5802804426952932e-07,
                    -5.762312485623305e-07,
                    -4.112465197703381e-07,
                    4.841357745590018e-07,
                    -1.0526657997254779e-07,
                    1.4012797930323944e-07,
                    -2.861422840834696e-07,
                    3.575490830123908e-07,
                    -1.3799727272384915e-07,
                    5.133883668629637e-07,
                    -1.8273848271257886e-07,
                    3.9263513281888157e-07,
                    2.378535544021064e-07,
                    -2.5904303261302634e-07,
                    3.919489928213519e-07,
                    -2.943725881232887e-07,
                    -2.9543400648757955e-07,
                    2.587989710000345e-07,
                    -2.45792566516273e-07,
                    -2.2723944826146107e-07,
                    -1.2298729683700763e-07,
                    -3.465797373503482e-07,
                    3.658561370780413e-07,
                    2.0561229697111577e-07,
                    -2.1226221624795763e-08,
                    -3.801536741704684e-08,
                    1.6142158889201266e-07,
                    6.151765907186213e-07,
                    2.945632659986197e-07,
                    -1.682409428330221e-07,
                    2.712501946802631e-07,
                    -4.3442403921854477e-08,
                    -5.717982217601006e-08,
                    6.289200924144996e-07,
                    -1.4265751911613233e-07,
                    -1.7183126315051278e-07,
                    -6.84836447009072e-07,
                    -5.087401961618741e-07,
                    1.3950374942759842e-07,
                    -2.493180042674753e-07,
                    1.8102899042443716e-07,
                    -3.9978241202990245e-07,
                    -2.6590301994497014e-07,
                    2.3833063932148887e-07,
                    5.143869340048855e-07,
                    2.0611567992293943e-07,
                    3.851123006215255e-07,
                    5.729839410101893e-07,
                    3.73669753699982e-07,
                    -3.222268171581677e-07,
                    -2.8202884584053424e-08,
                    2.242601023037329e-07,
                    -1.451810736232199e-07,
                    1.6206365437886402e-07,
                    -5.531394236484531e-07,
                    -2.935888091986324e-07,
                    2.0124005237009553e-07,
                    -8.02198460022943e-07,
                    -3.972154224106926e-07,
                    -6.3536243552085904e-09,
                    -6.16558900543286e-07,
                    2.048305904327503e-08,
                    -3.1778650126215707e-07,
                    -2.0339433421456736e-07
                ],
                [
                    0.6926279724609935,
                    0.5986429130163119,
                    0.4530702470286996,
                    0.12952571368449095,
                    0.11138759703717187,
                    -0.3436866275633469,
                    -0.8519830467179181,
                    -0.008770080534524398,
                    -0.0007804814634548123,
                    0.48571283720867203,
                    0.3531714270885788,
                    0.5004619211845245,
                    -0.3122958604360533,
                    -2.7800187765820703,
                    -3.404252428752787,
                    -2.8643247916578582,
                    -0.2863541188090506,
                    -0.26052539891024584,
                    -0.08631113710323923,
                    -0.16491235455972267,
                    -0.9676793082860483,
                    -1.3699134425001627,
                    -3.825262798911736,
                    -2.7873637163772016,
                    -0.4235432255372758,
                    -0.09499787496787694,
                    -0.6199044153423378,
                    -0.40451743547566593,
                    -0.790376943265665,
                    -1.3865008909293195,
                    -1.6781720270971707,
                    -1.7949246099911305,
                    1.0422009636735647,
                    0.4255508658403404,
                    0.7075073433853205,
                    0.054408594376183755,
                    -0.10178473052559549,
                    0.7649065272963406,
                    1.471665158626407,
                    2.074688895070666,
                    0.12385228800483455,
                    0.7342432808646874,
                    0.3781452381561256,
                    -0.32711626947321937,
                    0.28856361818044235,
                    1.7803312457584526,
                    3.3567192347070054,
                    2.9822247467126743,
                    0.47679088250287205,
                    0.2513595192252813,
                    0.16810738455010957,
                    -0.375620416350794,
                    0.18003493736516757,
                    2.306511732741677,
                    3.823663073837903,
                    2.4100459994229504,
                    -0.5530619366726792,
                    -0.48782870494857694,
                    -0.3020014136867032,
                    -0.09350390850183411,
                    -0.1268289377132547,
                    0.19060349736849697,
                    0.8032770456549889,
                    0.21621369969794516,
                    -18.2685290561028,
                    2.932118091967814e-08,
                    -1.6493123031505102e-07,
                    2.3105924425900448e-07,
                    1.3327751687982975e-07,
                    0.01652216113081779,
                    365.52625826105526,
                    742.4233907783623
                ],
                [
                    0.6926176713845341,
                    0.59863200124906,
                    0.4530642266279779,
                    0.12952454697567903,
                    0.11138482518048527,
                    -0.34368157000306127,
                    -0.85196746088971,
                    -0.008766463697666878,
                    -0.0007776449321292217,
                    0.4856977477257109,
                    0.35316286400605806,
                    0.5004602791590453,
                    -0.3122826286602783,
                    -2.7799097609466226,
                    -3.404075989998032,
                    -2.864230154548343,
                    -0.28634956428385383,
                    -0.26052083208248256,
                    -0.08631010552352933,
                    -0.1649026270806637,
                    -0.9676347416640433,
                    -1.3698089619868055,
                    -3.8249280105044736,
                    -2.787246039407269,
                    -0.4235201799634515,
                    -0.0950112254896471,
                    -0.6198973863576744,
                    -0.40450542717715116,
                    -0.7903384411489743,
                    -1.386430888038824,
                    -1.678065666417271,
                    -1.7948089416550395,
                    1.0421659001239973,
                    0.42554612682096726,
                    0.7074992719912891,
                    0.054416570431738226,
                    -0.10180821063714947,
                    0.7648438764676079,
                    1.4715215856901376,
                    2.0745567307705404,
                    0.12384965029041856,
                    0.7342190707908878,
                    0.3781432584973042,
                    -0.32712176936124104,
                    0.28854785840625585,
                    1.7801920007374332,
                    3.3564335493715474,
                    2.982096690563718,
                    0.4767719825471556,
                    0.25136008601775883,
                    0.1681078571219007,
                    -0.3756166636337911,
                    0.18003675815926629,
                    2.3063976311951486,
                    3.82349277021388,
                    2.409930633880057,
                    -0.553053212482593,
                    -0.48782037523136257,
                    -0.3019965051597676,
                    -0.09350293455816461,
                    -0.12683013201006776,
                    0.1905962835712011,
                    0.8032582879325556,
                    0.21621387941726056,
                    -11.361767640236206,
                    3.8414117811048066e-07,
                    -3.9342937067133003e-07,
                    3.0072663681377943e-07,
                    -3.7264113581593294e-07,
                    0.016521718715757472,
                    287.65285928257146,
                    579.2163572868672
                ],
                [
                    0.6926277951356179,
                    0.5986426288078125,
                    0.45307160178668754,
                    0.1295262986901726,
                    0.11138930457607238,
                    -0.34368602258609954,
                    -0.8519853841941376,
                    -0.008770484100902065,
                    -0.0007791989032132997,
                    0.485714481151811,
                    0.3531705099672985,
                    0.5004612827510729,
                    -0.31229498493255825,
                    -2.780029922139754,
                    -3.4042545795979713,
                    -2.864329955386023,
                    -0.286355225846593,
                    -0.2605253798500893,
                    -0.08631184069421059,
                    -0.16491306688617316,
                    -0.9676844081961726,
                    -1.3699150991979248,
                    -3.8252855605028135,
                    -2.787361393485039,
                    -0.4235435596063325,
                    -0.09499883945246933,
                    -0.6199091282891203,
                    -0.4045144636185445,
                    -0.7903746435945526,
                    -1.3865026447164688,
                    -1.678168836172098,
                    -1.794921030011676,
                    1.042200535724986,
                    0.4255495330658108,
                    0.7075084391616903,
                    0.05441358439378408,
                    -0.10177638826902521,
                    0.7649024041512605,
                    1.471677925120942,
                    2.0746874421563857,
                    0.1238563479988162,
                    0.7342465396084058,
                    0.37814426083266367,
                    -0.3271183470872304,
                    0.2885595359251171,
                    1.7803370647554309,
                    3.356718239918785,
                    2.982229038151138,
                    0.47679084541450234,
                    0.251363402056037,
                    0.16810616122845154,
                    -0.3756218808280921,
                    0.18003426789926247,
                    2.306511048622485,
                    3.823665671249453,
                    2.4100484178632966,
                    -0.5530627692604183,
                    -0.48782854945021675,
                    -0.30200327492523593,
                    -0.09350336119733438,
                    -0.12682792914922097,
                    0.19059834852470925,
                    0.8032756573985893,
                    0.21621187362096111,
                    -16.96461693071455,
                    4.033706040775767e-08,
                    1.0330215697507446e-07,
                    5.372076903792195e-07,
                    -1.0792725538652907e-07,
                    0.016521784626854226,
                    365.2464798176118,
                    740.8591707312332
                ],
                [
                    0.6926267784425612,
                    0.5986434424486526,
                    0.4530702677861684,
                    0.12952567049464458,
                    0.11138708219465379,
                    -0.3436868862886703,
                    -0.8519849150690098,
                    -0.008770225058838175,
                    -0.0007809441952552385,
                    0.4857158440756434,
                    0.353171717874207,
                    0.5004633936153285,
                    -0.3122905347672441,
                    -2.7800225488923545,
                    -3.404254312956526,
                    -2.8643299806486553,
                    -0.2863556085037974,
                    -0.2605256581826932,
                    -0.08631557002299203,
                    -0.16491752868477288,
                    -0.9676815923975867,
                    -1.369911833770023,
                    -3.825283405148399,
                    -2.7873636453918227,
                    -0.4235445099389359,
                    -0.09500195829852384,
                    -0.6199064665236378,
                    -0.40451542988698364,
                    -0.7903746674124196,
                    -1.3865069918195874,
                    -1.6781595278244232,
                    -1.7949230497697832,
                    1.0422020147900657,
                    0.42555069577352417,
                    0.7075119026521116,
                    0.05440622339182459,
                    -0.10178672018184459,
                    0.7649068778084177,
                    1.4716749507694582,
                    2.074683977526667,
                    0.12385742983457651,
                    0.734244303069277,
                    0.3781440202868131,
                    -0.3271155869198987,
                    0.28856205422048925,
                    1.7803280051486254,
                    3.3567234118158957,
                    2.982230075704875,
                    0.4767862627674181,
                    0.25136111337481715,
                    0.16810749104304248,
                    -0.3756206829472525,
                    0.18003639091294582,
                    2.3065075813282605,
                    3.8236694300003258,
                    2.410044725394539,
                    -0.5530630281183119,
                    -0.4878292689403713,
                    -0.3020019832018028,
                    -0.0935056080069181,
                    -0.1268271064129235,
                    0.19059873641823372,
                    0.8032759046563392,
                    0.21621399989819626,
                    -15.657254086608601,
                    -6.959101819603649e-07,
                    -2.8908802449999924e-07,
                    1.759306753329345e-08,
                    -2.1375102718273816e-07,
                    0.01652180413246376,
                    363.87382402522474,
                    741.7103983665693
                ],
                [
                    1.5273102224077453e-07,
                    1.759977488968515e-08,
                    3.952518622183077e-07,
                    -4.40913915389124e-07,
                    3.975396801139715e-07,
                    -2.5206073253413247e-07,
                    2.601756817988106e-07,
                    -1.1625662410106959e-07,
                    2.9201588802601186e-07,
                    2.79869273108722e-07,
                    -5.249960233023754e-07,
                    -5.539910823577548e-08,
                    -3.314537154557243e-08,
                    -8.529986242334612e-08,
                    -2.7097365410336144e-07,
                    6.63908445416529e-07,
                    7.498012755053807e-08,
                    5.576143031431933e-07,
                    -2.040914247631774e-07,
                    -3.807504638510052e-07,
                    4.742282610168149e-08,
                    -2.0197141872125722e-07,
                    8.570841586544213e-07,
                    8.800635589905938e-08,
                    4.13311352304142e-07,
                    -8.040886670496807e-08,
                    -1.1692255800325505e-07,
                    -1.1084547457591013e-08,
                    1.275569085157803e-07,
                    3.0465395746000154e-07,
                    -4.380329608240419e-08,
                    -2.441470553185166e-07,
                    -3.8293062914499844e-07,
                    -2.7496507789271166e-08,
                    2.054591157426775e-07,
                    1.64215571263267e-07,
                    -6.389207722389449e-09,
                    -2.1520420339372992e-07,
                    5.2628661291815154e-08,
                    2.050439225217943e-07,
                    -1.3202469914730823e-08,
                    4.029429716573497e-08,
                    -5.396945431651899e-08,
                    3.282895405894225e-07,
                    -1.5713454884044884e-07,
                    6.653135168418399e-08,
                    1.4143823079432157e-07,
                    2.601656556650032e-07,
                    5.36410393430684e-07,
                    2.422114669543043e-07,
                    2.1487230481388334e-07,
                    -5.272133745489313e-07,
                    2.1745082626709065e-07,
                    8.225058473243459e-07,
                    -2.976342359211649e-07,
                    -3.6559035562258054e-07,
                    -7.697287557560522e-08,
                    3.662100996042554e-07,
                    1.8817065621993062e-07,
                    -1.7109231215159023e-07,
                    -1.2905745135060085e-08,
                    3.718725538911247e-07,
                    2.411951989535437e-07,
                    8.709727383620667e-07,
                    3.606299095737856e-07,
                    1.2678592212817924e-07,
                    2.2043513711018509e-07,
                    -1.251424918679539e-07,
                    -3.5062032343652214e-07,
                    6.166223162563608e-08,
                    1.7591063731175971e-07,
                    -5.003355428784661e-07
                ],
                [
                    -1.873121802994107e-07,
                    -1.3241173925557087e-07,
                    9.525690005961424e-08,
                    -9.340071126983119e-08,
                    1.5960754929505394e-07,
                    3.5182140895183014e-08,
                    3.8022360366499894e-07,
                    -6.136088410408332e-07,
                    5.942295150861352e-07,
                    5.083647433362317e-07,
                    1.804324008909272e-08,
                    2.3319986884680678e-07,
                    2.1750262688720892e-07,
                    -2.6438521757738e-07,
                    5.90473643230378e-08,
                    2.790460382298074e-07,
                    1.1109741416331131e-07,
                    3.7699386982536796e-07,
                    3.4064723392281666e-08,
                    2.8956555053609625e-08,
                    -2.7532729717924753e-07,
                    -1.3071996127186434e-07,
                    -1.6485049368549674e-07,
                    6.115705605222927e-07,
                    8.624305881833482e-08,
                    -3.583850675032387e-07,
                    1.4293368252071346e-07,
                    -6.885074358592492e-08,
                    -1.0950515642028862e-06,
                    1.720706066867896e-07,
                    -5.567833727290842e-07,
                    2.0743197225611582e-07,
                    -3.447002049263106e-07,
                    -5.229416164864294e-07,
                    1.7726632795530873e-07,
                    -5.358040163065323e-07,
                    -1.6018218845932174e-07,
                    7.32878369499099e-08,
                    2.1954090053720667e-07,
                    2.67108681340374e-07,
                    -1.3010133341224301e-08,
                    -2.9848924604800886e-07,
                    6.89862356424813e-07,
                    -2.1729927730733425e-07,
                    6.467502692791663e-07,
                    -1.6227125544190083e-07,
                    4.1642627149998126e-07,
                    3.8367971169633834e-07,
                    -3.7491887729004116e-07,
                    1.274017267435352e-07,
                    2.708765707183828e-07,
                    2.51365682818376e-07,
                    -7.133712329223655e-08,
                    1.0828006972908832e-07,
                    -1.4153205640855117e-07,
                    -4.2020140194666643e-07,
                    3.5285765534594664e-07,
                    -2.0069656338111182e-07,
                    4.947684816892101e-07,
                    2.1603330171326704e-07,
                    -3.2009481228356386e-07,
                    -5.780422127258681e-08,
                    -1.0269497266315586e-07,
                    -3.1229222827703037e-07,
                    1.798079970641529e-07,
                    -1.716265647705387e-07,
                    5.851094327220342e-07,
                    3.087076089197774e-07,
                    -3.156276293280917e-07,
                    -6.813410679102447e-09,
                    -8.131410030382729e-08,
                    -5.610179958561225e-07
                ],
                [
                    0.6926287542586375,
                    0.598643444360531,
                    0.4530712648184158,
                    0.1295253301817996,
                    0.11138890178969588,
                    -0.34368733367507154,
                    -0.8519839464922393,
                    -0.008768850328518887,
                    -0.000780522583901034,
                    0.4857124889395041,
                    0.35317035033517613,
                    0.5004633484019202,
                    -0.3122932046493624,
                    -2.78002452044975,
                    -3.4042537250109395,
                    -2.864326930760246,
                    -0.2863556247483912,
                    -0.2605230153035911,
                    -0.08631286483940122,
                    -0.16491609159266266,
                    -0.9676791478311825,
                    -1.3699146635523582,
                    -3.825269164177744,
                    -2.78735813614509,
                    -0.42354409653527586,
                    -0.09499958054681798,
                    -0.6199080247609802,
                    -0.4045188206961586,
                    -0.7903811636794221,
                    -1.3865025704809697,
                    -1.6781710502794331,
                    -1.7949256031831673,
                    1.0422003860425684,
                    0.4255497972046283,
                    0.7075110125842409,
                    0.05440776303793357,
                    -0.1017862176034793,
                    0.764897132001493,
                    1.4716845056242807,
                    2.074686067068273,
                    0.12385166883118684,
                    0.7342455606674292,
                    0.3781462787739621,
                    -0.32711843056593803,
                    0.28856203606013325,
                    1.780331958889749,
                    3.3567217303777017,
                    2.9822292150955154,
                    0.4767891815831962,
                    0.25136129444533073,
                    0.168107766824991,
                    -0.3756205243882331,
                    0.18003453597799826,
                    2.3065060435879343,
                    3.823666610347377,
                    2.410044833325226,
                    -0.5530622315817018,
                    -0.48782809491238754,
                    -0.30200147866715243,
                    -0.09350436648735162,
                    -0.12682944381452596,
                    0.19059972909591144,
                    0.803276718463465,
                    0.21621347773850438,
                    -17.05323616176696,
                    -8.722749760212875e-07,
                    1.8215846840271915e-07,
                    -1.1619498577559657e-07,
                    -5.418580469824929e-07,
                    0.016521180062694134,
                    364.78724967999756,
                    742.2887490818116
                ],
                [
                    0.6926285114786013,
                    0.5986438640917588,
                    0.45307107253153067,
                    0.12952468850637447,
                    0.11138696576868178,
                    -0.3436860834614003,
                    -0.851983206896651,
                    -0.008770431043597766,
                    -0.0007799440486338509,
                    0.485712371900324,
                    0.3531686162142886,
                    0.5004614968545981,
                    -0.3122952291387209,
                    -2.780022452605602,
                    -3.4042538630336363,
                    -2.8643287957326047,
                    -0.28635525971908354,
                    -0.26052216528341077,
                    -0.08631125069225265,
                    -0.16491189325611,
                    -0.9676832811727651,
                    -1.3699188044381736,
                    -3.8252696038000953,
                    -2.7873628192575266,
                    -0.4235422728863324,
                    -0.09500175486530474,
                    -0.6199050088901179,
                    -0.4045148637345279,
                    -0.7903656314732656,
                    -1.3865057066753654,
                    -1.6781712017744101,
                    -1.7949224104286203,
                    1.0421962136576919,
                    0.4255527680546203,
                    0.7075117303692133,
                    0.05440801333738016,
                    -0.10178873850735622,
                    0.7649016978392441,
                    1.471678937001334,
                    2.074689712154942,
                    0.12385743782435729,
                    0.734244720654291,
                    0.3781440650364596,
                    -0.32711846581460635,
                    0.2885562902441423,
                    1.7803336541568868,
                    3.3567260470266387,
                    2.9822343306427705,
                    0.47678986274724,
                    0.2513639265678371,
                    0.16810800214237312,
                    -0.3756212521764364,
                    0.18003497527511902,
                    2.30650794548498,
                    3.8236651847488785,
                    2.41004483171691,
                    -0.553062904773952,
                    -0.4878284253143517,
                    -0.30200236449677015,
                    -0.09350530588122524,
                    -0.12682783292579858,
                    0.1905989974196183,
                    0.8032740077228088,
                    0.21621398368423952,
                    -15.341311745477338,
                    8.497632518432891e-07,
                    5.602691421377978e-07,
                    -3.122613546761743e-07,
                    4.214319466935745e-07,
                    0.016521897137646686,
                    364.075670785602,
                    742.5412885148611
                ],
                [
                    0.6926277900248166,
                    0.5986425773059727,
                    0.4530705407806419,
                    0.1295254494384675,
                    0.11138936593196423,
                    -0.3436872275559001,
                    -0.8519827025681163,
                    -0.008769996714666687,
                    -0.0007807751993029123,
                    0.48571103169233915,
                    0.35317138477700705,
                    0.5004628140068674,
                    -0.3122937691121886,
                    -2.7800083409353338,
                    -3.404239700230017,
                    -2.864320155228828,
                    -0.28635554826996507,
                    -0.2605244741856337,
                    -0.08630959966897472,
                    -0.1649148594207993,
                    -0.9676779257992713,
                    -1.3699051257972878,
                    -3.825250485365071,
                    -2.787356245747679,
                    -0.423543696875842,
                    -0.09500029371822773,
                    -0.6199094429583303,
                    -0.4045158613732478,
                    -0.7903751876645242,
                    -1.3864885614494913,
                    -1.6781681188562219,
                    -1.7949101002770556,
                    1.0421976973323042,
                    0.42555083310192066,
                    0.7075103070416839,
                    0.054408500474914134,
                    -0.10179422856911567,
                    0.7649033818685638,
                    1.471663275927565,
                    2.0746816294795827,
                    0.12385400965319592,
                    0.7342465500942281,
                    0.37814072911752783,
                    -0.32711679188449455,
                    0.28855940369221966,
                    1.7803284990837949,
                    3.3566932129647116,
                    2.982218550850243,
                    0.4767898017849318,
                    0.2513620634303321,
                    0.1681056122705508,
                    -0.37562107825182744,
                    0.18003753213308693,
                    2.3064975453881646,
                    3.823653477978122,
                    2.4100365114327333,
                    -0.5530616024149284,
                    -0.4878277930362051,
                    -0.3020020398728076,
                    -0.09350375073667547,
                    -0.12682809727226757,
                    0.19059915055343485,
                    0.8032754698645668,
                    0.21621344597723965,
                    -16.203771648396604,
                    2.001883674128271e-07,
                    -3.521938039103586e-07,
                    -1.6040055524531586e-07,
                    -2.969660392740797e-07,
                    0.016521453988568066,
                    343.68030446512125,
                    695.7944149516078
                ],
                [
                    0.6926285898665693,
                    0.598644027590144,
                    0.4530703899222801,
                    0.1295260033676927,
                    0.1113877890172887,
                    -0.3436870509088398,
                    -0.8519837444075355,
                    -0.008770208970420882,
                    -0.0007818430771289853,
                    0.48571342973307524,
                    0.3531700307570505,
                    0.5004626809403845,
                    -0.3122937206737622,
                    -2.780025347852762,
                    -3.404256678813503,
                    -2.8643298818606215,
                    -0.2863588886132241,
                    -0.26052233232804156,
                    -0.08631142817217002,
                    -0.1649121143715426,
                    -0.9676854225200715,
                    -1.36991082008914,
                    -3.825277502878584,
                    -2.787363116319147,
                    -0.4235459882882388,
                    -0.09500235775976598,
                    -0.6199098875921686,
                    -0.4045148067705344,
                    -0.7903812402719195,
                    -1.3865044117715992,
                    -1.6781700691374901,
                    -1.7949203606605804,
                    1.0422000394139141,
                    0.4255522088382783,
                    0.7075118345077064,
                    0.054407722139885845,
                    -0.10178191087673666,
                    0.7649052630036045,
                    1.4716700893309775,
                    2.074692599968788,
                    0.12385528911582425,
                    0.7342450518877007,
                    0.37814782617131404,
                    -0.3271182951096631,
                    0.2885592549555761,
                    1.7803299489163207,
                    3.356725722937349,
                    2.9822260175006297,
                    0.476788627431481,
                    0.2513625176654456,
                    0.1681077488501772,
                    -0.37562154455991725,
                    0.1800349231655263,
                    2.3065107606004074,
                    3.8236738504720895,
                    2.4100439027635026,
                    -0.5530621159954735,
                    -0.4878272096193236,
                    -0.3020016372590687,
                    -0.09350475956518545,
                    -0.12682798319449068,
                    0.1905992559735422,
                    0.803275289565687,
                    0.21621314819122522,
                    -16.598223261176013,
                    -2.1050315291106174e-07,
                    3.141971385545063e-07,
                    4.419826527778723e-08,
                    -1.424055840667192e-07,
                    0.016521812942968117,
                    365.5819346397791,
                    742.0447756860003
                ],
                [
                    0.6926288108194083,
                    0.598643165764623,
                    0.45307052683037247,
                    0.1295262997619045,
                    0.11138827535518635,
                    -0.34368439172410353,
                    -0.8519837105626087,
                    -0.008769361134538195,
                    -0.0007789397327647658,
                    0.48571447832287157,
                    0.3531721035064429,
                    0.5004626559883345,
                    -0.31229589806151675,
                    -2.7800223461712337,
                    -3.40425087277845,
                    -2.86433119766284,
                    -0.28635598092186987,
                    -0.2605258194568954,
                    -0.08631023018681518,
                    -0.16491652902238163,
                    -0.967676793815002,
                    -1.369912897016268,
                    -3.825280719613951,
                    -2.787355844507247,
                    -0.42354455186632317,
                    -0.09500183573701088,
                    -0.6199093176832586,
                    -0.4045138333168263,
                    -0.7903698420202616,
                    -1.3865060541562304,
                    -1.6781766732563312,
                    -1.7949275982747068,
                    1.0422022700938816,
                    0.4255549530626588,
                    0.707510041842564,
                    0.054409065117102556,
                    -0.10178366220921212,
                    0.764909988733182,
                    1.471681956451061,
                    2.0746865545868705,
                    0.12385583307937621,
                    0.7342457638744976,
                    0.3781469611846438,
                    -0.32711853954114,
                    0.28856062461263954,
                    1.7803371195684305,
                    3.3567116519975753,
                    2.9822284040653027,
                    0.4767889796369937,
                    0.2513618362855715,
                    0.16810617157288324,
                    -0.3756226313546669,
                    0.1800371900110293,
                    2.30651077640115,
                    3.8236688781777732,
                    2.4100490857756074,
                    -0.5530621910773821,
                    -0.4878286698580877,
                    -0.3020020036926513,
                    -0.09350557274019868,
                    -0.12682857397340597,
                    0.19060047951972003,
                    0.8032762706624569,
                    0.21621265730485245,
                    -16.212381521005742,
                    3.5819686031645417e-07,
                    2.3949541197708625e-07,
                    -1.08641439160902e-08,
                    -2.9979958399887657e-07,
                    0.016521532606833016,
                    364.6309026105143,
                    739.2740100364827
                ],
                [
                    0.6926283470581098,
                    0.5986428877561507,
                    0.4530707696660338,
                    0.12952418219650577,
                    0.11138895200261466,
                    -0.3436854165666071,
                    -0.8519850810942641,
                    -0.008771443285069087,
                    -0.0007797692004291845,
                    0.48571357414232635,
                    0.3531696150308913,
                    0.5004635932198012,
                    -0.3122963989416506,
                    -2.780015589313483,
                    -3.4042548188700685,
                    -2.86432223052292,
                    -0.28635525965376674,
                    -0.26052512950039225,
                    -0.08631132961809243,
                    -0.16491404094375767,
                    -0.967678554998171,
                    -1.3699111071677073,
                    -3.825263124310775,
                    -2.7873613309758456,
                    -0.4235428613977356,
                    -0.09500303335261703,
                    -0.6199054796047845,
                    -0.40451307627997946,
                    -0.790370383218854,
                    -1.3865031903096106,
                    -1.678166912087789,
                    -1.794917260796746,
                    1.042199774154306,
                    0.4255502168635527,
                    0.7075110547479188,
                    0.054407440415720064,
                    -0.10178049943036754,
                    0.7649053503146571,
                    1.4716774387937543,
                    2.0746837703517507,
                    0.1238561955852263,
                    0.7342456991884908,
                    0.3781455938090111,
                    -0.3271181527823865,
                    0.2885604520081989,
                    1.7803354707771568,
                    3.3567127223943802,
                    2.9822363310397315,
                    0.47678809831388824,
                    0.25135994106349746,
                    0.1681065546177513,
                    -0.375622116641464,
                    0.18003517704689934,
                    2.3065094164795306,
                    3.8236702180861704,
                    2.4100439663075677,
                    -0.553063821997923,
                    -0.4878280988734544,
                    -0.3020030921445331,
                    -0.09350451176981779,
                    -0.12682845328661385,
                    0.19059983001128114,
                    0.8032752875598612,
                    0.2162142433558021,
                    -16.349211678471757,
                    -8.608671850231447e-08,
                    2.8888201200468513e-08,
                    3.289782134694937e-07,
                    -1.3344305120000156e-07,
                    0.01652182357635196,
                    358.739215340055,
                    728.0738700949856
                ],
                [
                    0.6926286675458814,
                    0.5986437038658023,
                    0.4530709705603716,
                    0.12952569175896705,
                    0.11138862968999245,
                    -0.3436886362771824,
                    -0.8519831222548188,
                    -0.008771269668299666,
                    -0.0007794674691563937,
                    0.48571365600041344,
                    0.35317122870003226,
                    0.5004625755983991,
                    -0.3122943808926386,
                    -2.7800233282852664,
                    -3.4042605975107514,
                    -2.864326496444452,
                    -0.28635717196269744,
                    -0.2605255780034423,
                    -0.08631248186644658,
                    -0.16491200564372155,
                    -0.9676830923663223,
                    -1.3699150493771939,
                    -3.8252806841909686,
                    -2.7873567959681838,
                    -0.4235452188051925,
                    -0.09500546289044991,
                    -0.6199023807589978,
                    -0.4045182376730294,
                    -0.7903707130167069,
                    -1.386498499699296,
                    -1.6781653566932417,
                    -1.794923953908009,
                    1.0422001374673602,
                    0.4255540055052824,
                    0.7075101727159225,
                    0.05440834001631865,
                    -0.10178003253168383,
                    0.7649118429733203,
                    1.4716725897601406,
                    2.074690671160047,
                    0.12385574072381283,
                    0.7342461002239159,
                    0.37814446113258465,
                    -0.32711955394028563,
                    0.28856273520766595,
                    1.7803402620246755,
                    3.356707195403347,
                    2.9822275529286313,
                    0.4767908733029021,
                    0.2513650347291891,
                    0.1681099186577046,
                    -0.37562049570215766,
                    0.1800368918636108,
                    2.3065057434623166,
                    3.8236687172855097,
                    2.4100423182313304,
                    -0.5530628417063094,
                    -0.48782836631052645,
                    -0.302000879727425,
                    -0.09350375694997189,
                    -0.12682742594960383,
                    0.19059961689062987,
                    0.8032748132970111,
                    0.21621407341832824,
                    -17.209093696583125,
                    8.57192128157879e-08,
                    -3.189058116873469e-07,
                    4.3480901005831434e-08,
                    -5.511642862021345e-07,
                    0.016521675318572123,
                    366.12280706198504,
                    742.4739508143489
                ],
                [
                    0.6926295310180139,
                    0.598642995704819,
                    0.4530709737742774,
                    0.12952599790261865,
                    0.11138737940977385,
                    -0.3436850964199152,
                    -0.8519839073935493,
                    -0.008770434958866912,
                    -0.0007819636836016044,
                    0.48571521985318544,
                    0.35317162343360975,
                    0.5004628351730452,
                    -0.3122945574994073,
                    -2.7800213950083137,
                    -3.404253069879246,
                    -2.8643242206082213,
                    -0.28635418195113477,
                    -0.260526977721973,
                    -0.08631112054817754,
                    -0.16491742737853693,
                    -0.9676852247915487,
                    -1.3699138800673343,
                    -3.825278517489991,
                    -2.7873719236670422,
                    -0.4235431768930204,
                    -0.09499811550101286,
                    -0.6199036360862219,
                    -0.4045163817199443,
                    -0.790370079829663,
                    -1.3865181531722968,
                    -1.6781768231915495,
                    -1.7949208828237933,
                    1.0422006423585306,
                    0.42555415772839994,
                    0.7075126936493862,
                    0.05440758099914858,
                    -0.10177773833366432,
                    0.7649153844508493,
                    1.471686045165756,
                    2.0746815902753055,
                    0.12385568459308441,
                    0.7342455549951568,
                    0.37814691911687454,
                    -0.32711838811736016,
                    0.28856017990828753,
                    1.7803303124701928,
                    3.35672255467739,
                    2.982232738616515,
                    0.47679090756227205,
                    0.2513573425440168,
                    0.1681057388262258,
                    -0.37561949127512206,
                    0.18003495545209416,
                    2.3065068782219003,
                    3.823670127191026,
                    2.4100456199944706,
                    -0.5530628736322674,
                    -0.4878287482141256,
                    -0.3020010784097579,
                    -0.09350523821516511,
                    -0.1268266133081986,
                    0.19059952179675788,
                    0.8032760246177244,
                    0.21621502374662552,
                    -17.445705834881238,
                    2.9944417946933244e-07,
                    -1.3018759788090846e-07,
                    -5.135259442671252e-07,
                    -5.953318440780309e-08,
                    0.016521914792408745,
                    365.21988896236365,
                    742.2494218264502
                ],
                [
                    0.6926282664211633,
                    0.5986427963890745,
                    0.4530703205601806,
                    0.1295257573106705,
                    0.11138647853279014,
                    -0.3436875785160317,
                    -0.8519871308055088,
                    -0.00877002438500602,
                    -0.0007802261254939119,
                    0.4857133394533259,
                    0.3531715421079638,
                    0.5004630983114079,
                    -0.31229439375241846,
                    -2.78002164174753,
                    -3.4042514109863102,
                    -2.864324823685936,
                    -0.2863572615213757,
                    -0.2605258873709434,
                    -0.0863094348834702,
                    -0.16491936857324738,
                    -0.9676884609384331,
                    -1.3699248961504562,
                    -3.82527080656228,
                    -2.7873611923570256,
                    -0.4235434635233715,
                    -0.09500039792553683,
                    -0.6199046458189209,
                    -0.4045113634854672,
                    -0.790371319320895,
                    -1.386509735315372,
                    -1.6781675032737426,
                    -1.794926551365372,
                    1.0421989521809387,
                    0.42554953210888713,
                    0.7075108169453301,
                    0.05440901373986644,
                    -0.10178307310418967,
                    0.7649035999065332,
                    1.4716656696052766,
                    2.0746816914741,
                    0.12385419730955079,
                    0.7342477650772157,
                    0.3781451706624485,
                    -0.32711837201954347,
                    0.2885603916174342,
                    1.7803411203588129,
                    3.356730204112392,
                    2.982230811565945,
                    0.4767890559368141,
                    0.25136358998198555,
                    0.16810801025282207,
                    -0.37562183377359826,
                    0.1800364720891039,
                    2.306507885940921,
                    3.823660931809818,
                    2.410046578081917,
                    -0.553062285670917,
                    -0.487829932937879,
                    -0.3020038163532274,
                    -0.09350417847202674,
                    -0.12682711784349038,
                    0.19060036038934888,
                    0.803274792810571,
                    0.21621335702526273,
                    -16.24064242793357,
                    -5.50706488439297e-07,
                    3.058168588046878e-08,
                    7.649789605298459e-08,
                    3.312503169363717e-07,
                    0.016520610215108724,
                    365.46010158837015,
                    743.7781218518089
                ],
                [
                    0.6926277345370441,
                    0.5986425359000412,
                    0.4530712984486923,
                    0.12952511540825687,
                    0.11138897051295846,
                    -0.3436866422768151,
                    -0.8519868850777861,
                    -0.008770170190152311,
                    -0.0007827321522215445,
                    0.48571572632364673,
                    0.35316889681160196,
                    0.5004608462864818,
                    -0.3122962820797023,
                    -2.780023403858222,
                    -3.404248473206454,
                    -2.864327611239858,
                    -0.28635583989920393,
                    -0.2605227449463476,
                    -0.08631247005050798,
                    -0.16491635656433493,
                    -0.9676839946918859,
                    -1.369913072471043,
                    -3.8252604273553374,
                    -2.7873609798632675,
                    -0.423545366777714,
                    -0.09500152637622118,
                    -0.6199094751120663,
                    -0.4045134832825138,
                    -0.7903802240919172,
                    -1.3865046032829966,
                    -1.6781776431996345,
                    -1.7949307795043334,
                    1.0421955809761592,
                    0.4255497978217747,
                    0.7075112588694711,
                    0.054407076755991365,
                    -0.10178401145980727,
                    0.7649045844282868,
                    1.4716690893631563,
                    2.074680451800449,
                    0.12385559116414925,
                    0.7342499918090263,
                    0.37814545488519075,
                    -0.32712012304760124,
                    0.28856353546913305,
                    1.7803319356938094,
                    3.3567240996275602,
                    2.982228021465488,
                    0.47678951179100154,
                    0.2513664604616471,
                    0.16810671093352195,
                    -0.3756220160036074,
                    0.18003566934551343,
                    2.3065072589868683,
                    3.823664665926049,
                    2.4100435530069015,
                    -0.5530621023814186,
                    -0.4878278221542498,
                    -0.3020030110543764,
                    -0.0935050694043409,
                    -0.12682619513675827,
                    0.19059848600216514,
                    0.8032771196791435,
                    0.21621394992910914,
                    -18.002969548924387,
                    2.7234735343112146e-07,
                    -3.9560314259474385e-07,
                    -3.9070291156004653e-07,
                    -4.982798188127382e-07,
                    0.016521794287363903,
                    365.12824598653776,
                    742.9652513198392
                ],
                [
                    0.6926276104382776,
                    0.5986432038743337,
                    0.4530715986539111,
                    0.1295255904275601,
                    0.1113872031577609,
                    -0.3436874594260155,
                    -0.8519835228931386,
                    -0.008769677914968207,
                    -0.0007812773178978539,
                    0.48571204500678705,
                    0.3531714507181881,
                    0.5004643377289886,
                    -0.3122926800491482,
                    -2.7800190957247257,
                    -3.4042537266884394,
                    -2.864329534992561,
                    -0.28635710022048,
                    -0.2605272564578492,
                    -0.08630800854975378,
                    -0.1649154474883663,
                    -0.9676755525068262,
                    -1.3699169515898468,
                    -3.825284149624691,
                    -2.787355774759508,
                    -0.423545768720151,
                    -0.09500140834089317,
                    -0.6199044011044308,
                    -0.40451161268516383,
                    -0.7903840386761104,
                    -1.3865029972311966,
                    -1.6781771247248387,
                    -1.794920718381428,
                    1.0422028472685572,
                    0.4255506190639684,
                    0.7075136967546337,
                    0.05440567142398165,
                    -0.10177550862434726,
                    0.7649060771052852,
                    1.4716722158239846,
                    2.0746859872410006,
                    0.12385338064856502,
                    0.7342490997969663,
                    0.3781440353777107,
                    -0.32711721142233774,
                    0.2885578214476203,
                    1.7803370019670122,
                    3.356720704177597,
                    2.9822283111651644,
                    0.47679011325588877,
                    0.2513600278540774,
                    0.1681092405097373,
                    -0.37562124129586,
                    0.18003176638653245,
                    2.3065132778425594,
                    3.823667681709032,
                    2.4100486953238867,
                    -0.553062586306776,
                    -0.4878302394486423,
                    -0.30200264739325583,
                    -0.09350511732491601,
                    -0.12682768879668757,
                    0.190599344541549,
                    0.8032765354658116,
                    0.21621228802525513,
                    -16.886217595572763,
                    -1.648017799016866e-07,
                    2.271704013345172e-07,
                    -6.068439874082367e-07,
                    -1.5242650673442638e-07,
                    0.016522091051681398,
                    364.5989759551818,
                    742.4180536848291
                ],
                [
                    0.6926290165027532,
                    0.5986427411766254,
                    0.45307130846725374,
                    0.12952636730514117,
                    0.11138929300194919,
                    -0.34368750235488643,
                    -0.8519851731588289,
                    -0.008769627785309753,
                    -0.0007817464872291751,
                    0.48571449167811503,
                    0.353169943522289,
                    0.5004603185856107,
                    -0.3122943406799444,
                    -2.780014876079965,
                    -3.4042543582194806,
                    -2.864327354386163,
                    -0.2863569517233407,
                    -0.26052572976665817,
                    -0.0863110933199798,
                    -0.16491353096813985,
                    -0.9676758684013521,
                    -1.3699126134626984,
                    -3.825279240684076,
                    -2.7873662580153438,
                    -0.4235420523174925,
                    -0.09499996973615112,
                    -0.6199086139768094,
                    -0.40451812975917906,
                    -0.7903792730627041,
                    -1.3864957022878073,
                    -1.6781697619160805,
                    -1.7949286553801094,
                    1.042201298531263,
                    0.4255521466717538,
                    0.707510230772067,
                    0.05440915999778612,
                    -0.10178624538709906,
                    0.7649170697643998,
                    1.471666189156416,
                    2.074681199373495,
                    0.12385341262302736,
                    0.7342455783440366,
                    0.37814451238661473,
                    -0.3271186003468935,
                    0.28856075228976674,
                    1.780338519653005,
                    3.3567214288801184,
                    2.982230151528593,
                    0.4767918156314322,
                    0.2513612301663365,
                    0.1681059186300293,
                    -0.3756204863606905,
                    0.18003743375965675,
                    2.306507850817818,
                    3.823668940344191,
                    2.4100435899065364,
                    -0.5530623595220812,
                    -0.48782813893343197,
                    -0.3020021020462082,
                    -0.09350464433093704,
                    -0.12682635275856702,
                    0.19059993607203957,
                    0.803277358174108,
                    0.2162139247777946,
                    -15.94563767303594,
                    3.3465597043912533e-07,
                    -7.75112303940815e-08,
                    2.989494847472351e-07,
                    7.747193720158739e-07,
                    0.016522213699143685,
                    365.77783673265384,
                    743.2472552226243
                ],
                [
                    0.6926272770047508,
                    0.5986438193463418,
                    0.4530706755606305,
                    0.1295243904218611,
                    0.11138820358793347,
                    -0.3436862301400255,
                    -0.8519858683098165,
                    -0.008768754868566748,
                    -0.000778851867865534,
                    0.48571267214490293,
                    0.35317177405484357,
                    0.5004627984557306,
                    -0.3122955045622055,
                    -2.780021727095043,
                    -3.404254612632354,
                    -2.8643306116272576,
                    -0.2863569293858098,
                    -0.2605233899751549,
                    -0.08630907861022591,
                    -0.1649129057937357,
                    -0.9676832251589511,
                    -1.3699170084773216,
                    -3.8252785702802536,
                    -2.787358441873079,
                    -0.4235470745525698,
                    -0.0950031399039356,
                    -0.6199086239116628,
                    -0.4045147422473448,
                    -0.7903772232778379,
                    -1.3865027524513638,
                    -1.6781696333580383,
                    -1.7949220932419458,
                    1.0421981286393167,
                    0.4255509140540672,
                    0.7075119376513207,
                    0.05440842948010037,
                    -0.10177933646024938,
                    0.7649066832501314,
                    1.471680980684423,
                    2.074690771214604,
                    0.1238550847457042,
                    0.7342467825885528,
                    0.3781460321043945,
                    -0.32711728302268295,
                    0.28856158429158907,
                    1.7803427717762408,
                    3.356723637850492,
                    2.982231998249332,
                    0.47678991036382157,
                    0.25136014852994154,
                    0.16810802720795232,
                    -0.3756216361710901,
                    0.1800344198327756,
                    2.3065045840402076,
                    3.8236657490969064,
                    2.41004367212264,
                    -0.5530611885602452,
                    -0.4878274559024601,
                    -0.302002549829059,
                    -0.09350379753099931,
                    -0.12682671964276276,
                    0.19059963304549354,
                    0.8032783656576153,
                    0.2162143216441237,
                    -16.961474680169154,
                    -6.452119681902413e-07,
                    -3.463825724423495e-07,
                    1.1428018798975376e-07,
                    -1.5715738450063144e-07,
                    0.016521486388631063,
                    364.8123022849085,
                    741.8863100807738
                ],
                [
                    0.6926278415399533,
                    0.5986416630343585,
                    0.4530704009166484,
                    0.1295252494803717,
                    0.11138685448486585,
                    -0.3436858065970615,
                    -0.8519851541822229,
                    -0.00877049975148933,
                    -0.0007796793414916394,
                    0.48571431334539095,
                    0.3531715058811626,
                    0.5004611840508995,
                    -0.31229615287620915,
                    -2.780018918843691,
                    -3.4042478559045195,
                    -2.8643274401631644,
                    -0.28635595131968183,
                    -0.2605258653438691,
                    -0.08631138647570982,
                    -0.164916580063147,
                    -0.9676821994925521,
                    -1.3699133551287461,
                    -3.8252867629542844,
                    -2.787361126493005,
                    -0.4235456748465478,
                    -0.09500176522450964,
                    -0.6199053155887175,
                    -0.4045146034017435,
                    -0.7903721497321029,
                    -1.3865133935599856,
                    -1.6781726880544479,
                    -1.7949249450025266,
                    1.0421988709799628,
                    0.42555244560855277,
                    0.70751257560522,
                    0.054405215511769786,
                    -0.10178665658328669,
                    0.7649034874993106,
                    1.4716823996909474,
                    2.0746826947971906,
                    0.12385516767413517,
                    0.7342457294139692,
                    0.37814416936186135,
                    -0.3271175385969053,
                    0.28856155125714517,
                    1.7803404923516475,
                    3.356719124396304,
                    2.9822284065230327,
                    0.4767885589209781,
                    0.2513637110698632,
                    0.16810866724696724,
                    -0.37562147970738746,
                    0.18003600461050834,
                    2.3065055682658597,
                    3.823673109751082,
                    2.4100437791769656,
                    -0.5530627141581397,
                    -0.4878288641742247,
                    -0.302001198563324,
                    -0.09350418452182184,
                    -0.12682678479558626,
                    0.19059971009923582,
                    0.8032749793009342,
                    0.21621420360599558,
                    -17.486456546329986,
                    -4.72809935109892e-07,
                    -1.4920082845277365e-07,
                    2.2650637387529712e-07,
                    6.326562473961222e-07,
                    0.016520994230914725,
                    364.0307813287992,
                    742.8101569968611
                ],
                [
                    0.6926283463367627,
                    0.598642358935278,
                    0.45307091323440857,
                    0.1295261831467539,
                    0.1113895673783569,
                    -0.3436873155954816,
                    -0.8519835335536593,
                    -0.008770595709197217,
                    -0.0007814334019215498,
                    0.4857150042891792,
                    0.3531694896686018,
                    0.5004613065283808,
                    -0.31229358725208606,
                    -2.7800270321631584,
                    -3.404252665705687,
                    -2.864328275821698,
                    -0.286356831585148,
                    -0.26052681494707775,
                    -0.08631460483703532,
                    -0.1649165465165902,
                    -0.967684764135795,
                    -1.369918529880422,
                    -3.8252715589877035,
                    -2.787364087894517,
                    -0.42354607552836965,
                    -0.09499995490451026,
                    -0.6199087795169834,
                    -0.40451782572950395,
                    -0.7903771736924359,
                    -1.3865008143872841,
                    -1.6781554317663643,
                    -1.7949163339021996,
                    1.0421977162053417,
                    0.42554887965370564,
                    0.7075108818043834,
                    0.054409039761450124,
                    -0.101783680975322,
                    0.764924122409646,
                    1.4716826893268045,
                    2.074691744511212,
                    0.12385475426862409,
                    0.7342447013903154,
                    0.37814402220536775,
                    -0.3271182603941819,
                    0.28855780456228375,
                    1.7803336435858004,
                    3.3567174239075586,
                    2.982232235694554,
                    0.4767886666164334,
                    0.25135962038391785,
                    0.1681070234026661,
                    -0.3756212256008203,
                    0.18003590761573499,
                    2.306504503826332,
                    3.8236682769042587,
                    2.410048321828421,
                    -0.5530621597950804,
                    -0.4878284401422545,
                    -0.3020026596728918,
                    -0.09350468605807705,
                    -0.12682927058221843,
                    0.19060033043663477,
                    0.8032759218055977,
                    0.2162137185181359,
                    -16.427354232780253,
                    -2.819967348047977e-07,
                    3.6468521393515213e-07,
                    4.056040485735257e-08,
                    5.368086018892212e-07,
                    0.016521554696357302,
                    365.2762206216969,
                    740.8496152286059
                ],
                [
                    0.692629112341053,
                    0.5986412821678795,
                    0.45307026847354065,
                    0.129525436766378,
                    0.11138687107560424,
                    -0.3436879254061882,
                    -0.851987585454204,
                    -0.008770085532413851,
                    -0.0007826578762801185,
                    0.4857149309509267,
                    0.3531704090821072,
                    0.5004618450356437,
                    -0.31229681671672377,
                    -2.7800229303839012,
                    -3.4042519767033617,
                    -2.8643278797854137,
                    -0.2863552792289444,
                    -0.2605258405008708,
                    -0.08630880957994656,
                    -0.16491577412635872,
                    -0.9676839365499931,
                    -1.3699107920071016,
                    -3.8252624265019777,
                    -2.787362034786217,
                    -0.4235451645651257,
                    -0.09499881956356349,
                    -0.6199091428793392,
                    -0.4045129587173351,
                    -0.7903815354111203,
                    -1.3865036058648974,
                    -1.6781700629656533,
                    -1.794918062900236,
                    1.0421967676160222,
                    0.42555207578958143,
                    0.707510639609799,
                    0.05440776856610182,
                    -0.1017864470420077,
                    0.7649030625875433,
                    1.4716722168022107,
                    2.0746838024531664,
                    0.12385727630806706,
                    0.7342465238982402,
                    0.3781456601506184,
                    -0.3271170564465301,
                    0.28855705712957486,
                    1.7803395274283007,
                    3.356726068826963,
                    2.982232222392615,
                    0.4767889015705206,
                    0.2513598604212684,
                    0.16810644631328756,
                    -0.3756211971367154,
                    0.18003586718111136,
                    2.306511152242976,
                    3.8236712805216504,
                    2.4100471955385743,
                    -0.5530624533395526,
                    -0.48782840665527794,
                    -0.30200252142524564,
                    -0.09350355928691578,
                    -0.12682718830687212,
                    0.19060001350957037,
                    0.8032749097791053,
                    0.2162144081305477,
                    -18.40688636562379,
                    4.417056599697428e-07,
                    3.5307900157624627e-07,
                    -5.691081489693619e-07,
                    -1.73788610974596e-08,
                    0.0165210468356632,
                    365.38729611300744,
                    742.5351699729888
                ],
                [
                    0.6926280594611881,
                    0.5986417989203369,
                    0.45307081128615867,
                    0.12952583275173113,
                    0.11138805325809335,
                    -0.3436881525202313,
                    -0.8519854509332768,
                    -0.008770040818576085,
                    -0.0007809302613666076,
                    0.48571730983401423,
                    0.35317097164867967,
                    0.5004624733703347,
                    -0.3122941770946621,
                    -2.780024319360315,
                    -3.404251592516931,
                    -2.864323443441593,
                    -0.2863575799212895,
                    -0.2605240537744127,
                    -0.08631013190561473,
                    -0.1649183143850944,
                    -0.9676774016271948,
                    -1.3699211474259447,
                    -3.8252747700167458,
                    -2.787360525056154,
                    -0.4235447025120595,
                    -0.09499904159961621,
                    -0.6199071754117382,
                    -0.40451392427536015,
                    -0.7903756223933841,
                    -1.3864943756206114,
                    -1.678183093370512,
                    -1.794921517893893,
                    1.0421993367746498,
                    0.42554964224517217,
                    0.707509221470873,
                    0.05440646994998631,
                    -0.10178114210230113,
                    0.7649057130631923,
                    1.4716741376716904,
                    2.07468593893937,
                    0.12385371340589911,
                    0.734248334262444,
                    0.37814944306030107,
                    -0.3271190768127704,
                    0.28856272412077566,
                    1.7803349316817236,
                    3.3567237573659336,
                    2.9822287913640024,
                    0.4767926599224412,
                    0.25136114838362417,
                    0.16810842911711008,
                    -0.37562082458020146,
                    0.18003387017899797,
                    2.3065007925082956,
                    3.8236679753752676,
                    2.4100470846844853,
                    -0.5530628194340329,
                    -0.48782906003065973,
                    -0.30200170040045743,
                    -0.09350369851769173,
                    -0.1268268945293814,
                    0.19060003706664586,
                    0.8032754397350694,
                    0.2162127001456639,
                    -18.842874029134602,
                    -2.0684143028185095e-08,
                    6.881961047016753e-07,
                    1.7136855235725742e-07,
                    -2.8594111247698123e-08,
                    0.01652094624099056,
                    364.9077278389192,
                    741.6648729499252
                ],
                [
                    0.6926199732092168,
                    0.5986367884770081,
                    0.4530670168862983,
                    0.1295233743787543,
                    0.11138688840320608,
                    -0.34368383244559764,
                    -0.8519719885769714,
                    -0.00876687083925916,
                    -0.0007801227486627482,
                    0.4857028626812129,
                    0.3531636283074335,
                    0.5004619250623296,
                    -0.31228590752702423,
                    -2.779930267590437,
                    -3.4041133598490774,
                    -2.864244858949612,
                    -0.2863481436593541,
                    -0.2605201703212349,
                    -0.0863099255280299,
                    -0.16490504735230202,
                    -0.9676432889407135,
                    -1.3698282555241297,
                    -3.8249921138707204,
                    -2.787266743006546,
                    -0.4235293098425547,
                    -0.09501160511189327,
                    -0.6199017528145485,
                    -0.40450362177914795,
                    -0.7903456861923999,
                    -1.3864398315037827,
                    -1.6780782388865223,
                    -1.7948331826592943,
                    1.0421721767283794,
                    0.4255452342708943,
                    0.7074989908280328,
                    0.05441524928163475,
                    -0.10179723237923903,
                    0.7648464364132493,
                    1.471561581222218,
                    2.074581313663634,
                    0.12384945459122756,
                    0.7342290222124782,
                    0.37814406727233435,
                    -0.32711901591830933,
                    0.28854941374134374,
                    1.7802335402303002,
                    3.356491134942117,
                    2.9821179493299588,
                    0.4767757148464858,
                    0.2513597655010492,
                    0.168104878814411,
                    -0.37561684694789965,
                    0.18003343257517138,
                    2.306431270698146,
                    3.8235294330646807,
                    2.409956054873415,
                    -0.5530534712901037,
                    -0.4878219017546823,
                    -0.3019973274813348,
                    -0.0935044276818697,
                    -0.12683033751846748,
                    0.19059731907514804,
                    0.8032641197820249,
                    0.2162128971184438,
                    -12.520393573283185,
                    -2.43821536259575e-07,
                    8.169661716036031e-08,
                    3.3128479864033814e-07,
                    -5.539725331180504e-07,
                    0.01652162720511165,
                    294.1330287238693,
                    592.6078808734215
                ],
                [
                    -5.7530576583759005e-08,
                    -4.882047828610279e-07,
                    1.0198099759272214e-06,
                    8.695744156508428e-07,
                    2.69756989474086e-07,
                    2.352409554442833e-07,
                    -3.742289290995621e-07,
                    8.524952422259105e-07,
                    6.568401176567126e-09,
                    -4.42484846264128e-08,
                    4.317409229460487e-07,
                    9.352048297979424e-08,
                    -2.784828471608476e-07,
                    -7.850319312139111e-08,
                    -1.3486086991028763e-07,
                    2.318493155951888e-08,
                    1.9882332740543026e-07,
                    1.910423982726059e-07,
                    4.665989216710159e-07,
                    -1.4713207462083495e-09,
                    3.4355447861838913e-07,
                    6.119930964744111e-07,
                    -4.3964032818721695e-07,
                    2.5552119055310593e-07,
                    -3.8452834217921056e-07,
                    -5.404233193480794e-07,
                    5.682450998203243e-07,
                    4.07174012548991e-07,
                    1.8767668015472833e-07,
                    -1.710231726964489e-07,
                    5.391631001036558e-07,
                    -4.90253657232865e-07,
                    2.4166475559445345e-08,
                    1.7398016771029567e-07,
                    4.6155177215569537e-07,
                    -5.473628059045684e-07,
                    -1.0987726513704185e-06,
                    4.1370723568746316e-08,
                    1.1382643179949413e-07,
                    6.22801338195164e-08,
                    -3.1457258255702616e-07,
                    -1.583565295718084e-08,
                    -5.522580611910645e-07,
                    1.5082088664413963e-07,
                    3.200739144475327e-07,
                    -2.624998396802859e-07,
                    -7.185949189446137e-07,
                    -4.6538516766631265e-08,
                    -7.118037221462413e-08,
                    -2.8904920035226248e-08,
                    4.674500581396657e-07,
                    4.9699052478636465e-08,
                    7.473471100073091e-07,
                    1.3653106859828767e-07,
                    -3.8987190346100023e-07,
                    4.0650326483799736e-07,
                    -3.2396651720688825e-08,
                    -1.7526869305586654e-07,
                    1.0019073136643588e-07,
                    4.116040943600409e-08,
                    -5.588974119095781e-07,
                    -3.0462954866311536e-07,
                    4.130988639963238e-07,
                    6.308610941299181e-08,
                    2.2913443243376067e-07,
                    3.6581727007578375e-07,
                    6.428144098752153e-07,
                    -2.291740733839414e-07,
                    -2.5223093963259464e-07,
                    -3.3152056004051466e-07,
                    -2.1531599129640384e-07,
                    -3.2724514478636674e-07
                ],
                [
                    0.6926281327356617,
                    0.5986427067951067,
                    0.45307103299741175,
                    0.12952481585777298,
                    0.11138754811915509,
                    -0.3436868330020898,
                    -0.8519842476819778,
                    -0.008772040534639284,
                    -0.0007815477335255456,
                    0.4857140798451862,
                    0.35316850235359065,
                    0.5004631416526456,
                    -0.3122932770648134,
                    -2.780027109449436,
                    -3.4042584101951023,
                    -2.8643250829295597,
                    -0.28635456351185273,
                    -0.26052666840794164,
                    -0.08631292489407748,
                    -0.16491420508816745,
                    -0.9676822836238967,
                    -1.3699187816630751,
                    -3.825260381266356,
                    -2.7873607262328726,
                    -0.42354743150833635,
                    -0.09500002429003186,
                    -0.6199100929130977,
                    -0.40451345694027685,
                    -0.7903718359997814,
                    -1.3865002185503588,
                    -1.6781635717847347,
                    -1.7949150242997896,
                    1.0422010507464432,
                    0.4255508101430272,
                    0.7075087339891333,
                    0.05440830031766914,
                    -0.10178701887425581,
                    0.7649023075017616,
                    1.4716719078412623,
                    2.074677622723775,
                    0.12385354483890991,
                    0.7342472212290853,
                    0.3781449446978256,
                    -0.32711851670041253,
                    0.28856057171687827,
                    1.780327556217639,
                    3.3567211714686227,
                    2.9822293049698145,
                    0.47678934042074306,
                    0.25136212005320113,
                    0.1681051095211361,
                    -0.37561953549227783,
                    0.18003485087409776,
                    2.306502938252637,
                    3.8236663373721274,
                    2.4100420784235204,
                    -0.5530624264488324,
                    -0.48782820851891956,
                    -0.302003268287174,
                    -0.09350369681133665,
                    -0.1268275388425711,
                    0.19060011861811502,
                    0.8032767740915635,
                    0.21621400502894822,
                    -15.780786595308374,
                    3.085509789179393e-07,
                    1.7460153364013524e-07,
                    -2.7408509598632586e-07,
                    1.0267567584735298e-07,
                    0.0165212929858101,
                    364.31522307288924,
                    741.4478909442313
                ],
                [
                    0.6926275430003545,
                    0.598643606069385,
                    0.4530706114624082,
                    0.12952568252029933,
                    0.11138867228236739,
                    -0.34368756886469337,
                    -0.851985365617446,
                    -0.008769334382150482,
                    -0.0007826281007164097,
                    0.48571324268797034,
                    0.35317054559942646,
                    0.5004634951001352,
                    -0.312294501450247,
                    -2.7800246006926272,
