{
    "something_vs_nothing": {
        "input_size": 72,
        "layers": [
            {
                "weights": [
                    [
                        0.2707242272772069,
                        -0.10195940227501256,
                        -0.08802862537724261,
                        -0.17882810369269508,
                        0.1442346048874464,
                        -0.3835897828133804,
                        0.29080196070274666,
                        -0.12686781681585046,
                        0.053173182676183095,
                        -0.04156172924623501,
                        0.24368465617416235,
                        -0.34335678491627564,
                        -0.05373620066891791,
                        -0.0640090591114026,
                        0.18896157372257288,
                        -0.18331521121900513,
                        -0.028738034591739292,
                        -0.14630973632022862,
                        0.007035624452598805,
                        0.09713586895263704,
                        -0.18343652953548686,
                        0.19078728497326902,
                        0.15026512009879925,
                        0.0837490564836447,
                        0.1501426582107353,
                        -0.11395464319572218,
                        -0.020481704253108027,
                        -0.15596157237651145,
                        -0.04464801327100265,
                        0.08839257778969767,
                        -0.11527679195421817,
                        -0.06612558780932956,
                        -0.11452878335326656,
                        -0.14086760691645325,
                        -0.11187435513946983,
                        -0.00211076648648356,
                        -0.18621839143921295,
                        0.039069282969515354,
                        0.2766336961849784,
                        0.12367402676288926,
                        -0.03197259206026915,
                        -0.14793816068080604,
                        -0.12452638229180626,
                        0.28207576683795776,
                        0.00846795912933816,
                        -0.10616594109489222,
                        0.03181924744457767,
                        0.3500425227464737,
                        0.020026492080271525,
                        0.10286718495123653,
                        0.05002838665930458,
                        -0.058708307748919775,
                        -0.19041969967035668,
                        -0.05822378706881291,
                        -0.034815705562463016,
                        0.0977705318636996,
                        0.13983056897908414,
                        0.15518368021725953,
                        0.04759788754237646,
                        0.14752352737845467,
                        -0.12573299016610878,
                        0.20881135920554797,
                        0.08548830340300147,
                        -0.049682139183785945,
                        0.08141969108958283,
                        -0.012595285503509288,
                        0.18860489790857116,
                        0.2533028027370331,
                        0.3642625677555269,
                        -0.23274938924802294,
                        -0.2406856342382649,
                        -0.08407764382440854
                    ],
                    [
                        0.026672844907971744,
                        0.14602815351937082,
                        0.052605824540267535,
                        -0.33703353597066715,
                        -0.05103400210472864,
                        0.13799577376787436,
                        0.038349122560730566,
                        0.12700186338533745,
                        -0.03705469043505988,
                        -0.033459678154999575,
                        0.03109356516471405,
                        0.06834194120137604,
                        0.03304995335446162,
                        0.019834774301243134,
                        -0.11177704771483843,
                        0.06292729772015324,
                        0.020303545165239488,
                        0.18824731798531993,
                        0.19981964665025115,
                        0.03085940291399064,
                        -0.06254749168168569,
                        -0.10645506790903705,
                        0.07058239234401881,
                        0.012890011391426568,
                        -0.0573089459285126,
                        0.007266142805707823,
                        -0.10333347399135487,
                        0.11633867234536982,
                        -0.07452142746433303,
                        0.20408461746758313,
                        0.06724860696513332,
                        0.09892975387284449,
                        -0.18248530762350695,
                        0.028230405509778015,
                        0.12342607518271245,
                        -0.15895010030132242,
                        -0.044369751000603676,
                        0.005435757782226426,
                        -0.2288528867077926,
                        0.052526565340381956,
                        0.14102677459750557,
                        -0.14325265680533106,
                        0.05842432977735122,
                        -0.2187139018729053,
                        -0.0064492515443418524,
                        -0.2692953924505491,
                        0.18690295137261065,
                        0.06815008965613796,
                        -0.004102825979296392,
                        -0.12919360319485992,
                        0.21229265502646277,
                        0.32785029154245576,
                        -0.3096636440744587,
                        0.20602733840880338,
                        0.2712751255248177,
                        0.056335282762412627,
                        -0.19987800538919767,
                        0.14389088625733693,
                        -0.030153383679691743,
                        -0.10065343796554288,
                        -0.20500968927782695,
                        0.09175624932936922,
                        0.1321344776532246,
                        -0.10392178827996526,
                        0.0867627228455618,
                        -0.19072356493719045,
                        0.1336435053118908,
                        0.007761216404024256,
                        -0.031094961984558127,
                        -0.0169576454215242,
                        0.14481435950097798,
                        0.12506860664416802
                    ],
                    [
                        0.08824422072545153,
                        0.02295020166623101,
                        0.012970187985450986,
                        0.10306337699975407,
                        0.03874909319645631,
                        0.11375856781074752,
                        -0.051686128919676666,
                        -0.40580629401785645,
                        0.17313743364323567,
                        0.3644966078290429,
                        0.07356074059476367,
                        -0.016692538880583294,
                        -0.022740790649338836,
                        -0.01984236462913498,
                        0.0029015680500007663,
                        -0.18700312145781472,
                        -0.08618240965337132,
                        -0.16617113794171048,
                        0.04146652689796175,
                        -0.04944019206181045,
                        0.0825352206629934,
                        -0.029117193290416822,
                        0.16438919797020698,
                        0.035588983555906964,
                        0.36511662149495555,
                        -0.31606015381518204,
                        -0.10781944804248467,
                        0.15024781527478515,
                        0.4213876178010663,
                        -0.04143912961924334,
                        0.007278165529731517,
                        -0.037719040418934195,
                        0.22190951876459863,
                        -0.04788464391266981,
                        0.11334497331301742,
                        -0.05330026648311187,
                        -0.21209312587433238,
                        0.052257953410572024,
                        0.08386413557255434,
                        0.2155376470887103,
                        -0.018407837736219384,
                        -0.10289367728539348,
                        0.09379351610317105,
                        0.040122848706288704,
                        0.04677751285377317,
                        -0.012185450624546294,
                        0.19338976166562827,
                        0.061582119395953955,
                        0.3174431180568302,
                        0.18517611642675075,
                        0.10984163268336836,
                        -0.27123972343604286,
                        0.10038654671593816,
                        0.07004703394117659,
                        0.13515861213392594,
                        0.1740736824512098,
                        -0.0668130319648211,
                        0.1373342697417346,
                        -0.09371757183651497,
                        0.32581301250150574,
                        -0.22199194441954134,
                        -0.2934480933997972,
                        -0.27512021097068334,
                        -0.1484259306938414,
                        -0.186519233093288,
                        0.32601315061727365,
                        -0.054416583013030706,
                        -0.22377929822957265,
                        0.1857304961299653,
                        -0.09775398980359874,
                        -0.20614222942356622,
                        0.14597315460821658
                    ],
                    [
                        0.10389369609633878,
                        -0.07249278049253795,
                        0.23459000004020475,
                        0.021516929951787573,
                        0.26949159980955,
                        0.08379014699998405,
                        0.2598009234366432,
                        0.018233782737571362,
                        -0.20329073282983878,
                        0.40822810817689953,
                        -0.09096236133042795,
                        -0.03313964381481612,
                        -0.11673308415354244,
                        -0.033899074827426406,
                        0.040444906846965764,
                        0.03363836314566734,
                        0.11017004793311548,
                        0.29869303482926113,
                        -0.020077428631417905,
                        -0.20552012257440444,
                        -0.19705302108493894,
                        -0.11095908636652109,
                        -0.2790326346031553,
                        0.13750497073983098,
                        -0.08303559393851301,
                        -0.05183082971714181,
                        -0.00031524713966728354,
                        -0.2327700707659053,
                        -0.143552726796007,
                        0.11245192094799539,
                        0.10308985513104886,
                        -0.07386198845010629,
                        0.30175581902090937,
                        -0.2176211537596229,
                        -0.05749786835916324,
                        -0.03847329052257824,
                        -0.46551416669109,
                        0.32292146893601326,
                        0.06105533575667638,
                        -0.17409823031796526,
                        0.3418622404762407,
                        0.09761033336206373,
                        0.07158769000366075,
                        -0.10116639970000768,
                        0.017703787339202966,
                        -0.25428005270489296,
                        0.13250434907080744,
                        -0.062406386473870104,
                        0.022341366092437188,
                        0.20034247703328428,
                        0.04745801847484299,
                        0.0437445742438781,
                        0.04608321747036394,
                        -0.12221193398255215,
                        0.13933411990571146,
                        0.25722651846741396,
                        0.1264676100163218,
                        0.14748480241081388,
                        -0.1462135864863647,
                        -0.14463120381215427,
                        -0.24014600404863998,
                        0.20537551180473934,
                        -0.04236331126789472,
                        0.23330732374683097,
                        -0.13031861378113344,
                        -0.07291816380476349,
                        0.01590418119854295,
                        0.1535750114432519,
                        0.010125032633251124,
                        0.03518745916795279,
                        0.002754594550935935,
                        0.029531286712660067
                    ],
                    [
                        -0.18607833631412407,
                        0.0134878501622131,
                        -0.031096498918577714,
                        -0.009470746814307884,
                        0.08205609265610814,
                        -0.1134463568348143,
                        -0.014084671234104966,
                        -0.049560313795583934,
                        0.06955033416247708,
                        0.13079510850259823,
                        -0.1592375437289482,
                        0.0976517385171026,
                        0.34429722003647234,
                        -0.24519282097210415,
                        -0.13836198255251897,
                        -0.14676293330736181,
                        -0.04651628692388171,
                        0.27047484765900015,
                        0.0022254460578627656,
                        -0.11578226588120438,
                        0.10363391738426206,
                        -0.09996742184514124,
                        0.1872353603369892,
                        0.050877840040668455,
                        0.23146323272837804,
                        -0.11022404052550311,
                        0.505142852062005,
                        0.13743077083890956,
                        0.1090966920977834,
                        -0.0085314079346107,
                        -0.12093285318907124,
                        -0.14462811293726505,
                        -0.022662887683431554,
                        -0.13287829758218828,
                        0.04711261870807004,
                        -0.13768290530788668,
                        0.10351378347316806,
                        0.15935361735411607,
                        -0.1176400845670473,
                        0.1987810112924489,
                        -0.03965698929203044,
                        0.1925479810147042,
                        0.07302772454853958,
                        0.18705472027618203,
                        -0.16616996592161373,
                        -0.017798997796537517,
                        0.24190487676515587,
                        -0.10300614128026314,
                        -0.33953353761346583,
                        -0.32376486357940926,
                        -0.41774010877934353,
                        -0.35236065365280433,
                        -0.06860652719808041,
                        0.21308801380695364,
                        -0.07370487991886213,
                        0.05392122560023868,
                        -0.018331915027267803,
                        0.0014248242393374486,
                        -0.02803313995745266,
                        -0.029030057384665117,
                        0.07686068332950291,
                        -0.19599711190688587,
                        0.1683545295557874,
                        0.1533363222079605,
                        -0.03250955681265019,
                        0.13423223737203024,
                        -0.11689073770952947,
                        -0.08953717064588973,
                        0.02604397504501388,
                        -0.03170350418081025,
                        -0.07478967211193713,
                        -0.11207467313109938
                    ],
                    [
                        -0.09291578696434055,
                        0.15652812403274796,
                        -0.32388723427805877,
                        0.05874906072822217,
                        -0.03940615863549778,
                        0.12130224999994146,
                        0.0858456022732276,
                        -0.4637557446088204,
                        0.09744110174623768,
                        0.05404570724140351,
                        0.0036438061044254035,
                        -0.07811230271298189,
                        0.1422135369926037,
                        -0.06883821828517203,
                        0.3057862711082811,
                        0.09406380924905228,
                        0.3563046779065804,
                        -0.13092233282003923,
                        -0.29265427337214195,
                        0.11913159958096922,
                        0.14211734362088105,
                        0.005893349509126223,
                        -0.2564655409574405,
                        -0.07464919745268643,
                        0.10299758898672245,
                        -0.030696054275624222,
                        -0.01933086424539937,
                        -0.02924316144362543,
                        -0.15565244260441688,
                        -0.08883672101393321,
                        -0.23775923675342198,
                        0.29465999138517107,
                        -0.07922881252299702,
                        0.07960169696959288,
                        -0.17031432410688488,
                        0.13242137326684705,
                        -0.3121934962725502,
                        0.15343585300915935,
                        -0.005894654146451819,
                        0.3517675089334516,
                        -0.2177556788073364,
                        0.012730080026598667,
                        0.06120530231397745,
                        0.20548319872937285,
                        -0.0704761602317959,
                        0.014410734420714569,
                        -0.3570777881795614,
                        -0.13836147733711798,
                        0.07526932509254025,
                        0.1840290543838689,
                        -0.0469560448442688,
                        0.3427259205330489,
                        0.29337487107484883,
                        -0.010108748629134981,
                        -0.40225050019563124,
                        -0.2962610626343312,
                        -0.12964313777123546,
                        0.18597351798736142,
                        0.051712047963961214,
                        -0.349041302703802,
                        -0.038127638145027065,
                        0.2688935624271859,
                        -0.06246744788377545,
                        -0.12499493621261104,
                        0.3424373504196859,
                        0.00890158946639132,
                        -0.07985951646434665,
                        0.05836119313804648,
                        0.0028607877290147605,
                        -0.07152371303918229,
                        0.20140938809199382,
                        0.18595030046408104
                    ],
                    [
                        0.14014359302351728,
                        -0.017147869595589598,
                        0.19115006273324714,
                        -0.00828376319311264,
                        0.07777387787147345,
                        0.1722811446565835,
                        0.13480739337761366,
                        0.2982924472010452,
                        0.07521400267336181,
                        -0.28067666431137284,
                        -0.1933616841637127,
                        0.225017803113621,
                        -0.05521386165543805,
                        0.06442319085551518,
                        -0.14190927608847112,
                        0.16681357061338348,
                        -0.0641387081387984,
                        0.2430180397682533,
                        -0.08870567014969624,
                        0.18635556611961593,
                        0.11239935080347814,
                        -0.12039865090235848,
                        0.18316605545786319,
                        -0.15027241507933298,
                        -0.13707786481737527,
                        0.12028521535211542,
                        -0.10422366691099799,
                        -0.09897384454241827,
                        -0.05731678486839873,
                        -0.16669486497875263,
                        0.17416573494564958,
                        0.1014191164141416,
                        -0.011554782781747146,
                        -0.0180653445289233,
                        0.07502591879452983,
                        0.29422251675317856,
                        0.14516163375537372,
                        -0.08474285571256679,
                        0.12956986754147712,
                        -0.01979519535051488,
                        -0.0331663639672874,
                        0.31107856252535415,
                        -0.06982298294635383,
                        -0.0798641525212343,
                        -0.32535088120753874,
                        -0.23372152424218945,
                        0.07518715645576643,
                        -0.11582015019753984,
                        0.08590230029720683,
                        -0.18581184206098947,
                        -0.12788497105528912,
                        0.11242845115933395,
                        0.24348206341051298,
                        0.09874546690400329,
                        0.1996384736202085,
                        0.2840990285620678,
                        0.1733481921923492,
                        -0.15307333971667098,
                        -0.017557452084590353,
                        0.10503261178081849,
                        -0.0691411502147059,
                        0.07532433955353718,
                        -0.26319271423241086,
                        -0.13810466314273429,
                        0.08814662426419567,
                        -0.3728477518520784,
                        -0.18461875038075873,
                        -0.00295305298502371,
                        -0.2865657457699205,
                        0.009520166013682012,
                        -0.1332579151152933,
                        -0.048599099250138784
                    ],
                    [
                        -0.043163808900088724,
                        0.031548866259776265,
                        -0.09396478909705044,
                        0.014947734553765028,
                        -0.10019280010823058,
                        0.09267891834623088,
                        0.2823015188813468,
                        0.03281162987504857,
                        0.028311542557928615,
                        -0.19400132852686702,
                        0.11556103761006409,
                        -0.12634455475937204,
                        -0.13480786607868808,
                        0.0929065754763389,
                        0.03017312405964514,
                        0.1845292418248437,
                        0.24047948808271818,
                        -0.08994692703374874,
                        0.021396165025990725,
                        0.29340253059588706,
                        0.1610898750381762,
                        0.11884150838387819,
                        0.2177010108559081,
                        -0.10076716152739598,
                        0.10609723490243847,
                        0.23487556489400135,
                        0.27015204760362455,
                        -0.1343641362303707,
                        -0.041945701271904064,
                        0.06378586228739398,
                        -0.04816622383496931,
                        -0.06530270663467473,
                        0.11400022136365884,
                        -0.058901663811169055,
                        -0.2979854818666193,
                        0.06030788597326137,
                        -0.0707487984284879,
                        -0.12192183028838889,
                        -0.26095635844265086,
                        0.1689704111619509,
                        -0.3711854386416691,
                        -0.2832222674537159,
                        -0.04597434376019056,
                        0.20482593094178286,
                        0.21828431761377556,
                        -0.1924971058215607,
                        -0.029605365997258496,
                        -0.25174272918126145,
                        0.1685345106291514,
                        -0.24609377675336336,
                        -0.02386595750120627,
                        0.17216396315829186,
                        -0.03706900475498476,
                        0.2450267239709567,
                        -0.14500137053180867,
                        0.06153174492447895,
                        0.14221369763728886,
                        -0.02328528840684541,
                        0.23105237737438647,
                        0.0913549307813655,
                        -0.27290826550139025,
                        0.6597671173396605,
                        0.1081072740151112,
                        0.017890548970598275,
                        -0.23313546977774605,
                        0.013627969800936073,
                        -0.07665713847344785,
                        0.10739227767172038,
                        0.06194504853531089,
                        0.30883491417822984,
                        0.02370856208771963,
                        0.0855842466647579
                    ],
                    [
                        0.062076141918573746,
                        -0.024748300509898943,
                        -0.030566699553337316,
                        0.18350003377808027,
                        0.13000452255643824,
                        -0.10490693400896334,
                        -0.18557268382883169,
                        -0.011235004157809064,
                        0.1935733302790656,
                        -0.004588231044663001,
                        0.29107251487132874,
                        -0.1291783811789058,
                        0.023606756277634193,
                        -0.41938397682762485,
                        -0.09927798015171505,
                        -0.05152021977364369,
                        0.08515629574868153,
                        0.2851103064451892,
                        0.005823931560623341,
                        0.2423195969348029,
                        0.11028017941099708,
                        0.16439203003534403,
                        -0.07769247613765466,
                        0.23083189060810644,
                        -0.17882737978527413,
                        0.08252643520005276,
                        -0.15867701678437648,
                        -0.08635759206645913,
                        -0.24356726745368434,
                        -0.08605798477433703,
                        0.058519482751827556,
                        -0.011461743846439745,
                        -0.22462749020894393,
                        0.24512330944856148,
                        0.05620348971807643,
                        0.1680109055126272,
                        0.13087115327244803,
                        -0.11081129449453554,
                        -0.3241744931020065,
                        -0.15257072803861768,
                        0.20419264154553846,
                        -0.17559101228338583,
                        0.1360072807206768,
                        -0.10206782885480395,
                        0.06551820747566392,
                        -0.30398664210419896,
                        0.19451252766666066,
                        -0.006611450015080353,
                        0.14763763316098452,
                        0.03164360823051594,
                        0.13301063254982384,
                        -0.016988673210600005,
                        0.12389275725231037,
                        -0.25159544737067385,
                        -0.18011844874091776,
                        0.12091233408025594,
                        -0.006529709368249447,
                        -0.038125695203368754,
                        -0.029935382441892984,
                        0.08362085155752758,
                        -0.09889062570706983,
                        0.08505126612420932,
                        -0.15263197484477986,
                        -0.06787534050332762,
                        0.1641586119532018,
                        0.17854207130764846,
                        -0.18285906004256036,
                        0.13977245787139622,
                        -0.17319705367248384,
                        0.12217053861984639,
                        -0.31646867655321576,
                        -0.18618511540651875
                    ],
                    [
                        -0.08482871297047691,
                        -0.027747659147659892,
                        0.2372690715581645,
                        0.1506665290005878,
                        0.26257798476206345,
                        0.20110131633926134,
                        -0.04714392527247408,
                        -0.04438781405312001,
                        0.17816193703354377,
                        0.006728571837139877,
                        -0.026165612082219653,
                        -0.22253378716919858,
                        -0.017743353592589977,
                        -0.46516606778230774,
                        -0.07601959252478088,
                        -0.16331504194363344,
                        0.11542905792322596,
                        -0.07977872606927691,
                        -0.054841924890180145,
                        0.22451757744508294,
                        -0.17484462419476934,
                        0.05277648252610906,
                        -0.315877824579411,
                        0.014954852907441852,
                        0.06837762423280741,
                        0.14331182863281866,
                        -0.14978053221977433,
                        0.05327615699076558,
                        0.05302569994644822,
                        -0.0032052723496062046,
                        0.02500271312130062,
                        0.07725572028861091,
                        0.06631340414697519,
                        -0.1660018148480666,
                        -0.19931025172074696,
                        0.41766338088644545,
                        0.319965381071348,
                        -0.23194897934233893,
                        0.0750362903396409,
                        0.10457284712551841,
                        0.1252228725267474,
                        0.023399239407891695,
                        -0.15447865653477072,
                        -0.03040340106051626,
                        -0.081854189631803,
                        0.022395519339959067,
                        -0.04472855068676277,
                        -0.021945937714503053,
                        0.169758745794647,
                        0.20509303332578743,
                        -0.19685052879530385,
                        -0.07665501740576354,
                        -0.13179999229586128,
                        0.20395370199335153,
                        -0.00989465042474986,
                        0.2414982340263726,
                        -0.07959680910945348,
                        0.004333332364276362,
                        -0.2247827411328737,
                        0.21708925608103002,
                        -0.06043534792954312,
                        -0.24752607522090903,
                        -0.0987435475255449,
                        -0.38415132296168963,
                        -0.005302862116465242,
                        0.018747957069032636,
                        0.04801302783419176,
                        0.24968469726283898,
                        -0.05016269232588974,
                        0.13457598616754501,
                        0.05203978150216665,
                        -0.03222027341233398
                    ],
                    [
                        -0.3461336703205923,
                        0.1579168612242793,
                        -0.08399565819038625,
                        0.002992648608471071,
                        -0.21174346273091327,
                        0.0471659223018336,
                        0.018005136218724224,
                        0.0049029364951276065,
                        -0.02246552154928727,
                        0.17486971512542795,
                        0.16103681042972356,
                        0.12098614208680353,
                        0.5535131260283941,
                        -0.10003755506288581,
                        -0.0632529192556466,
                        -0.16913394847644517,
                        0.07266436604940163,
                        -0.11458123217669572,
                        -0.44972695694434117,
                        -0.20222302097145076,
                        0.012041983192647432,
                        0.16829788915792643,
                        -0.2594902596441719,
                        -0.10207368804739071,
                        -0.023225300908486873,
                        -0.12142291490411691,
                        0.08852729890937085,
                        0.0006668069958959138,
                        0.0535443190806386,
                        -0.12086915429089436,
                        0.25608938800351644,
                        -6.250145972601601e-05,
                        0.21559160344388473,
                        -0.07316627727771292,
                        0.0983399106934717,
                        -0.11323063049953905,
                        -0.15848487517512827,
                        -0.11739172192057647,
                        -0.007644447678294579,
                        -0.03645557649461819,
                        0.2565345016091771,
                        -0.19145070493949096,
                        -0.1817230554091358,
                        0.28336469110758766,
                        0.10146394315135146,
                        -0.31356847786100994,
                        0.08287818310766286,
                        0.03955544988993276,
                        -0.3574073411214084,
                        -0.06159373755623888,
                        -0.0029091586393629955,
                        0.12190041952084427,
                        0.15908261109128125,
                        0.015957795185022446,
                        0.17224180054403954,
                        -0.0243788791018923,
                        -0.14291613745662865,
                        -0.1556969738579915,
                        0.09044088242771933,
                        -0.3263615142665018,
                        0.11296792851996858,
                        -0.1844288445653142,
                        -0.05987068261845647,
                        0.08423031712548626,
                        0.20299015013355787,
                        -0.3234468273941489,
                        -0.13436303532557614,
                        0.008176948728850468,
                        -0.099347722431277,
                        0.14360385022353397,
                        -0.34773176090942104,
                        0.060300273428507814
                    ],
                    [
                        0.07098669608380266,
                        0.008180066190271746,
                        0.18370612209755702,
                        -0.20492904225773814,
                        0.18476945966494585,
                        -0.1171534004850281,
                        0.12092508634645552,
                        -0.05403403658086851,
                        0.13572385485815422,
                        0.1300783216263957,
                        -0.24400892893009862,
                        -0.025748532301754765,
                        -0.015405386423597688,
                        -0.039645877576138744,
                        -0.12594379418366083,
                        0.3085729824289183,
                        0.03484944609592017,
                        0.2591693323888481,
                        -0.09485810891866173,
                        -0.17696612688514135,
                        0.02204129648663077,
                        -0.09387276735290942,
                        0.39835766038891857,
                        0.040903808198186606,
                        0.1920998558351006,
                        -0.03737262868724975,
                        -0.054343550960022705,
                        -0.005151902934022661,
                        0.059286210262669475,
                        0.14159780751580364,
                        -0.020359002518613882,
                        -0.11347526233621957,
                        -0.17797942941442585,
                        -0.012779893784288643,
                        0.09549378765945937,
                        0.07632451271829029,
                        -0.002969591508989831,
                        -0.10002313320593549,
                        0.024460877231148245,
                        0.09530081314416496,
                        -0.006136276086171235,
                        0.018728081465369827,
                        -0.025084054275075266,
                        0.1525832113437621,
                        -0.0730333778897781,
                        0.0309226034944259,
                        0.06573800500201876,
                        0.12092042637559314,
                        0.2493141276474126,
                        0.11257563486736866,
                        0.09986887257654306,
                        -0.24503951483688552,
                        0.10106732405063948,
                        0.3822862687261963,
                        -0.1383351642612789,
                        -0.1699199749009527,
                        -0.03577564037100378,
                        0.17020802101648352,
                        0.08745841538280397,
                        -0.07952070107822201,
                        -0.005998363621198552,
                        0.1728398302956513,
                        0.11210329135357983,
                        0.4048128282538298,
                        0.16761444671853604,
                        0.05892786933377151,
                        0.10245437930457474,
                        -0.058164031819258756,
                        -0.16296216692216114,
                        0.028659522027931802,
                        0.08176017396827315,
                        -0.23254717084422116
                    ],
                    [
                        -0.0870594108559492,
                        -0.06154265030482803,
                        0.04427373375238085,
                        -0.043411009810896635,
                        0.07418278505742866,
                        0.016352041036998537,
                        0.17672125152613455,
                        -0.2851946099374154,
                        0.2761874396738209,
                        0.23627900216656006,
                        0.00838618102452256,
                        0.10838720237539101,
                        0.10109140006888247,
                        -0.12288160462665532,
                        0.027444177641534437,
                        0.1296956965165944,
                        0.05163612643458139,
                        0.17522012797479186,
                        0.015832685011526872,
                        0.013458498103836675,
                        -0.12796729100409335,
                        -0.060756341617772915,
                        -0.07661961350634466,
                        0.28424725295924036,
                        0.04008425869122702,
                        -0.16657108355969658,
                        0.06643306469357288,
                        -0.032000616105174066,
                        -0.5089607300710508,
                        0.0799753951923029,
                        -0.25878313052947255,
                        0.09641073670937367,
                        -0.16021059983841832,
                        -0.24305407673219231,
                        0.08239027516372979,
                        -0.24903229421244738,
                        -0.07444986724618666,
                        0.03406289915352716,
                        0.10203875385467549,
                        0.12414742274010865,
                        -0.006046881425617037,
                        -0.13873255794811484,
                        0.3206359043284875,
                        -0.10099688675643295,
                        0.3005981635810829,
                        -0.07542082888067092,
                        0.1935476155569679,
                        0.17832758982502217,
                        -0.17425570789614908,
                        0.05921408450103825,
                        0.12589867153180923,
                        0.11683035358720735,
                        -0.03315624171398267,
                        0.05032667423435748,
                        -0.0657816134992596,
                        -0.19530222987018703,
                        0.16400203949004008,
                        -0.09328023698642614,
                        0.22995969860103618,
                        0.10040848353993498,
                        -0.14877444558548067,
                        -0.026866386590206227,
                        -0.047730819232528955,
                        -0.14514794160866018,
                        0.08357159831555501,
                        -0.0797690123101974,
                        0.27194858560513285,
                        0.1434818735030716,
                        -0.14669817742359662,
                        -0.003166753591219423,
                        -0.03779336536159733,
                        -0.2607513089685327
                    ],
                    [
                        0.15520927979468652,
                        0.1583014692018882,
                        0.1542502024503976,
                        -0.07616464293225625,
                        0.17816432860315295,
                        -0.034958822570425686,
                        0.15585796326517914,
                        0.30208796918625674,
                        0.02335164688412547,
                        -0.2365247961907478,
                        -0.052816866088057704,
                        0.10683097773058438,
                        0.20331239650510358,
                        -0.188965339232263,
                        -0.03175804961024199,
                        0.03888985437668697,
                        0.07249972071047352,
                        0.15173726716718064,
                        -0.1580732760756328,
                        -0.07057971620425599,
                        0.1679944129334297,
                        0.06538915185405125,
                        0.07473010846361457,
                        0.1875539164440423,
                        0.01734223161818157,
                        0.08800057034530606,
                        -0.05242731031954788,
                        -0.22416833671139585,
                        -0.21587631421351453,
                        0.012386758947105284,
                        -0.03326011966603608,
                        -0.10910052808749633,
                        0.05300238273652814,
                        -0.1483785920180415,
                        0.018556211063828335,
                        -0.003253759720045551,
                        -0.1399981524353745,
                        -0.3830343134229753,
                        0.2427545644121295,
                        0.05277287261732626,
                        -0.44402098987702315,
                        -0.07107143627225372,
                        0.0656312885415531,
                        -0.038023448450076026,
                        0.09672168543387155,
                        -0.16221126420820667,
                        0.02919462153634478,
                        -0.008913948789192723,
                        -0.03051033116032892,
                        -0.036838150298055934,
                        0.033293259198771255,
                        0.15545356894801532,
                        -0.08835330003334192,
                        -0.0678733373353218,
                        0.02676083195708526,
                        -0.020024995938124828,
                        0.0642670487240542,
                        0.11971512262572381,
                        0.21519815047514596,
                        -0.01940735804527734,
                        -0.3795496661100609,
                        -0.011604089909188185,
                        0.058978404480473395,
                        -0.031159169422124926,
                        -0.025539360294515277,
                        -0.4054180854411855,
                        0.0846640561025632,
                        -0.0540053881700011,
                        -0.2518461013183671,
                        -0.14523701093249292,
                        -0.14413832357759787,
                        0.1014581803902837
                    ],
                    [
                        0.09360634942056756,
                        0.25245839708037515,
                        0.1079874687188197,
                        -0.22527489755294572,
                        -0.2348682127453652,
                        0.18845422575485515,
                        0.26111436684935735,
                        -0.03962468302422725,
                        0.09313383136418524,
                        -0.250815213963252,
                        -0.32398695972196456,
                        -0.19567061275714062,
                        -0.05953125426716938,
                        -0.086896064234673,
                        -0.03835234390854453,
                        -0.08183573878318504,
                        0.11321685749161048,
                        0.23792449188789078,
                        0.006032910460072554,
                        0.3383329145734102,
                        -0.10573411838347435,
                        -0.08751723232315653,
                        0.06462244379049167,
                        -0.05913312700177901,
                        0.1961753759627736,
                        -0.10685130253298153,
                        0.22044899751810665,
                        0.0323625027156295,
                        0.4275754634527966,
                        -0.07735248427470094,
                        -0.033782317951243715,
                        0.024275302881081276,
                        -0.3635046611803249,
                        0.10037752125642294,
                        0.08014101887752811,
                        0.018219727317572546,
                        -0.257399296897783,
                        -0.2577601733281095,
                        0.09776975310014074,
                        0.19586311459289252,
                        0.2657441053037035,
                        -0.14924025399165322,
                        -0.1717996712931306,
                        -0.045323133280758404,
                        -0.32928835697897274,
                        -0.09815519600729072,
                        0.141964939585886,
                        0.2724337502282358,
                        0.046525908939110634,
                        0.2734256080925448,
                        0.06847882299984516,
                        0.031893985856486666,
                        -0.028573531246255557,
                        0.031156174295332562,
                        -0.04247549120731484,
                        -0.023485125398359702,
                        -0.11031530582327875,
                        0.043171983632000616,
                        0.002408069169631076,
                        -0.24659667243601868,
                        -0.04011675029199772,
                        -0.14261189873241642,
                        -0.3413667431234625,
                        0.08064727489022055,
                        0.25978137575373017,
                        0.3949550315108173,
                        0.2604032549154939,
                        -0.14513359210134347,
                        0.1958741654513423,
                        0.1866498339260231,
                        -0.3313049218991036,
                        0.14354808589857504
                    ],
                    [
                        0.10452950589858757,
                        0.0271347083844653,
                        0.048102785946134215,
                        0.009717897124013997,
                        0.2719893081091713,
                        -0.06696480563864785,
                        -0.03332323220354657,
                        0.0012314972843639755,
                        0.045944012525011985,
                        -0.29387496683187186,
                        0.23132896825816088,
                        0.03769995947385944,
                        0.09485409930412977,
                        0.032885998624631735,
                        -0.031073545213980692,
                        -0.05920691891616027,
                        0.016019023723253437,
                        0.02534205682223817,
                        0.1925436259030251,
                        0.057676291047445656,
                        -0.022248111561010114,
                        0.3310941851570667,
                        -0.21323769271892035,
                        -0.22336819598391677,
                        0.05910034201880465,
                        -0.035395547581770055,
                        -0.2957659980374723,
                        -0.052038276896302034,
                        -0.11844262844679715,
                        0.1885214334041603,
                        -0.10354196173837413,
                        0.1751024414778787,
                        0.07663028336836397,
                        -0.034388485340813305,
                        0.0035286380980248198,
                        0.07144312327231435,
                        -0.3846730856047165,
                        0.05451140126156121,
                        -0.06318660180013977,
                        0.29965322773135195,
                        -0.1152114927936937,
                        0.19042732000087026,
                        -0.41915410406762965,
                        0.1357708358307147,
                        0.04601712565387918,
                        -0.041169415147622554,
                        -0.020148218414389414,
                        -0.0434267651037252,
                        0.07050053493054598,
                        -0.022374760771719765,
                        -0.297956284736307,
                        -0.03096847613005478,
                        0.3724536229376476,
                        0.007807700809716882,
                        0.048464657744784256,
                        -0.07300908458127058,
                        0.029009077693621425,
                        0.02965759299360178,
                        -0.04353365324275195,
                        0.1438772331562358,
                        -0.15384632618072155,
                        -0.021699201366945933,
                        0.08417562538201626,
                        -0.044500696556985776,
                        -0.20397994176254078,
                        0.09304403642793954,
                        -0.16369349300477815,
                        -0.07455136029222957,
                        -0.13802459819804563,
                        -0.018454735673516402,
                        -0.07156432886883553,
                        -0.07909831117990133
                    ],
                    [
                        0.11349648788567523,
                        0.2937681502361079,
                        -0.059585702336502164,
                        0.08710919568302035,
                        -0.05923558174869026,
                        0.016490374338749374,
                        0.1879585574917049,
                        0.008382206504508096,
                        -0.13592455853412436,
                        -0.12165443538127324,
                        -0.10279107084352776,
                        -0.002217370217916158,
                        0.1430019086818468,
                        -0.2264661401836549,
                        -0.17288152822583075,
                        -0.15409020192934125,
                        -0.2915675702882037,
                        0.22098711391474696,
                        -0.006063107294015765,
                        0.31679655328730427,
                        -0.23738894586350026,
                        0.21569705220986238,
                        -0.11694142202732727,
                        -0.06789494752906404,
                        -0.16482740951525626,
                        -0.15831064324794317,
                        -0.220624235204759,
                        0.036055492936745676,
                        -0.219033505421137,
                        -0.04030031088714546,
                        -0.001533590707233282,
                        0.11110178090101841,
                        0.01673195373325793,
                        0.05355430557709792,
                        0.08573526009438703,
                        -0.002875144209952869,
                        0.060557986429044176,
                        -0.16328669857416325,
                        -0.1292450724506537,
                        0.3162518011898917,
                        -0.0019557023960929446,
                        -0.11841677911115916,
                        0.22997998351182442,
                        -0.026140435085794743,
                        -0.10774850446399899,
                        -0.24149859142034083,
                        0.1299153110087019,
                        -0.18105015120181528,
                        -0.08983876333667284,
                        0.10734999799048922,
                        0.030605595709686767,
                        -0.014404478973634678,
                        -0.03566463026025472,
                        0.19098789235572028,
                        0.37171235796694646,
                        -0.09146013819206422,
                        0.09481734841711932,
                        0.32146671755901957,
                        0.17984284249178828,
                        -0.11447193762973153,
                        -0.07178010451232483,
                        -0.09966142375003972,
                        -0.15224056827579552,
                        -0.10398419211144369,
                        0.04364591315672337,
                        -0.09783816752580063,
                        0.14603331044172632,
                        0.020542577262132156,
                        -0.06618761380935698,
                        0.1476816533678319,
                        0.05316197095341006,
                        0.044144604297628454
                    ],
                    [
                        0.17333974242241335,
                        0.09554424142083996,
                        -0.018149744473007108,
                        0.1562591404779577,
                        0.05155296703411025,
                        0.486218127145518,
                        0.18311475017451997,
                        0.1922021035624537,
                        0.21516556193808148,
                        0.013306601876047722,
                        0.21881590192162137,
                        0.003892837928276261,
                        -0.13852890053090045,
                        -0.09399774306835945,
                        0.0879917590554232,
                        -0.26018664844311445,
                        0.03472548690904195,
                        -0.12139168090789539,
                        0.11970273042697556,
                        -0.12436228510955785,
                        0.31205054371255436,
                        0.12796968816514379,
                        -0.21147649319563327,
                        0.29312655834730567,
                        -0.03787541822672411,
                        -0.1212460182866335,
                        -0.17063321938769976,
                        0.09462745660927548,
                        0.2507536444441119,
                        -0.0964044954219409,
                        -0.1662701403063421,
                        -0.1899500146721306,
                        0.24940088522670234,
                        0.27845487028515403,
                        -0.05807852335321631,
                        0.08961751457348119,
                        -0.0004842417125902365,
                        -0.010105050379873736,
                        0.16067043870290304,
                        0.0734926667800739,
                        0.0549149944602462,
                        -0.04876315589331803,
                        0.1359333932851463,
                        -0.047000983735160096,
                        0.008320414677976071,
                        0.03657958229590605,
                        -0.2001926092089083,
                        -0.04984916112685737,
                        -0.05210050227751195,
                        0.01686718108305324,
                        -0.18530301512925354,
                        -0.1977586168241681,
                        0.27057701721551436,
                        0.19274060106560778,
                        0.14817322611701708,
                        0.3041364644316645,
                        0.06993253959159326,
                        -0.015179789154529945,
                        0.08036262473890998,
                        -0.31321449857502803,
                        -0.18301385757017188,
                        0.12643951050357471,
                        0.005435913859446078,
                        -0.21293938918020577,
                        0.10975614525996591,
                        0.1664836081655468,
                        0.11131326022738919,
                        -0.005049463239802,
                        -0.13934158000873076,
                        0.017932489694752505,
                        0.07115405480428069,
                        -0.05976479961088411
                    ],
                    [
                        0.10050598502111648,
                        0.052405322292078484,
                        0.05551909174524983,
                        -0.3387566314702646,
                        0.18018216550351535,
                        0.28739861999198113,
                        -0.06707793742826938,
                        -0.24614983019758013,
                        0.10648821990330143,
                        -0.07760995540563884,
                        -0.1611687285013683,
                        0.20295270931255882,
                        -0.23056322541436064,
                        0.11957143700617623,
                        -0.2079556868176367,
                        0.24371133046257898,
                        0.08609207767372852,
                        -0.042899166084471654,
                        0.024894993019147885,
                        0.09701456458055707,
                        0.13831572957185193,
                        0.13796523804870525,
                        0.091121710986071,
                        -0.07956361037211017,
                        0.11067992458789551,
                        -0.21855406366824887,
                        0.16734885076691514,
                        0.14550097288592187,
                        0.2323468404167383,
                        -0.09812993452808674,
                        0.03103528307826727,
                        0.1430476668137013,
                        0.05297631318370933,
                        -0.0711112140064088,
                        0.05122184450784302,
                        0.011338672444735404,
                        0.16595065690175076,
                        -0.10474375879246511,
                        0.056581300928164574,
                        0.04882185428009518,
                        0.12622135404951046,
                        -0.012148707535312666,
                        0.021219105928681415,
                        -0.011824945816809745,
                        0.0056776437589753,
                        0.0013931937929138236,
                        -0.05445742523029287,
                        0.471216632343275,
                        -0.1406519146563005,
                        -0.1955683177220157,
                        -0.13260443546485415,
                        -0.11834209149884208,
                        0.0019060951925693797,
                        0.23848879964043948,
                        0.2813972971658343,
                        0.03955406066053227,
                        -0.41636878570994373,
                        0.06405989217910979,
                        -0.2184424276042323,
                        -0.08345026253125126,
                        -0.19162046469019034,
                        0.07093709660183953,
                        -0.10443457409950865,
                        0.12868661290678318,
                        0.07955039939864736,
                        -0.04001159445879847,
                        0.013426728433681348,
                        0.1529032944003734,
                        -0.06202198597935374,
                        0.15260314758220556,
                        -0.003219334447930022,
                        0.04489957546747689
                    ],
                    [
                        0.13320681185591998,
                        0.22192208726315468,
                        0.08680203314628976,
                        0.009728647327166124,
                        0.1201143224603615,
                        -0.25757460623663225,
                        0.27316026719232667,
                        -0.22091521094916433,
                        0.15061823886965936,
                        -0.09402732175756379,
                        0.0845419307565621,
                        -0.019427904009457608,
                        0.05059829317812945,
                        -0.13346450659446113,
                        -0.36010466738327795,
                        0.06777594155808969,
                        -0.1000840564373803,
                        -0.10810596126692948,
                        -0.12088718946367484,
                        0.3307352081475202,
                        -0.09703207302105546,
                        0.054468829853175846,
                        -0.1934071989782395,
                        0.2538494523213307,
                        -0.09271132810271121,
                        -0.4334403015188491,
                        0.4519916456491926,
                        -0.18302477209286977,
                        0.2181553890469168,
                        0.12217876009040768,
                        0.10869660596917138,
                        -0.03858080506180487,
                        0.03153312530418309,
                        0.2039893348194829,
                        -0.05015511936656658,
                        0.04188493868104624,
                        0.1547150358208445,
                        0.01389813953931822,
                        -0.07083053251640962,
                        0.24194648471965569,
                        0.05694809981214781,
                        -0.02086211076450476,
                        -0.1293158039953111,
                        -0.1675995369926623,
                        0.14896401756350683,
                        0.1582113477055635,
                        -0.36178517651284503,
                        -0.1025819399042925,
                        0.16081468947827096,
                        0.40405110321075244,
                        0.35839230126548244,
                        0.15697769587368757,
                        0.22888874252101848,
                        -0.08790324282783347,
                        0.12908908725482993,
                        -0.20619411682189648,
                        -0.0936460577114765,
                        0.05349518054479425,
                        0.3613228450083593,
                        0.12466055488963869,
                        0.04563784844442813,
                        -0.028347260447641413,
                        -0.22040716189037493,
                        0.1004771670478907,
                        -0.058182282763871954,
                        0.03984078427174085,
                        -0.14822181899575254,
                        0.020209158950596398,
                        -0.25617147782326033,
                        0.08398436986495042,
                        0.21995431866198756,
                        0.15232513581318605
                    ],
                    [
                        0.3523039598532406,
                        0.05409225265484556,
                        0.08422724025209236,
                        0.08581080630930733,
                        -0.14662163360203745,
                        0.3588722448771587,
                        0.16476301406809982,
                        -0.040471070245697224,
                        -0.15047195708396363,
                        0.09691821387357598,
                        0.14292459226506576,
                        0.022980811318304584,
                        0.03101241951889224,
                        -0.03135280557182778,
                        -0.0004578992879955692,
                        0.22252355461977186,
                        0.23343631430078166,
                        -0.2500294805824653,
                        0.02314647908936184,
                        -0.20068355827828377,
                        -0.22261590861643468,
                        0.09765879775325106,
                        -0.14026155632941484,
                        -0.5255595750318414,
                        0.10752544218809636,
                        0.21369030501488667,
                        0.33979618992976,
                        -0.06604888197377383,
                        0.2409075513354828,
                        -0.43683527263466637,
                        -0.1738999344839477,
                        0.08649489523472428,
                        0.07858904468121414,
                        0.22006965212197,
                        0.15944824827201037,
                        -0.013595003275283292,
                        0.25487464390023906,
                        0.11441377335527428,
                        0.2861814555093872,
                        -0.13404616545386897,
                        0.050042279386698064,
                        -0.07159927898338754,
                        0.13431888455643168,
                        -0.03659202784902759,
                        -0.041975366208347215,
                        -0.22108160796279797,
                        0.051367355639399856,
                        0.185914895682468,
                        0.16803260181837704,
                        -0.502671997534883,
                        -0.2699409489701093,
                        0.3341900875910986,
                        -0.031271058185204356,
                        -0.024823538190745873,
                        0.19422257352320121,
                        0.03277421582781744,
                        -0.10543169039826161,
                        -0.03497449142115309,
                        0.3161934478976468,
                        -0.23023185885364497,
                        0.21687080628819355,
                        -0.052065352531906084,
                        -0.0452047858533769,
                        0.31048551496224525,
                        -0.107145599153272,
                        0.13917639422685804,
                        -0.060508908465781996,
                        -0.2386778376914846,
                        -0.027669978282444052,
                        0.19482106238797858,
                        -0.030982029603707557,
                        0.09157030449669637
                    ],
                    [
                        0.03142555254669377,
                        0.007805226332906869,
                        -0.06958297045569406,
                        0.021963716752920574,
                        -0.33881557533329976,
                        -0.07472027593749235,
                        -0.3006572708859837,
                        0.04494980780162842,
                        0.05911008106598665,
                        -0.1326775415825548,
                        0.13355126807623868,
                        0.0659717585226913,
                        0.04892868120804281,
                        -0.06023397675585661,
                        0.07879883394745667,
                        0.1757011726059612,
                        -0.11007386512669229,
                        -0.13614073764336504,
                        0.19816845950973166,
                        -0.38640474628123433,
                        -0.4362150157313225,
                        -0.3024545145945438,
                        0.03029017163825505,
                        0.02539570121981741,
                        0.08275083972637981,
                        0.012662881737120327,
                        0.2562299679551662,
                        0.26263057431036063,
                        0.1931684398104927,
                        -0.19263337858125587,
                        0.060596314331740675,
                        -0.14436711345015701,
                        -0.08345172759892108,
                        -0.17056036691447457,
                        0.0017854044379552823,
                        0.09068734726459218,
                        0.01311534164011435,
                        -0.19889478172715458,
                        -0.2543391979971005,
                        -0.12701413420752194,
                        -0.1296063928959911,
                        0.1307121945178474,
                        -0.053213476458053174,
                        -0.03144438981751975,
                        -0.026155844497137443,
                        0.18280802464269025,
                        0.27268585369332543,
                        0.0711764228623632,
                        -0.041384305531153895,
                        0.23375025438094005,
                        0.0730402321695888,
                        -0.07018281417763562,
                        0.16842895188292328,
                        0.03453832433525003,
                        -0.23900512149201406,
                        0.1044843843283827,
                        0.04997086696254842,
                        -0.3094402370373444,
                        -0.35850719253399294,
                        0.022716834228378724,
                        0.11389270909654486,
                        0.10143000835461603,
                        -0.22682996231742597,
                        -0.05783499151859757,
                        0.11109831983809809,
                        -0.2559587014653152,
                        0.014213830363191043,
                        0.03555487823294241,
                        0.1539593281773275,
                        -0.4089819883885445,
                        0.024164554500184378,
                        0.33635364205672724
                    ],
                    [
                        -0.10353455646517912,
                        -0.05270655460537005,
                        0.15899870503639132,
                        -0.12719043351377943,
                        0.19282581409967084,
                        0.0900888602074353,
                        -0.26234557085562227,
                        0.016765569613287623,
                        -0.24316365983116298,
                        0.15875796973858247,
                        -0.2801124121285519,
                        -0.3019589524531897,
                        -0.1895507352123521,
                        -0.13384544435891294,
                        0.21915679791967102,
                        -0.0030429225290078345,
                        0.048500757061731854,
                        0.17914995809085055,
                        -0.11630165002112172,
                        -0.09638761950329755,
                        -0.14124208964161866,
                        0.13081744123122882,
                        0.27221270159650623,
                        0.04312374905204408,
                        -0.10387999895191946,
                        -0.0867268378561158,
                        -0.18538571503440132,
                        0.12185756159309387,
                        -0.17715479372872514,
                        -0.042438844244267034,
                        -0.19482689079987217,
                        -0.31657718327024176,
                        -0.42332590055094566,
                        -0.14832691838683945,
                        0.03634641629769486,
                        -0.05296926105246358,
                        -0.03726248124253671,
                        -0.17856331339778345,
                        -0.15528026035993941,
                        -0.17795039048239247,
                        0.03520561019333993,
                        0.341275806190593,
                        -0.022728751626083142,
                        -0.22821340086888742,
                        0.21210388854908235,
                        -0.1664277357982008,
                        0.09292210689622016,
                        -0.07377590161169217,
                        0.01351386763298765,
                        0.5721105719659265,
                        -0.12458771142993341,
                        -0.09778007328290933,
                        0.06253924185042933,
                        -0.0036577939718787436,
                        -0.0676784835325814,
                        -0.11473459052809877,
                        0.09841564436671757,
                        0.17956276127106358,
                        -0.1586806786081367,
                        -0.1894055168862826,
                        0.30498437300785947,
                        -0.23752602871039663,
                        0.11922224151746222,
                        0.07318789553646697,
                        -0.18382825815406195,
                        0.12658226549918233,
                        -0.18386939104551436,
                        -0.18159184974384027,
                        -0.23159170641175267,
                        0.1390472008752929,
                        -0.07489097459206552,
                        0.18087522006165727
                    ],
                    [
                        -0.13502333844061815,
                        0.10244376435422597,
                        0.2345684324429813,
                        -0.014335585515522907,
                        -0.18757545770836642,
                        -0.05709515705206314,
                        0.2094562451468887,
                        0.12318230604043723,
                        -0.0643313489214575,
                        -0.29072872909231534,
                        0.11925613084278638,
                        0.27181770901339575,
                        0.27476567950851405,
                        0.07213169993908974,
                        -0.03183819523326795,
                        -0.1310202117066946,
                        -0.09543363621843892,
                        -0.2749583840024453,
                        0.35575859315211067,
                        -0.004494064880504985,
                        0.3974008564113128,
                        -0.01241623589553119,
                        -0.26971965526832925,
                        0.31026085037958157,
                        -0.14330450397791758,
                        -0.07298470183591468,
                        0.2747585149992679,
                        0.2431288684610453,
                        -0.33770106930564325,
                        0.00017579499030447195,
                        -0.1815891675169128,
                        0.08985637034509342,
                        0.3020295152658361,
                        -0.08624830374366249,
                        0.24887046677567562,
                        -0.15477404589655874,
                        0.36204508597024293,
                        -0.13760898182175538,
                        -0.07722299463938853,
                        0.04949289462621828,
                        -0.23343240777810847,
                        0.2582681422018771,
                        -0.17833615068818504,
                        0.10232526067997033,
                        -0.2148550065791534,
                        0.018297157685391856,
                        -0.0017543625701691348,
                        -0.06470681783153442,
                        0.08153653229274874,
                        -0.186138709539375,
                        0.2536442944445828,
                        0.033741226152329815,
                        -0.4652406729869721,
                        0.3342602626479968,
                        0.0754522703727272,
                        0.25892753692701775,
                        -0.02948942620422865,
                        -0.37710255439093393,
                        -0.06995297831880641,
                        -0.20434499353995272,
                        -0.006413743714129936,
                        -0.08045447706092476,
                        0.034835380011672704,
                        -0.2940680134384529,
                        0.008963734071179986,
                        -0.07659697219539467,
                        0.10558481179643221,
                        -0.2820504248083975,
                        -0.07084516262593106,
                        0.2763998899679877,
                        -0.19684381628963288,
                        0.12300894755988385
                    ],
                    [
                        0.22175101919914278,
                        -0.0016816280594213545,
                        0.16475177370319,
                        0.17357327239619047,
                        0.26162591831869897,
                        -0.06130536689431446,
                        -0.018716513897889975,
                        0.1340204751700789,
                        -0.12427400827837233,
                        0.00800845111107731,
                        -0.11642844367497569,
                        -0.3881735204045009,
                        0.05581919062784322,
                        0.2837383411513236,
                        -0.062010780168326646,
                        0.014049565151715127,
                        -0.07551749189632226,
                        -0.12349389043439313,
                        0.022684077314245658,
                        0.17882184966613227,
                        0.3693072226413197,
                        0.13774609284473913,
                        -0.16022730042690903,
                        -0.23783593811860448,
                        0.217805097627908,
                        0.05278583192311234,
                        -0.10174387390706958,
                        -0.17602868940096808,
                        -0.13462039444917728,
                        0.2055708182165438,
                        -0.0037265620038080924,
                        -0.2334116628540667,
                        0.1454298316219542,
                        0.05168376602195006,
                        -0.04852202846572304,
                        0.10128587474538155,
                        -0.13794732621216715,
                        0.16065076624032643,
                        -0.23747681694239442,
                        -0.15057378772658264,
                        -0.22948050683431193,
                        -0.06942650997898353,
                        -0.12624183890052648,
                        -0.060440986461237425,
                        0.0007946386293854102,
                        0.09237542331812684,
                        0.024422012127512285,
                        0.041976617208917225,
                        0.26738732385272346,
                        -0.04441509348434855,
                        -0.24305598989399405,
                        0.1585636354133243,
                        0.3059782575899881,
                        0.031214782356609447,
                        0.13992237046436906,
                        -0.10926944785772436,
                        0.03094589229314751,
                        0.10617088646580972,
                        0.06309592946597144,
                        -0.08994960880219752,
                        0.27177163202317267,
                        0.028802680683943135,
                        0.1550330342567311,
                        0.06762983110475827,
                        0.14561237044450084,
                        0.1555422160976662,
                        -0.036025858233255215,
                        0.1389464688104209,
                        0.36007595447654617,
                        0.33316533564951806,
                        0.12734023667468514,
                        0.28120920385920034
                    ],
                    [
                        -0.21799522394394782,
                        0.24539938445476142,
                        0.01247934964811118,
                        -0.29782256729663026,
                        0.027535097754875674,
                        0.16271604968021125,
                        -0.11600461188269252,
                        0.3228552634373851,
                        0.22487127971045173,
                        -0.21251897744502718,
                        0.16818171044535837,
                        0.018662114582754692,
                        -0.09194670730183521,
                        -0.05277194043091,
                        -0.07416583378598607,
                        -0.20271183709702317,
                        -0.07472051778709704,
                        0.1154481519390857,
                        0.2376570045829251,
                        0.24305638945874877,
                        -0.09556012154285466,
                        -0.019541279521593156,
                        -0.14322855281964597,
                        0.1716670814277851,
                        -0.27469215310126716,
                        -0.2272127595075228,
                        -0.10597444976395151,
                        0.04191224074520031,
                        -0.053524663342215735,
                        0.0055106509549100475,
                        0.007922437027516768,
                        0.03887995450934031,
                        -0.1724104968666581,
                        -0.056559961763545274,
                        0.09626872262861877,
                        0.046704859285944506,
                        0.18221777216955506,
                        -0.1243707125688815,
                        0.15104356890310067,
                        0.24443745671211906,
                        -0.023765048638274257,
                        0.04432169072804194,
                        0.03753157238327515,
                        0.08927843156163648,
                        0.06465351915005298,
                        0.24491461796773265,
                        0.08556082260219683,
                        0.1440836172537602,
                        0.05525445508345131,
                        -0.17362838033688138,
                        0.07222672535074821,
                        -0.038326003774314624,
                        -0.10584790319119942,
                        -0.1490617739681487,
                        -0.01173284676244625,
                        -0.10124401698879365,
                        0.33994537761777077,
                        0.26612864967027533,
                        -0.044488382608290716,
                        0.11819286197884185,
                        0.1928270828430385,
                        -0.028806561982578846,
                        0.3080388946613169,
                        0.1536850613567602,
                        -0.016951518960191425,
                        -0.29988318825856436,
                        -0.16099253470541514,
                        0.05311542379674417,
                        -0.07304399150347193,
                        -0.0034588769330705918,
                        -0.13121892366138535,
                        0.04115378852312615
                    ],
                    [
                        -0.07638367300079243,
                        -0.2587843124619585,
                        -0.05694054188311829,
                        -0.09533764786884905,
                        -0.2586096065319696,
                        0.23719619772096118,
                        -0.012675161025838304,
                        -0.05447767978592422,
                        0.1250624685820828,
                        -0.013765873160279269,
                        0.12788227108123615,
                        -0.24677576988004452,
                        -0.1727759779269671,
                        0.09087126516414082,
                        0.24864956014920958,
                        0.005001921028612622,
                        0.03607237739154444,
                        -0.13724065069889316,
                        -0.004989312805874975,
                        -0.11815611894009598,
                        -0.02670635263161484,
                        0.12038002060578601,
                        -0.3331273240288891,
                        0.03550428773247603,
                        -0.1340902642255737,
                        -0.10776370256356428,
                        0.18969546154684624,
                        0.049239944109773226,
                        0.1556049380348143,
                        -0.29396245262521503,
                        -0.06836946987861099,
                        -0.07561118745383327,
                        -0.09823827854185121,
                        0.07337241739670398,
                        0.14932024686182557,
                        -0.1844631449802423,
                        -0.16044376072999908,
                        -0.2086595720678878,
                        0.1912677791011286,
                        -0.08578915367805352,
                        -0.01689679686678592,
                        -0.055368446568403215,
                        -0.16060943081683962,
                        0.06221016227507413,
                        0.06383781162620096,
                        0.15688759742492314,
                        -0.037570013726346364,
                        -0.049514570203981215,
                        -0.09758695779628548,
                        0.24802359446217936,
                        0.16792783089968766,
                        -0.006730867980602629,
                        0.10816226767000836,
                        -0.09764062456226914,
                        0.3424124603308847,
                        -0.09859437504445437,
                        -0.06328149257504113,
                        -0.0618385863158012,
                        0.2835391608905127,
                        0.024600405997801215,
                        0.18073642723881328,
                        -0.018349493053110275,
                        -0.20216249519610596,
                        0.12924669564533667,
                        -0.10440942438834161,
                        -0.2197537519007579,
                        -0.06934592402669713,
                        0.10527618349847906,
                        0.29404750980209304,
                        -0.23124632241582244,
                        -0.36650966516146655,
                        0.15502616623194995
                    ],
                    [
                        0.050008543158222986,
                        -0.09391215176224779,
                        0.06972698610559976,
                        0.12157384563016443,
                        0.3186781244228493,
                        -0.02172365538033436,
                        0.21330002860510702,
                        -0.07529265693251472,
                        -0.08494479010229118,
                        0.07062890503241745,
                        -0.185827917365917,
                        -0.2169931710026605,
                        0.16053218285673698,
                        -0.32717917799143326,
                        0.01889137586221513,
                        -0.05412371067349461,
                        -0.06217003205250938,
                        -0.22205088225273806,
                        -0.339317072501165,
                        -0.11015141267667886,
                        -0.1942030003383394,
                        -0.0709031708008268,
                        0.014672682687479989,
                        -0.1236267052504232,
                        -0.17875421699849303,
                        0.048340227392584076,
                        -0.12697244842974137,
                        -0.1599219704824892,
                        -0.04985887847680826,
                        0.04758190602697053,
                        0.3514580716664377,
                        0.26892692518204775,
                        -0.21056349017774123,
                        -0.22070820286338635,
                        0.01078622869792543,
                        0.09283315669541647,
                        -0.02195092709571518,
                        0.3620554660425709,
                        0.1961783700367073,
                        0.2733428946081786,
                        -0.06964510296365099,
                        -0.14947993106935298,
                        -0.17838138193267997,
                        -0.018963594052291543,
                        -0.20972498621383057,
                        -0.10563200894944769,
                        -0.07179495656537807,
                        0.1573807881998815,
                        -0.07881259317159212,
                        -0.23451068508292033,
                        -0.07457887878827277,
                        0.0314304853962844,
                        0.0934863430688911,
                        -0.1536098424189657,
                        0.10789585264190102,
                        0.231137598990174,
                        0.08158610302363117,
                        0.03979930958715843,
                        -0.0746853010155859,
                        -0.10179916714140214,
                        -0.338324178197548,
                        0.10132443101485583,
                        -0.059018147259948334,
                        0.025430248353582558,
                        0.0835458081734732,
                        -0.13106712844922708,
                        0.16949928094542827,
                        0.018851763645671468,
                        0.24949920794354552,
                        0.02815627797604533,
                        0.053104115886667067,
                        -0.04556285639926985
                    ],
                    [
                        0.2460689988074493,
                        -0.3505821303003045,
                        -0.08880532685342551,
                        -0.05084233232467418,
                        -0.2550701225175471,
                        -0.13245044195981787,
                        -0.362020451744169,
                        0.03173120621243937,
                        -0.23420459067937827,
                        0.061643412286726665,
                        -0.04363028266021916,
                        -0.13878558546413117,
                        -0.2589637683328585,
                        -0.11380797407528992,
                        0.05177063670257841,
                        -0.02090786564442857,
                        0.11104063321434945,
                        -0.13138837808708131,
                        0.2676655869275797,
                        -0.039658902727421355,
                        -0.14086590484404032,
                        0.2183598718985768,
                        0.22626107966049408,
                        -0.015028219514905412,
                        -0.08071701944441896,
                        0.1516791064892725,
                        -0.14902282802723227,
                        0.15586525696546696,
                        -0.23119675332679818,
                        -0.013898878817229067,
                        0.0019592511988695714,
                        0.20134991019009144,
                        -0.3048699389583161,
                        0.0390727869946461,
                        -0.020118411129335524,
                        0.00048471452634807046,
                        -0.1473509243002991,
                        -0.21698247174843432,
                        -0.07718951029177866,
                        -0.04027729744504373,
                        0.24586391305147065,
                        0.018563607255241754,
                        -0.0007127091117940318,
                        0.11639104876906536,
                        -0.26864244015129835,
                        0.12042774119183788,
                        0.15256269021791255,
                        0.15119064459243628,
                        -0.055499010379996314,
                        -0.20587499932172515,
                        -0.16415475093243354,
                        0.04124231149111973,
                        0.08946080753955021,
                        0.2127582959190162,
                        0.25357234083574975,
                        0.14520804681488,
                        0.005654799731900449,
                        0.04415332611836689,
                        -0.03921872829246363,
                        0.1758114086952482,
                        0.0990452582226897,
                        0.03597661206010104,
                        -0.20926675633997796,
                        0.17444356415963327,
                        -0.2544810609372855,
                        0.20529703123009038,
                        0.16410491732945579,
                        -0.26451147001437053,
                        -0.008077389340478372,
                        -0.20689904332145098,
                        -0.024103219978794777,
                        0.09252832891984963
                    ],
                    [
                        -0.022773016617796366,
                        -0.22731133743673926,
                        0.04347121286487846,
                        0.04324795109440356,
                        -0.004539135093415898,
                        -0.17418982913213504,
                        -0.058296943671882685,
                        0.0447545280697291,
                        -0.02584163688361058,
                        0.35210368655105606,
                        0.04267990624199408,
                        -0.03446022234306163,
                        0.08043299192069292,
                        -0.18423872553795478,
                        0.07012586664217935,
                        0.2694657045872386,
                        -0.14729521976222376,
                        0.04980583651140605,
                        0.12785218274080357,
                        -0.28222478467868406,
                        0.2731481551198109,
                        -0.17416636484470227,
                        -0.055842342939427955,
                        0.0634453629396861,
                        -0.038767147346832787,
                        0.1338227778527436,
                        0.0251542361625596,
                        0.0949585485007782,
                        0.012495570617227732,
                        0.24533360242797692,
                        -0.3359163348321988,
                        0.06068237443562303,
                        -0.0501025213001237,
                        -0.15983876949678583,
                        -0.13526833509547337,
                        -0.0953299963632426,
                        0.0964017561221337,
                        -0.14935507270774734,
                        -0.02719726272690293,
                        0.04587481168596522,
                        -0.19263194184988155,
                        0.18539144209777358,
                        0.40359821732293844,
                        -0.11233621786774674,
                        0.15324119740303602,
                        -0.051613246736619274,
                        0.08889457607115955,
                        -0.030284199247713556,
                        0.3681102716635181,
                        -0.054055302602805735,
                        0.1323217348571356,
                        0.10122769210294877,
                        -0.18066002281410778,
                        -0.3600449021748835,
                        0.09651453595833928,
                        0.14075307326281372,
                        -0.08945090303454518,
                        -0.10556244458960912,
                        0.16280054259368942,
                        0.14213890415213323,
                        0.15931277456074666,
                        0.04356700592336993,
                        -0.13137941018704888,
                        -0.20299556328243323,
                        -0.3321894242887125,
                        -0.009613626317389611,
                        0.31986145979892194,
                        0.07964909267305578,
                        -0.013290040589965291,
                        -0.2534577027721505,
                        -0.111321677761818,
                        0.0008231292705910677
                    ],
                    [
                        -0.037036579279667574,
                        0.15138994836154163,
                        -0.026434461648941233,
                        0.11588433253989253,
                        -0.019036376688562676,
                        -0.031627861073952795,
                        0.2098555882666267,
                        -0.12532957236849018,
