{
    "something_vs_nothing": {
        "input_size": 72,
        "layers": [
            {
                "weights": [
                    [
                        0.07182439133454997,
                        -0.026220435210191958,
                        -0.020196785459176254,
                        -0.04490449460763503,
                        0.0370872559588416,
                        -0.09447736650893256,
                        0.07358597279603821,
                        -0.030384844772766012,
                        0.014976216833436364,
                        -0.009543403864574786,
                        0.06422244531086199,
                        -0.08925625773996461,
                        -0.013293191124311758,
                        -0.01861355217719077,
                        0.04898912393607487,
                        -0.04460235869265003,
                        -0.006019990702083476,
                        -0.036686370669291264,
                        0.002516830771117535,
                        0.025328462362410042,
                        -0.0473002827132651,
                        0.04831906187850346,
                        0.03860538032559578,
                        0.020890172093212967,
                        0.04011430371205405,
                        -0.029295245406286655,
                        -0.0045001963268670635,
                        -0.039779410263014715,
                        -0.01149474988170536,
                        0.023431374871492307,
                        -0.030239667969973693,
                        -0.016674845750199962,
                        -0.029641616441330947,
                        -0.03649163181444402,
                        -0.02849534083163914,
                        -1.3685655857430479e-05,
                        -0.04791839649948861,
                        0.009825529548648706,
                        0.07137267379752676,
                        0.03172425302053228,
                        -0.009093801495016353,
                        -0.03887306570495225,
                        -0.03235647631599132,
                        0.07258112895257013,
                        0.002884783132032506,
                        -0.02758158589514432,
                        0.00743247844345167,
                        0.08901390820706227,
                        0.0038420141162857054,
                        0.026007492906448222,
                        0.013273810503036576,
                        -0.014979345268670946,
                        -0.049029851527748976,
                        -0.015433310827431185,
                        -0.012485923553536954,
                        0.024066068414351303,
                        0.034859910525882165,
                        0.03831096084158946,
                        0.010140143270443372,
                        0.0373548202227781,
                        -0.03445423718092618,
                        0.053151777954039574,
                        0.016955633195968812,
                        -0.01580676401238049,
                        0.02680238188055563,
                        -0.003222042750524541,
                        0.04885566633790494,
                        0.06612370975130791,
                        0.09496442725531618,
                        -0.060514823940411945,
                        -0.06324360701327844,
                        -0.025729372349770026
                    ],
                    [
                        0.006606491867130667,
                        0.04010175184654503,
                        0.013056647365462812,
                        -0.0941592733367843,
                        -0.013428802822233955,
                        0.04191677363391011,
                        0.01489510785506053,
                        0.04254386686489741,
                        -0.012082717671231383,
                        -0.007710557312280344,
                        0.008191380918074356,
                        0.021794731608125246,
                        0.014094451974944286,
                        0.013149596527182733,
                        -0.03271103579803095,
                        0.016208481306016896,
                        0.0004567189278583899,
                        0.0483350893004131,
                        0.05032489714919038,
                        0.010865783769422736,
                        -0.010032960230423486,
                        -0.026236555385798582,
                        0.0217078558212019,
                        0.001749391423462037,
                        -0.01648172697752463,
                        0.0013172299095980228,
                        -0.025483749092808185,
                        0.029810262437020067,
                        -0.011553188440846705,
                        0.052491375324172335,
                        0.01959601708409947,
                        0.027964589402248722,
                        -0.0467856989155944,
                        0.006835368184643258,
                        0.030860743585212642,
                        -0.040176816106791094,
                        -0.01101265421069712,
                        0.003213861305943931,
                        -0.06228321591913583,
                        0.012443574713922788,
                        0.04256279866818574,
                        -0.03744544665130559,
                        0.015288064697852832,
                        -0.05742614280533657,
                        -0.006032034417625472,
                        -0.07243357930864955,
                        0.0453535818273565,
                        0.02035758558376542,
                        0.0015158613281420073,
                        -0.03198849745899074,
                        0.05272495303722994,
                        0.07882750720675241,
                        -0.08297534594049541,
                        0.05041920279689317,
                        0.07396269668249984,
                        0.012003510797061976,
                        -0.05561829301131645,
                        0.03945839265092617,
                        -0.014125567690654045,
                        -0.03592836825674627,
                        -0.06316871302351526,
                        0.02366673885053368,
                        0.034822135679941066,
                        -0.03622876625831845,
                        -0.012587171196626855,
                        -0.049356986269225474,
                        0.03571355510304819,
                        0.002442852798861213,
                        -0.007064555444428977,
                        -0.0045344200718637605,
                        0.04562671534034406,
                        0.023402237615963946
                    ],
                    [
                        0.017051081929563342,
                        0.0019319622471260138,
                        -0.0013474302964718006,
                        0.04439599744206641,
                        0.02896049395724846,
                        0.05277239286990236,
                        -0.061733253570108365,
                        -0.16354257602480374,
                        0.035032064207727594,
                        0.09625272151237645,
                        0.01963820799178518,
                        0.010059168052685774,
                        0.008819162398776411,
                        0.014327840799570897,
                        0.011164020730334739,
                        -0.07234034686719258,
                        -0.0313685039845029,
                        -0.033444783202120576,
                        0.017846959605924046,
                        -0.0007762857511310783,
                        0.0285929316296,
                        0.0011060833354804601,
                        0.05877087670837232,
                        0.018409605255520996,
                        0.09050253597465721,
                        -0.07205620159321928,
                        -0.018515525709391502,
                        0.03792540560283097,
                        0.09431279534929514,
                        -0.007040175048170232,
                        0.0043583194320349645,
                        -0.00726847337517644,
                        0.05859714873462721,
                        -0.010487655872945565,
                        0.025583761228562825,
                        -0.012389190597066817,
                        -0.04555807198397592,
                        0.011632986074655289,
                        0.015053595632475731,
                        0.057209426540539815,
                        -0.0013515543405382298,
                        -0.027091973690077306,
                        0.02119884926229266,
                        0.0006297920995160602,
                        0.0029452689883728645,
                        0.00021227691435680285,
                        0.053583762970571255,
                        0.03249170425953173,
                        0.09086805178681763,
                        0.046563340683261505,
                        0.017900839428315312,
                        -0.07794866444907358,
                        0.023395703755603486,
                        0.012214781146919802,
                        0.03876944756056016,
                        0.0563567095992006,
                        -0.008739930497054516,
                        0.04327307755699183,
                        -0.017286503399609365,
                        0.10638080169804576,
                        -0.07492141099114058,
                        -0.10051477611687747,
                        -0.09145775162457827,
                        -0.05859513109237985,
                        0.020454669700124935,
                        0.08211468002223336,
                        -0.01647205671036641,
                        -0.059403422770217755,
                        0.04738602215861287,
                        -0.025516186107830012,
                        -0.03542897017951753,
                        0.012954390352109813
                    ],
                    [
                        0.03284198072130807,
                        -0.016517639185982546,
                        0.06226071413697686,
                        0.006501549400226505,
                        0.06803304426142806,
                        0.01919696648240004,
                        0.0653454437008566,
                        0.004061535782397836,
                        -0.049897521283765185,
                        0.10609938008040555,
                        -0.023999439802193573,
                        -0.011675070453172093,
                        -0.03358495554406008,
                        -0.014301372618904396,
                        0.008853021402056464,
                        0.011231694348267087,
                        0.03348186247560761,
                        0.07900329675110004,
                        -0.006863486604817431,
                        -0.058134402149681456,
                        -0.05506708184056752,
                        -0.031073443020222115,
                        -0.07302843982040917,
                        0.030929995798282227,
                        -0.018351467070582512,
                        -0.012289530229932757,
                        -1.856580952333089e-05,
                        -0.06392274661171353,
                        -0.04245852517678495,
                        0.029384808527279864,
                        0.025204187481098202,
                        -0.01852651184034008,
                        0.07834775772647834,
                        -0.055466450681252014,
                        -0.013388200208588249,
                        -0.0072202573126750776,
                        -0.12310544676456031,
                        0.08404665783294338,
                        0.016262302020408223,
                        -0.038423363921796475,
                        0.0855345830806136,
                        0.027518525476802967,
                        0.019394921758627406,
                        -0.02326852752189084,
                        0.007989390078824356,
                        -0.06439442011732464,
                        0.03582024458266364,
                        -0.014128434793053375,
                        0.005171158030137086,
                        0.050658964224915434,
                        0.014791182123788667,
                        0.015290990132475797,
                        0.01530376527429938,
                        -0.026832510694793543,
                        0.034391333429262386,
                        0.06218186949257863,
                        0.02882160724387273,
                        0.03659814511222369,
                        -0.0369595213907977,
                        -0.03449804734188343,
                        -0.06009071561590462,
                        0.0512646563470522,
                        -0.01709148755156724,
                        0.05369099191368053,
                        -0.03130718044205141,
                        -0.01981984380684913,
                        0.003065473216665276,
                        0.039964485365330725,
                        0.0028016246199837453,
                        0.009190646725810197,
                        -0.002607173779094589,
                        0.019821085326215508
                    ],
                    [
                        -0.04624418709044166,
                        0.00337288716143569,
                        -0.006942628613804581,
                        -0.0021942456940348453,
                        0.021569809645653703,
                        -0.030057370870761112,
                        -0.0025460168840969097,
                        -0.011342788659299117,
                        0.01873025764176061,
                        0.035032393161772125,
                        -0.0408432954024888,
                        0.02545114303534618,
                        0.08847209502173398,
                        -0.06547909153842865,
                        -0.036917051842442705,
                        -0.0402898778045845,
                        -0.010954579631636324,
                        0.07094025024652417,
                        0.00042414812033285523,
                        -0.03007477242270005,
                        0.02627053201953456,
                        -0.027644801396287354,
                        0.04721641177081085,
                        0.01429765542032721,
                        0.06050603492140587,
                        -0.02825268226775022,
                        0.13060242412847237,
                        0.03518737415147743,
                        0.027945811781521043,
                        -0.001970470553173794,
                        -0.031218875354716742,
                        -0.03708301109235738,
                        -0.0057345885953817176,
                        -0.03467027515921099,
                        0.012621223701470941,
                        -0.03448182110018316,
                        0.027339333398279993,
                        0.040770117576638155,
                        -0.031115648666085332,
                        0.05136292426640893,
                        -0.010716271444655175,
                        0.04969770850211244,
                        0.019330129688472215,
                        0.04890345921044292,
                        -0.04216088730554658,
                        -0.004556850108504401,
                        0.06284492524423436,
                        -0.026808554993783217,
                        -0.0888907893146514,
                        -0.08456191750216685,
                        -0.10891999002166672,
                        -0.09157436599613675,
                        -0.016622031184655175,
                        0.05583205776637131,
                        -0.01896687828016368,
                        0.014055647507553832,
                        -0.005609976898662043,
                        -0.0011847011077339346,
                        -0.009101157862808013,
                        -0.006735839436595694,
                        0.021674267815594655,
                        -0.05164703760179384,
                        0.038395441797337275,
                        0.038588812555761944,
                        -0.0060215999125907286,
                        0.03502459914117192,
                        -0.030307475866620463,
                        -0.022844664526987295,
                        0.007182481073518579,
                        -0.008250642883931734,
                        -0.01930189280536993,
                        -0.02978719163020421
                    ],
                    [
                        -0.026208112895934402,
                        0.044375076605004574,
                        -0.10476989574026144,
                        0.026157860959351294,
                        6.298001540583283e-05,
                        0.034202144983960944,
                        -0.07002258494588115,
                        -0.1915215746195577,
                        0.022672545680959073,
                        0.014148335127022404,
                        0.011211056752415108,
                        -0.0010207138619067629,
                        0.05609181800480929,
                        -0.022959007997359854,
                        0.037264176867359666,
                        -0.019772782147754374,
                        0.09382206118927716,
                        -0.025104459060461135,
                        -0.06179640004102895,
                        0.03768368609120036,
                        0.03945942621624149,
                        0.0010757886809956306,
                        -0.07708135913618812,
                        -0.028431344559386302,
                        0.03786188531189393,
                        0.0031360799884268837,
                        -0.001967739058663878,
                        0.012004933476457987,
                        -0.014687828218023398,
                        -0.01997201186670446,
                        -0.06457477703100777,
                        0.09230861611758598,
                        -0.0018794590691216893,
                        0.022708595985492592,
                        -0.030781725645232013,
                        0.017312742021297307,
                        -0.06731566727158683,
                        0.041849289688079744,
                        -0.008324568276641258,
                        0.10510942147121707,
                        -0.039366695093241956,
                        -0.0008364530883690678,
                        0.009652845301620153,
                        0.030918278482480896,
                        -0.03984952796535463,
                        -0.0132022169724988,
                        -0.11126370259411314,
                        -0.03214941922557999,
                        0.03719264708488037,
                        0.04587867642415113,
                        -0.025548752059609953,
                        0.07395545657322963,
                        0.07498993597200794,
                        -0.03817177192081445,
                        -0.15361630933679898,
                        -0.11426237439030133,
                        -0.011475420404865709,
                        0.0474337597744771,
                        0.014008555374150657,
                        -0.09883240509613658,
                        -0.019542142584329666,
                        0.09045788529075498,
                        -0.05743900001719386,
                        -0.057819775597915436,
                        0.08431009863580284,
                        -0.005770376918504262,
                        -0.026526175197700813,
                        0.014110846605212921,
                        0.0016521753148173535,
                        -0.01899260184190951,
                        0.07220919920424541,
                        0.010671776533997333
                    ],
                    [
                        0.03554886423662848,
                        -0.00744051634587208,
                        0.0489350545559219,
                        -0.006479757388049761,
                        0.021205354431629877,
                        0.04443802922018174,
                        -0.0017470471663169065,
                        0.09805588856153999,
                        0.019833049230418762,
                        -0.07489866466373461,
                        -0.04509416962915868,
                        0.0619806993012431,
                        -0.009228493770979685,
                        0.018981114095225193,
                        -0.059912048904934935,
                        0.034878224231073625,
                        -0.023821903632249775,
                        0.06064452963059483,
                        -0.02084297128580896,
                        0.04803140893055789,
                        0.031923268894785826,
                        -0.032832321536916044,
                        0.04687651813925906,
                        -0.055916665832526614,
                        -0.037823583296938794,
                        0.030464163049170028,
                        -0.02305753382066787,
                        -0.018201373265344285,
                        -0.0034656127928939543,
                        -0.036094564714300136,
                        0.0484952692057106,
                        0.026843396398586825,
                        -0.0021140992946719873,
                        -0.003384514311090983,
                        0.017884810382348466,
                        0.06334614742685879,
                        0.030937974992136522,
                        -0.01681035475201313,
                        0.029849877491163003,
                        -0.010540774757632692,
                        -0.004687890535324272,
                        0.07856704799722754,
                        -0.01555512621280974,
                        -0.024672651866968206,
                        -0.08711776412840859,
                        -0.05900720964175015,
                        0.024814690442194094,
                        -0.025406041681760833,
                        0.02980979632355572,
                        -0.049398874631145055,
                        -0.03842354579189779,
                        0.02251579520559497,
                        0.061779714185619554,
                        0.020751684757320015,
                        0.06428674115067864,
                        0.09160749465279108,
                        0.06475890633699527,
                        -0.043281472012404155,
                        -0.001552957996973531,
                        0.03835146502011943,
                        -0.012587819890408435,
                        0.03600255823481331,
                        -0.08939633285812967,
                        -0.06330831986786603,
                        0.011765271164951642,
                        -0.09685849356275142,
                        -0.04706238446982858,
                        0.00032609465651978713,
                        -0.07357332587562769,
                        0.0024052496449542236,
                        -0.022668035273325268,
                        -0.023236704970709815
                    ],
                    [
                        -0.02411790848232625,
                        0.0036971368820125057,
                        -0.034954107372872474,
                        0.0022862703512920384,
                        -0.034228309955855483,
                        0.024717807237582066,
                        0.10001119922130222,
                        0.011459001955125362,
                        -0.0001257345312063996,
                        -0.05182432038923137,
                        0.02884654473637738,
                        -0.029397327742432422,
                        -0.029783164359324047,
                        0.0373930767144141,
                        0.019803359274061873,
                        0.06348943519960305,
                        0.04944701477893281,
                        -0.0255915045202672,
                        0.0074433389754512535,
                        0.07892044417080533,
                        0.04509461153442984,
                        0.04079708046581615,
                        0.06791792508912275,
                        -0.030974505511112197,
                        0.018740564560087162,
                        0.05355021340521368,
                        0.06351038612496018,
                        -0.030841606202334497,
                        -0.005152427919092573,
                        0.017117458610159578,
                        -0.006194267791840536,
                        -0.016156186578599834,
                        0.027314011279425964,
                        -0.018619963268001628,
                        -0.0765317299509207,
                        0.007980933686080867,
                        -0.017349232948393252,
                        -0.02752449382801929,
                        -0.06460773238190823,
                        0.04399146571772825,
                        -0.09727331512733066,
                        -0.07390073333428054,
                        -0.012438750785315443,
                        0.04350864126934729,
                        0.048440028547208455,
                        -0.05158885972870662,
                        -0.0050126036894462215,
                        -0.07014122866469709,
                        0.050832244967504506,
                        -0.0614094899429011,
                        -0.008954298548366777,
                        0.036636083459403,
                        -0.011105383596525157,
                        0.06649269918000743,
                        -0.03161257545126936,
                        0.021834080326716212,
                        0.04566761553816767,
                        -0.0011113246914223023,
                        0.0705017652466107,
                        0.02173247581501894,
                        -0.07226709547402617,
                        0.18792100084046565,
                        0.05266151978168356,
                        0.006115521858666304,
                        -0.06225425302648562,
                        0.00327281839117688,
                        -0.019572508478422963,
                        0.023738367711033867,
                        0.01324986390175036,
                        0.08009678810121619,
                        0.015617466488544993,
                        0.008248347105502126
                    ],
                    [
                        0.02922076328071005,
                        -0.002292398305894748,
                        -0.011566135067387037,
                        0.08068935324042757,
                        0.04047121544476873,
                        -0.03799783609736182,
                        -0.1387883121962541,
                        -0.036630101330506835,
                        0.0480384195568493,
                        -0.0005643148483876356,
                        0.07879741181951369,
                        -0.00949339759762606,
                        0.02766844358269881,
                        -0.11019360674109127,
                        -0.08673067397922136,
                        -0.05925999124336482,
                        0.021859403321945164,
                        0.07420596980348568,
                        0.00355840444049853,
                        0.05868028451718079,
                        0.03480019938882109,
                        0.03816512358743734,
                        -0.03897483966808542,
                        0.05428443057444312,
                        -0.033104310068825124,
                        0.03298004949114508,
                        -0.03143533433967183,
                        -0.0001985028445104635,
                        -0.0372342143423735,
                        -0.01721537981353474,
                        0.012987454831692183,
                        -0.0003680095303974229,
                        -0.03828408994085211,
                        0.06311032374063937,
                        0.02772998080468864,
                        0.0285497876689906,
                        0.03335625372053462,
                        -0.02940005021913117,
                        -0.09117790706301739,
                        -0.042342069877201766,
                        0.0717875618301572,
                        -0.041688095492652684,
                        0.024792522296661963,
                        -0.037999468034693736,
                        -0.004803838139637647,
                        -0.09386043389859697,
                        0.03384200365078712,
                        0.005551315638433511,
                        0.05614452122383832,
                        0.007542145343195569,
                        0.020949103687525075,
                        -0.014278405288816014,
                        0.027975901354549294,
                        -0.10750503773973996,
                        -0.10652809152735783,
                        0.0030371021073308936,
                        0.021843369035675336,
                        -0.018713835058611995,
                        -0.01669624637142854,
                        0.027349934156185588,
                        -0.04131771630448957,
                        0.014637958455014017,
                        -0.12532510166155408,
                        -0.03866475497810781,
                        0.1297913204317586,
                        0.03972432082203126,
                        -0.051672755934170506,
                        0.046027791410943056,
                        -0.03570544382736834,
                        0.03140422811562939,
                        -0.059226329756234965,
                        -0.07522561117345139
                    ],
                    [
                        -0.025682268119682366,
                        -0.008602630788991022,
                        0.07133287203751154,
                        0.05262173039343914,
                        0.09099547412254526,
                        0.06597084273445038,
                        -0.03913022337639889,
                        -0.019587748746833503,
                        0.04370705552325488,
                        0.0007024991833499711,
                        -0.004755009569010462,
                        -0.04663230320645655,
                        0.004190518822885165,
                        -0.12424950403551253,
                        -0.03114558560184583,
                        -0.06368842221617557,
                        0.0273932110145516,
                        -0.017730977011535774,
                        -0.014437086941888866,
                        0.05482554727434692,
                        -0.03718404679031765,
                        0.012761514730451628,
                        -0.08215847824099673,
                        0.0018782167395287024,
                        0.019016516488870833,
                        0.03468227710164827,
                        -0.034658488094631644,
                        0.012348068518681612,
                        0.015065564443474535,
                        -0.00024080354767629192,
                        0.007900620215826444,
                        0.02522564530253066,
                        0.021971623276685844,
                        -0.039219243052286676,
                        -0.045952104758144235,
                        0.09218916636281052,
                        0.06485068673831333,
                        -0.05983181302132723,
                        0.012994707065028118,
                        0.027508507945640245,
                        0.04141655539005237,
                        0.0027172632513158233,
                        -0.03787421139811338,
                        -0.01664304047344232,
                        -0.03229865947004822,
                        -0.0012559379222036161,
                        -0.017002717852485905,
                        0.004226198703370828,
                        0.05060476559391221,
                        0.05124211755947816,
                        -0.05819640564204328,
                        -0.028439432156706503,
                        -0.037490872898637714,
                        0.041962356026635894,
                        -0.01659046459484238,
                        0.07214454325398582,
                        -0.01425259674368747,
                        -0.001049478873164758,
                        -0.06638313255621343,
                        0.0621208462054625,
                        -0.012484643696205822,
                        -0.07559983453837973,
                        -0.04075622116118095,
                        -0.13447990180478087,
                        0.03895124395613163,
                        0.005419757801452839,
                        0.01431081819428811,
                        0.06664349250104469,
                        -0.011668370593749842,
                        0.03489501019069424,
                        0.02588855887746831,
                        -0.01451442305960228
                    ],
                    [
                        -0.10488973243555932,
                        0.04370195344741403,
                        -0.028068583296504687,
                        0.0029473454548142636,
                        -0.06569784855766016,
                        0.006915160810328586,
                        -0.02239919502887316,
                        0.0033876691177930273,
                        -0.010628631264080335,
                        0.04314037495461344,
                        0.04486688306278663,
                        0.03851120858055712,
                        0.15392185890025892,
                        -0.02716461888688325,
                        -0.036803683270700764,
                        -0.06859784465631405,
                        0.018133842463741074,
                        -0.023939565078689364,
                        -0.10892773626491184,
                        -0.044331598512739455,
                        0.0072794766103972345,
                        0.046971447323239705,
                        -0.07222969832000123,
                        -0.03255635360790251,
                        -0.0027205243314823192,
                        -0.02572602978818261,
                        0.021642776360750474,
                        0.00793568862593661,
                        0.01887078673673219,
                        -0.028274948524639743,
                        0.06971652823988203,
                        0.0019120613617185235,
                        0.06410258057057253,
                        -0.01763046816842171,
                        0.028634081907652757,
                        -0.03227555495196601,
                        -0.03517915495321815,
                        -0.029449261819615526,
                        -0.0066251800011057245,
                        -0.013192047549787601,
                        0.07672206930941926,
                        -0.047887509998733056,
                        -0.046124159581972184,
                        0.06555941506226702,
                        0.017932752299609594,
                        -0.08516688782059612,
                        0.010668862656391342,
                        0.016705052729660785,
                        -0.09076632079733334,
                        -0.012501060080693752,
                        -0.0025347491553294878,
                        0.028383808382684894,
                        0.03875124103735888,
                        -0.010219018921687065,
                        0.033119302278751275,
                        -0.015580866400618424,
                        -0.029886601803125946,
                        -0.04371481250631006,
                        0.025639992041157546,
                        -0.09151196544774029,
                        0.02464146739162339,
                        -0.0622827119580719,
                        -0.04001719125652177,
                        0.029209101620391937,
                        0.05097384897503593,
                        -0.08436250399749998,
                        -0.03384952269170898,
                        0.006551246016344505,
                        -0.02054161900927058,
                        0.03711622684284732,
                        -0.07956400566038196,
                        -0.004022723189604856
                    ],
                    [
                        0.00851664162786129,
                        -0.0025043490027912532,
                        0.04634977428469148,
                        -0.054868064069946744,
                        0.0723640332604919,
                        -0.03215387696206134,
                        0.049446203229504895,
                        -0.026576584359881687,
                        0.02914922428170126,
                        0.030288037125645022,
                        -0.05769063930004109,
                        0.005244377864803111,
                        0.0015475374646014809,
                        0.008807054706392228,
                        -0.029430484560695056,
                        0.1246516665941512,
                        -0.005659246181359843,
                        0.058551049345724394,
                        -0.015672745444369637,
                        -0.02269936272731006,
                        0.01686784003435905,
                        -0.008231105032650489,
                        0.12703762371767918,
                        0.020585140109107666,
                        0.039550073077496174,
                        -0.012783930909788738,
                        -0.008199118456607743,
                        0.006499954999330241,
                        0.02418824838919666,
                        0.0312183129300882,
                        0.0046042295258999855,
                        -0.031212806441931733,
                        -0.04693533649283488,
                        -0.0036915559133825424,
                        0.018787048710549783,
                        0.013767995885199391,
                        -0.006023096159029914,
                        -0.018299247639181487,
                        0.005439393662821678,
                        0.01891814046033934,
                        0.0015771271129776973,
                        0.001425425301781699,
                        -0.007895874366912586,
                        0.018217955492055838,
                        -0.026889129459795453,
                        -0.006593659956970742,
                        0.0052644047790138294,
                        0.024921412344156017,
                        0.07867272629913959,
                        0.029222010855203772,
                        0.016333662867637117,
                        -0.0743677360843466,
                        0.01456651800176538,
                        0.09419726391987611,
                        -0.04873484872084225,
                        -0.07343359756945761,
                        -0.01219070705619704,
                        0.048893578825877144,
                        0.029771958997879412,
                        -0.04965392769969542,
                        -0.009687420307848213,
                        0.026373413527971623,
                        0.053662849582252675,
                        0.1571910594647931,
                        -0.019923114639785175,
                        0.0111485089624415,
                        0.02536649089348549,
                        -0.024603529722626583,
                        -0.051126450323974046,
                        0.007089939713893185,
                        0.0341707492134414,
                        -0.07273488077145661
                    ],
                    [
                        -0.02223690085672708,
                        -0.01706270020833933,
                        0.01061012476653967,
                        -0.010842278399795837,
                        0.018886992241959003,
                        0.003964391639177538,
                        0.043053559163831454,
                        -0.07927177329944698,
                        0.0718978528361505,
                        0.06141322293445637,
                        0.002164977181012524,
                        0.028660898245784105,
                        0.026635149287988404,
                        -0.032686295192724805,
                        0.005461539546141812,
                        0.03461820640749884,
                        0.013069001880412962,
                        0.04551786549704605,
                        0.004590451947120183,
                        0.003575109709817504,
                        -0.032351428838241846,
                        -0.016888472934187805,
                        -0.021015453177627038,
                        0.07487437839592632,
                        0.010789864705276526,
                        -0.04276430706485223,
                        0.01784931441143309,
                        -0.007774437296767321,
                        -0.1270277506560092,
                        0.021201207631983826,
                        -0.06760133238578273,
                        0.025630992832529308,
                        -0.04097857251083183,
                        -0.06270269296714233,
                        0.021643351001985115,
                        -0.0641555304277559,
                        -0.018239029554595575,
                        0.009848731298820522,
                        0.026231325287060032,
                        0.0329964358636749,
                        -0.0017127652163234572,
                        -0.03620361025206901,
                        0.0818700818646933,
                        -0.026964471927401173,
                        0.07846920206006341,
                        -0.020360259144350464,
                        0.05079089853537627,
                        0.04720102131570192,
                        -0.0455010308749882,
                        0.01579549369549333,
                        0.032076731956610816,
                        0.029675086200364312,
                        -0.008728893205068667,
                        0.012229819678447619,
                        -0.01907956349260388,
                        -0.05245858936825448,
                        0.04437985106151869,
                        -0.025060115571763967,
                        0.0619956856095281,
                        0.027599283048993315,
                        -0.040238330041933695,
                        -0.0068248208475790145,
                        -0.015443312864733084,
                        -0.040319507234323766,
                        0.019861366699884975,
                        -0.021424279061897377,
                        0.07049215329289595,
                        0.03671525331097714,
                        -0.03867574059866629,
                        -0.0008091494293268887,
                        -0.009005403531587668,
                        -0.06890037805580437
                    ],
                    [
                        0.03524462570535532,
                        0.04207349889983876,
                        0.037534031538724935,
                        -0.026745131561300026,
                        0.04570900099718854,
                        -0.022551263258934764,
                        0.025451575584139983,
                        0.11018805764187851,
                        0.0024647760891333467,
                        -0.06649678752336873,
                        -0.016460357656337687,
                        0.028121455964430768,
                        0.05173085246275106,
                        -0.05043664999415942,
                        -0.011793515545609652,
                        0.009519137063482744,
                        0.008273453580582124,
                        0.0345897401952756,
                        -0.04055566724294564,
                        -0.012372146197886574,
                        0.04217256814658554,
                        0.020387370926909464,
                        0.019379922379551162,
                        0.052327067824382636,
                        -0.0013956140011514005,
                        0.017639546373837637,
                        -0.01327456752563974,
                        -0.049792280019099563,
                        -0.03983199822186146,
                        0.00626917929827237,
                        -0.005327317112257555,
                        -0.0338789075401258,
                        0.012302251775269637,
                        -0.03752223160221951,
                        0.0015034412717870379,
                        -0.0021836616811847106,
                        -0.030944653599277498,
                        -0.09286034424743475,
                        0.06528837823784137,
                        0.010708228855548847,
                        -0.11536263261062493,
                        -0.019949116334369698,
                        0.015023542780492886,
                        -0.014104872912295369,
                        0.018488607800717424,
                        -0.0387830135779295,
                        0.009723660664023021,
                        0.004021655625821146,
                        -0.006424194656531199,
                        -0.006383261790821597,
                        0.00473395843734873,
                        0.03127276141171261,
                        -0.027226648031574163,
                        -0.017216908857090388,
                        0.015239352207202468,
                        0.0038525811293133403,
                        0.023653832832721728,
                        0.03841639762233414,
                        0.06710109157761894,
                        -0.007380489977914775,
                        -0.11453125299649508,
                        -0.003834891708466931,
                        0.03588525802693563,
                        -0.01016125573151085,
                        -0.028311142062793233,
                        -0.10539777198217015,
                        0.02249401265622131,
                        -0.013866464162275181,
                        -0.06534363766868198,
                        -0.03777090887453884,
                        -0.028634038683905575,
                        0.01158642744923239
                    ],
                    [
                        0.024534590076904637,
                        0.06445786859037274,
                        0.02943946975834253,
                        -0.05431728917721962,
                        -0.05641437335628834,
                        0.04678898958136544,
                        0.0720258446607413,
                        -0.003999587044719849,
                        0.024724020805541244,
                        -0.06476669471360397,
                        -0.08556113091244524,
                        -0.05357447939454619,
                        -0.018370700556325857,
                        -0.023437725264934043,
                        -0.0025976400765630398,
                        -0.014317959514965098,
                        0.031115503322195915,
                        0.06269794449577025,
                        0.000871032544212235,
                        0.08694981227137316,
                        -0.028950635287259288,
                        -0.022234572733944656,
                        0.018032120593377877,
                        -0.012932095944061838,
                        0.05147251878453318,
                        -0.02914381180638847,
                        0.058456439950119315,
                        0.008591007033059822,
                        0.11253093251960455,
                        -0.019799402669696084,
                        -0.007841676739221995,
                        0.005779002135060974,
                        -0.09523422280649686,
                        0.026192124133315647,
                        0.020519960371659346,
                        0.005501261554070582,
                        -0.07028291554093372,
                        -0.0695474735041558,
                        0.025986361342365163,
                        0.049960437042266166,
                        0.06608591634004736,
                        -0.03871065755729592,
                        -0.044439909197339734,
                        -0.009858283130913154,
                        -0.08444856156771277,
                        -0.024798573683413563,
                        0.037360472117946866,
                        0.06638492004155627,
                        0.010110258100055973,
                        0.07014348984277229,
                        0.019563981071707776,
                        0.010426239294228276,
                        -0.006358513400153872,
                        0.011259641238170592,
                        -0.009674952470611835,
                        -0.006197595044132813,
                        -0.03089498360010039,
                        0.01020337139290338,
                        -0.0006826219190152594,
                        -0.062131273264963496,
                        -0.011461138850409515,
                        -0.03284412092445324,
                        -0.08259599965386431,
                        0.01767217081367931,
                        0.060146455269053,
                        0.10186687988578845,
                        0.06680678397008455,
                        -0.03720491743508666,
                        0.05110238745912616,
                        0.048582539129132574,
                        -0.09002218944614303,
                        0.0461988483879269
                    ],
                    [
                        0.0092637900420923,
                        0.002124447112995644,
                        -0.0004541310609618105,
                        0.006887504266573635,
                        0.0971801999856319,
                        -0.017211714399183942,
                        0.01320196224795706,
                        0.006735928236737036,
                        -0.000868941505316931,
                        -0.0839305968938118,
                        0.0557035366735621,
                        0.014923417829092456,
                        0.03251925394079167,
                        0.0320362257960099,
                        0.02555036678141182,
                        -0.01867503842482942,
                        -0.012777393006117846,
                        0.006223120280481778,
                        0.04376857864026365,
                        0.02067674924215771,
                        0.0012017866829245438,
                        0.10550149125429376,
                        -0.0428978647343904,
                        -0.07012936880922083,
                        0.004168707828572288,
                        -0.014058579594071667,
                        -0.07313920323434733,
                        -0.012210745486454799,
                        -0.020035290275751502,
                        0.046063321122370375,
                        -0.022030091061189472,
                        0.05858894160458775,
                        0.015032953377770506,
                        -0.012559050751472662,
                        -0.0025408435117029466,
                        0.008558717167282405,
                        -0.08933946938673072,
                        0.013833125696132494,
                        -0.019732954044393007,
                        0.08670578997457229,
                        -0.029554330158686252,
                        0.04573768768912053,
                        -0.10611220220298598,
                        0.027272591102472037,
                        0.0018692993469402034,
                        -0.008386598536752379,
                        -0.0033989336235416574,
                        -0.012334842144104272,
                        0.026447618574854777,
                        -0.007969543261870092,
                        -0.08306367512087046,
                        -0.017412338976401653,
                        0.08829757410300193,
                        0.002711065410778164,
                        0.03241752057245301,
                        -0.022025376146415778,
                        0.018100092808202965,
                        0.012694894000661717,
                        -0.015636348922725456,
                        0.034396637895675035,
                        -0.046938100261025566,
                        -0.0140995519447932,
                        0.057470696941228624,
                        -0.009492365716710407,
                        -0.0313491739797299,
                        0.02658229379405702,
                        -0.04034172951176989,
                        -0.01795606412814616,
                        -0.03546790939944105,
                        -0.0049801973577390584,
                        -0.005099901554507065,
                        -0.037394390937962915
                    ],
                    [
                        0.027575564105487702,
                        0.07885765303093487,
                        -0.021994990166479378,
                        0.02181427450682577,
                        -0.01933460253095869,
                        0.0016080024437492384,
                        0.0458591583261301,
                        0.004601621907483775,
                        -0.03865648328754872,
                        -0.031594903761013995,
                        -0.02419663414315159,
                        0.0021627728230194784,
                        0.039466234619452284,
                        -0.06137106035781775,
                        -0.05484894602322673,
                        -0.048613359888039026,
                        -0.0796259717549539,
                        0.05645571894986873,
                        0.0008204280243407336,
                        0.08193559072235758,
                        -0.05606271247978596,
                        0.057179747353279436,
                        -0.030683263791500416,
                        -0.02230790975633504,
                        -0.043746203446488344,
                        -0.03767630977249192,
                        -0.05348397546807999,
                        0.0096937894817855,
                        -0.04790716747682293,
                        -0.00723326547091025,
                        0.0013653394090885908,
                        0.03482313695873833,
                        0.0070567338045748025,
                        0.010934386169376146,
                        0.021470377245129964,
                        -0.003880602547988327,
                        0.014284215248300966,
                        -0.040936532879267296,
                        -0.035649317620632025,
                        0.08534793813170381,
                        0.0009492499996607088,
                        -0.03138971136751462,
                        0.05735635094823544,
                        -0.011976870993347223,
                        -0.030983270952641827,
                        -0.06131696278623919,
                        0.03483969696691079,
                        -0.048190611397090806,
                        -0.022887952301863152,
                        0.029976810955845132,
                        0.0039872084023202725,
                        -0.009528048949422125,
                        -0.010995131858448554,
                        0.051222550243217396,
                        0.10832560263763213,
                        -0.03269502644410207,
                        0.03426392615631789,
                        0.08984111780256247,
                        0.05330207213971163,
                        -0.028108411325299315,
                        -0.019221188599226415,
                        -0.02609189128924614,
                        -0.04782402838160291,
                        -0.039336081177344315,
                        0.006056263502036686,
                        -0.026145283557246636,
                        0.03943700351447105,
                        0.005473210694590675,
                        -0.016364334040270937,
                        0.03830135839826361,
                        0.020948783086017053,
                        0.0010764981310301704
                    ],
                    [
                        0.04752765454813275,
                        0.024124706886995174,
                        -0.010383381804454186,
                        0.039140555958345785,
                        0.01360267372467366,
                        0.1443731106465821,
                        0.03348936917104606,
                        0.05434937390539768,
                        0.05548580333507893,
                        0.002891882066311488,
                        0.056160556543273205,
                        0.005355795236081156,
                        -0.02915732469570131,
                        -0.024133701556179405,
                        0.01421637205739265,
                        -0.08983187722372914,
                        0.0035934072108433743,
                        -0.028351504899819923,
                        0.029034762015065742,
                        -0.02554341334421506,
                        0.07884739034732255,
                        0.02956240611884979,
                        -0.056245406683170206,
                        0.07858213851332034,
                        -0.010169528481203217,
                        -0.027039508469666268,
                        -0.03947698757702093,
                        0.02570271062832538,
                        0.0626180901982218,
                        -0.01697423376815593,
                        -0.038521312893432906,
                        -0.0513148227688683,
                        0.0674932948470381,
                        0.06775828615389304,
                        -0.014705107588884327,
                        0.01759705210445212,
                        0.0009630107604083084,
                        -0.0023537601448975595,
                        0.04084810348305708,
                        0.015723503565672897,
                        0.01853838767526799,
                        -0.013474632108990884,
                        0.03684719640877824,
                        -0.013392914923971143,
                        -0.003243365203084112,
                        0.010216383717836262,
                        -0.05334954220977074,
                        -0.0033074973397338235,
                        -0.011872137188161205,
                        0.006919390066440163,
                        -0.05075695340490549,
                        -0.052207212159274444,
                        0.06781980939958764,
                        0.04761225944303705,
                        0.041379275941428414,
                        0.09073011842818636,
                        0.026685925673075074,
                        -0.004357827232269523,
                        0.019750417343151836,
                        -0.095471251873459,
                        -0.05682607564883441,
                        0.04265598209300507,
                        0.016541693360270195,
                        -0.07704411063515369,
                        0.0010527203236854956,
                        0.043707748099650105,
                        0.029634680007767318,
                        -0.0009362051923720235,
                        -0.03537151354563326,
                        0.004614811796964063,
                        0.028160956866540326,
                        -0.018907040817880798
                    ],
                    [
                        0.02804763317735252,
                        0.01633993747577122,
                        0.017258768979137872,
                        -0.09917080111018513,
                        0.062242661760038086,
                        0.09271952768787162,
                        -0.030981004644927708,
                        -0.08139212691730288,
                        0.025599780788788416,
                        -0.020908090778596358,
                        -0.04011297432777352,
                        0.05599653117896392,
                        -0.05243947492995287,
                        0.03811013772148951,
                        -0.057376461549137184,
                        0.07160212831749634,
                        0.017865489111070762,
                        -0.010365538876287753,
                        0.0058726177487665,
                        0.024558834860703385,
                        0.03589189500847247,
                        0.034379418058095676,
                        0.030478531661998695,
                        -0.021570826782331822,
                        0.026212429964480026,
                        -0.053210142388001064,
                        0.038514694146916016,
                        0.032704126580445546,
                        0.0559254652341061,
                        -0.02471671533495568,
                        0.011637603239461468,
                        0.03544258909124163,
                        0.015806711056759595,
                        -0.016956214014674162,
                        0.010041893018164005,
                        0.002223353182999016,
                        0.0330590955575834,
                        -0.024619280991865698,
                        0.012707514850714665,
                        0.009368113773045625,
                        0.03702804840480781,
                        -0.0022910535006276374,
                        0.009778819008988169,
                        -0.004225994842725823,
                        0.001264125762961019,
                        0.0006193997236334803,
                        -0.014495420783066515,
                        0.1383507637817111,
                        -0.035690404793507,
                        -0.04827245855466662,
                        -0.0332378900470171,
                        -0.03270138312779077,
                        0.0034902687764070107,
                        0.06126022573124485,
                        0.0873424030095574,
                        0.0053250173904028615,
                        -0.11825976472786522,
                        0.019593225783026268,
                        -0.06321626547438804,
                        -0.025534170946981693,
                        -0.05731104385064228,
                        0.015615701625405279,
                        -0.024074660110995003,
                        0.027505476290211904,
                        0.004631082438495695,
                        -0.008338642895171923,
                        0.0042433060096034965,
                        0.041853631196716694,
                        -0.015174271974503991,
                        0.03965356162679397,
                        0.008754044185015002,
                        0.004429915004968207
                    ],
                    [
                        0.03759267973620338,
                        0.05427648771890336,
                        0.023839332655567643,
                        -0.013321174277397957,
                        0.010779106823212667,
                        -0.06758415945624505,
                        0.024692258804529597,
                        -0.05598564440826418,
                        0.04736356139272236,
                        -0.02434314977881425,
                        0.017249158733589714,
                        -0.02255157052509348,
                        -0.009192716296569911,
                        -0.058318376027632374,
                        -0.09755952123782469,
                        0.0010341209526766476,
                        -0.01111250813168104,
                        -0.03321845269871677,
                        -0.038384527713046034,
                        0.07144742297474625,
                        -0.044901946981249996,
                        -0.008489859691310412,
                        -0.06653141246732978,
                        0.04667355062805037,
                        -0.013530889105998764,
                        -0.11298006370901985,
                        0.12334452333084152,
                        -0.055190612675421975,
                        0.052163175855106554,
                        0.029397045446755792,
                        0.014585024162172432,
                        -0.014933695377695459,
                        0.011488437716942506,
                        0.059904577036826896,
                        -0.007555586430360341,
                        0.027944890776385643,
                        0.05341743676006062,
                        0.00533938474358064,
                        -0.017303114999667836,
                        0.06616142034294459,
                        0.010777314962173776,
                        0.0015187894945696855,
                        -0.02542033457435525,
                        -0.02514215443066126,
                        0.060883068949028146,
                        0.045679982601326406,
                        -0.07954653578897147,
                        -0.024496852210720156,
                        0.038968125037467514,
                        0.10385481933172391,
                        0.10387261605759293,
                        0.06004475853144112,
                        0.07307192877998278,
                        -0.009951373400078685,
                        0.027300981110152184,
                        -0.03888778613091219,
                        -0.01916223468474736,
                        0.01569974409274617,
                        0.08193202387663019,
                        0.04083158241033316,
                        0.009673730883193196,
                        0.006773512746036372,
                        -0.038918436934872284,
                        0.016467480464187445,
                        -0.059147332161342984,
                        0.011585841226330563,
                        -0.040027220078737547,
                        0.01116346551369558,
                        -0.0601818866331912,
                        0.022132433618663242,
                        0.040191922603465505,
                        0.08343296269008811
                    ],
                    [
                        0.09205855467822967,
                        0.01160625562708437,
                        0.019567224614195616,
                        0.02196836752597154,
                        -0.04259427144945599,
                        0.1071090557295905,
                        0.04799543362346908,
                        -0.014779471213139939,
                        -0.0440124042912926,
                        0.025123320084444,
                        0.03750604075035628,
                        0.011754662427026202,
                        0.012762648479746896,
                        -0.002572083203167012,
                        0.003256778087094877,
                        0.0663156393034071,
                        0.05551751844203432,
                        -0.06331791651958323,
                        0.007802219536578603,
                        -0.042539455293259025,
                        -0.050203476752540374,
                        0.03207206467732554,
                        -0.030305931447534053,
                        -0.1516772740556,
                        0.021075295067712004,
                        0.05108146107073901,
                        0.08230463814515425,
                        -0.015545800253373071,
                        0.0619753801100046,
                        -0.10698926596097512,
                        -0.0420633810970413,
                        0.025088753029603998,
                        0.017436485189731513,
                        0.0516285293647127,
                        0.03695688766285452,
                        -0.007610468490330264,
                        0.05619692709466936,
                        0.029825069426773567,
                        0.07499039633733068,
                        -0.04217440517583356,
                        0.014191306196882154,
                        -0.01861089720299182,
                        0.0306390654669248,
                        -0.013226148328949262,
                        -0.015475163043343171,
                        -0.05539299065583414,
                        0.011391269416238145,
                        0.05247351511644252,
                        0.047583823412220186,
                        -0.13107158671735455,
                        -0.07330883515673384,
                        0.08075875435390419,
                        -0.009824861677016277,
                        -0.006388609141663387,
                        0.05682994739976235,
                        0.010793380951984233,
                        -0.026423715199732575,
                        -0.008747361131989227,
                        0.09040270255110791,
                        -0.06167741900070114,
                        0.061055815986458595,
                        -0.020126666089029303,
                        -0.005059839169785603,
                        0.09674297744564123,
                        -0.014389909431147171,
                        0.03974588561823759,
                        -0.012919347040078332,
                        -0.06074270994286727,
                        -0.006476582370664127,
                        0.05060220656518302,
                        -0.002221110051859112,
                        0.006115135099228503
                    ],
                    [
                        0.0035872926645387944,
                        -0.0006692891787466891,
                        -0.020260382713161457,
                        -0.008064675552528851,
                        -0.08871450389887711,
                        -0.023406603407689797,
                        -0.07899220111284741,
                        0.0033518999145455367,
                        0.01637573749585551,
                        -0.03618312713018963,
                        0.030405600792256807,
                        0.008734844537990867,
                        0.00017237142416574104,
                        -0.02576850064598999,
                        0.01141117075370547,
                        0.03635472359518804,
                        -0.025684123663828336,
                        -0.039887638572700924,
                        0.04894325860140031,
                        -0.10514768846581896,
                        -0.11846244328119242,
                        -0.08373590709826742,
                        0.0003050624568625258,
                        0.00283454122321843,
                        0.02150894858290656,
                        0.004749006728155727,
                        0.06662684939218805,
                        0.068385352756314,
                        0.04608049687357465,
                        -0.050644716722062125,
                        0.01133850392875568,
                        -0.03743310534642653,
                        -0.02342422449298748,
                        -0.04466292105689471,
                        0.002126093945371893,
                        0.030226523702456386,
                        0.008304436732945066,
                        -0.05191876056593398,
                        -0.06376759748371097,
                        -0.028225508559481704,
                        -0.035363358913782485,
                        0.036570627936800326,
                        -0.010929313160308795,
                        -0.00031759628755354067,
                        0.002174044271284836,
                        0.05315012590225107,
                        0.07344037598074579,
                        0.018795373632386855,
                        -0.011137022206500964,
                        0.06033927082898634,
                        0.023779170519374386,
                        -0.010906913876392338,
                        0.047940752689391235,
                        0.017749328798996312,
                        -0.048996883515466765,
                        0.030616505030903463,
                        0.012218338046937472,
                        -0.07313583490147746,
                        -0.08387711957005908,
                        0.01640494057799393,
                        0.03400566000592582,
                        0.03219398268093296,
                        -0.036007592702558607,
                        -0.011450801117954962,
                        0.007619351563185606,
                        -0.06387624068773061,
                        0.00432232019469346,
                        0.01183436149422281,
                        0.04151343328577927,
                        -0.1061887993940346,
                        -0.00037104159741199933,
                        0.10135474294077464
                    ],
                    [
                        -0.04892066416243231,
                        -0.016932772834215952,
                        0.04558097691268432,
                        -0.031245294065506753,
                        0.07585199482913386,
                        0.03479593605877076,
                        -0.04328524077171435,
                        0.010320841036098679,
                        -0.07729396951812767,
                        0.03847238367178422,
                        -0.07345785068101623,
                        -0.06747520003597358,
                        -0.039144304051853526,
                        -0.011449051930369858,
                        0.09836701835026451,
                        0.021342957614077257,
                        -0.005833009679431377,
                        0.04260252746497129,
                        -0.026323018159095175,
                        -0.010581992935248353,
                        -0.021022991606745218,
                        0.05570506185011407,
                        0.09281220582071881,
                        0.02809514737093513,
                        -0.04310648772351148,
                        -0.02848158402322005,
                        -0.0463433867969279,
                        0.028868471731650202,
                        -0.035565639167502015,
                        -0.008168762223448,
                        -0.038651483912997844,
                        -0.08288259249741739,
                        -0.11572471221608452,
                        -0.04430008419581659,
                        0.0031316460006774005,
                        -0.02106852846452411,
                        -0.018025632983494088,
                        -0.04127460666523999,
                        -0.03982806802205231,
                        -0.06493034859077895,
                        0.007684279301137532,
                        0.07659618807114635,
                        -0.008392318640372305,
                        -0.06870893731754471,
                        0.033977713851810955,
                        -0.048202089376681585,
                        0.0279767507092362,
                        -0.017427848933772,
                        0.008497833675840222,
                        0.15508759527793436,
                        -0.045829352982666174,
                        -0.041429269977350726,
                        0.0031247430086006555,
                        0.005193115522525836,
                        0.0014727489023103346,
                        -0.02060974999463217,
                        0.03876590271699062,
                        0.04712597780207294,
                        -0.049390021626476835,
                        -0.0774737711779706,
                        0.10013260257358013,
                        -0.08354976046446622,
                        0.06266933253073977,
                        0.043398447496167815,
                        -0.0729622011392081,
                        0.03742789336319162,
                        -0.038674374603213484,
                        -0.04942032051223481,
                        -0.061262025941721816,
                        0.03589366040691881,
                        -0.005366642809660856,
                        0.017765932926499133
                    ],
                    [
                        -0.05938419503552882,
                        0.027667361066696854,
                        0.05860739749455117,
                        -0.009321911731215052,
                        -0.06324969212027597,
                        -0.029500830486111847,
                        0.05320287713174118,
                        0.043261310298629584,
                        -0.026063832073182375,
                        -0.08095121372054598,
                        0.028714017329817317,
                        0.07600411908960834,
                        0.07652883567943464,
                        0.036169707454030996,
                        -0.005401424948555862,
                        -0.0563583933816117,
                        -0.03556797967499478,
                        -0.06682550864047143,
                        0.08364498913824235,
                        0.003628314768153046,
                        0.10771359090302772,
                        0.0045346675668824265,
                        -0.07008499074573839,
                        0.1017673593175327,
                        -0.04232565025474461,
                        -0.020046304559839714,
                        0.06281459580197124,
                        0.05383697681259535,
                        -0.06731192203109362,
                        0.0014165197019517565,
                        -0.0408443941534069,
                        0.031660797736124124,
                        0.0811356147752052,
                        -0.022693181489925583,
                        0.05875589797547898,
                        -0.040636029933438976,
                        0.08023724469620562,
                        -0.030089935153501453,
                        -0.02312345232173388,
                        0.006602002759307658,
                        -0.05425142644878558,
                        0.06631406124820197,
                        -0.03884036474439139,
                        0.0185443217704303,
                        -0.06229783053578334,
                        0.004705350886343034,
                        1.5630363194711676e-05,
                        -0.01326687930959531,
                        0.02927572566038494,
                        -0.03971223915227565,
                        0.0612851554491317,
                        0.0043706930719329675,
                        -0.1244504411576164,
                        0.0923949626257192,
                        0.02622459459150277,
                        0.08809244590054621,
                        0.0072392499032400606,
                        -0.10990506230517179,
                        -0.018004978826934602,
                        -0.060811425705214854,
                        0.011440573817521501,
                        -0.021514379243384462,
                        0.039718039050985324,
                        -0.09983076333823813,
                        -0.02353383471075676,
                        -0.015049731187605688,
                        0.03543538784937148,
                        -0.06996479241116729,
                        -0.01266457799173612,
                        0.07171706414156337,
                        -0.03614539375148739,
                        0.009377790794036724
                    ],
                    [
                        0.06219161643932857,
                        -0.0010479700169612114,
                        0.04550429862703758,
                        0.059924317909865826,
                        0.08917427264008924,
                        -0.025937845410238195,
                        -0.023451213648343027,
                        0.04852278659765697,
                        -0.04044380992160047,
                        0.003393483216393028,
                        -0.027204538556258376,
                        -0.08928916042512165,
                        0.02144002863472948,
                        0.09538003323126251,
                        -0.015711247830745984,
                        0.0018813799476776784,
                        -0.028194718687917657,
                        -0.028306192568731757,
                        0.008545487826459851,
                        0.05030654228382941,
                        0.10231196867411364,
                        0.04481599482275605,
                        -0.03233577700852804,
                        -0.07238765625946482,
                        0.05250117861517405,
                        0.01340148654934181,
                        -0.022648976058406572,
                        -0.03409690116274974,
                        -0.020626366432040504,
                        0.05322913070552153,
                        0.005996600528081249,
                        -0.06782775733456559,
                        0.04060937529664582,
                        0.010069308146380863,
                        -0.009528384985094205,
                        0.018462430559962717,
                        -0.034045026935808714,
                        0.042319549287325994,
                        -0.06352214505383237,
                        -0.05068681474574544,
                        -0.05527136463446277,
                        -0.019323738096512177,
                        -0.03218171023847759,
                        -0.023053343155170155,
                        -0.013189345845764328,
                        0.018211054963061038,
                        0.000532266407834176,
                        0.017887665048570013,
                        0.07946246027617121,
                        -0.012416796428350935,
                        -0.07206569183535665,
                        0.0296534483107361,
                        0.06916792309978405,
                        -0.0016196262381158648,
                        0.04068360726824309,
                        -0.04102120371305958,
                        0.017249526298026747,
                        0.026155512956530676,
                        0.008885133495556249,
                        -0.03568052737279896,
                        0.0814495829182379,
                        -0.0008314243593805118,
                        0.0355703444858235,
                        0.017884849094475595,
                        0.009144073949414725,
                        0.039190930013053404,
                        -0.008629554223917335,
                        0.03485515771106497,
                        0.09348667710916117,
                        0.08634693813143246,
                        0.04543268884819105,
                        0.05158060361345276
                    ],
                    [
                        -0.07303329870047731,
                        0.06976956116697346,
                        -0.0005592211262451234,
                        -0.075357830977644,
                        0.0217949345708422,
                        0.05872967341441143,
                        0.016649940748731724,
                        0.1137682968391526,
                        0.055232572567597435,
                        -0.055088909232108234,
                        0.04205038382090025,
                        0.013533614998205205,
                        -0.0073614064699817905,
                        0.007852488011007326,
                        0.005974600460642935,
                        -0.05509042362949526,
                        -0.029269731129737478,
                        0.028242431271530675,
                        0.05656285422266852,
                        0.06500184424205785,
                        -0.00829822529275408,
                        0.015709460563542218,
                        -0.024066569184840715,
                        0.05634357515145098,
                        -0.07720441609442445,
                        -0.0536044810940533,
                        -0.02547971249165943,
                        0.011738855663133234,
                        -0.0037640604730770997,
                        0.005088231724540359,
                        0.012577264992821106,
                        0.016700280113889958,
                        -0.04819530343177506,
                        -0.014855585062835562,
                        0.020401547964770183,
                        0.0014423283196045695,
                        0.032844139674069024,
                        -0.03154272142507614,
                        0.03630648728744277,
                        0.06004534910483756,
                        -0.005053781588477321,
                        0.004321189830341928,
                        0.004782026182242989,
                        0.010655692470046666,
                        -0.0006481402254469212,
                        0.05252822747728383,
                        0.010607723434760413,
                        0.03533259221715374,
                        0.0211072911451099,
                        -0.04703188995870323,
                        0.008601781395583022,
                        -0.024079633790715226,
                        -0.04037346046754983,
                        -0.05067072258661906,
                        -0.01411051104789168,
                        -0.04014563314125507,
                        0.10646621593498072,
                        0.07506249161806944,
                        -0.026975118545397577,
                        0.008813489781471995,
                        0.049169897727021385,
                        -0.028589314060318116,
                        0.08010365112493867,
                        0.05589564519173196,
                        -0.0246019230579063,
                        -0.07947439436080032,
                        -0.03925450692134265,
                        0.00862519422491312,
                        -0.021718005895246736,
                        -0.0010478415602397353,
                        -0.023335066160268324,
                        -0.0018243905351353045
                    ],
                    [
                        -0.023279885063071087,
                        -0.06870276456114537,
                        -0.01676017058329923,
                        -0.0264579856470645,
                        -0.06829734051375518,
                        0.06175532608812287,
                        0.0003214401411145623,
                        -0.013782938507775153,
                        0.03158541496971686,
                        -0.0035287969820789605,
                        0.033027713109097315,
                        -0.06341868492197583,
                        -0.04507635931259363,
                        0.027143694239669315,
                        0.06591783322999321,
                        0.001956646574236642,
                        0.008502699053850732,
                        -0.03488242684781787,
                        -0.0015783772936493875,
                        -0.028958690819117037,
                        -0.006024603786565021,
                        0.03190249706855945,
                        -0.08528114472074015,
                        0.010538419462229508,
                        -0.036201406592728046,
                        -0.028198286170534395,
                        0.04837501226910048,
                        0.013076324044130758,
                        0.040085878324658444,
                        -0.076362202153249,
                        -0.01669202465828212,
                        -0.01895347034260992,
                        -0.02605176584313812,
                        0.017858410105403483,
                        0.03852596960799682,
                        -0.04835890220992768,
                        -0.04181375363450425,
                        -0.054582814264374224,
                        0.04963134426542093,
                        -0.02389145388309094,
                        -0.004426110076338941,
                        -0.014069421410217487,
                        -0.040438586870164016,
                        0.016235778372934984,
                        0.016201520579556254,
                        0.04094653417053118,
                        -0.009144285078269206,
                        -0.013876270391824702,
                        -0.025036787598630615,
                        0.06468332059986336,
                        0.04344690226522829,
                        -0.0023311868017116557,
                        0.027883473273719973,
                        -0.024129036599613456,
                        0.09237382333679292,
                        -0.02675963233948102,
                        -0.015799752059072303,
                        -0.01646658324340568,
                        0.07537090755070773,
                        0.0076511730302804455,
                        0.048432730211163136,
                        -0.003480474550097614,
                        -0.04912196614339945,
                        0.0368713549115847,
                        -0.027048114382260926,
                        -0.05717649580955307,
                        -0.01799311390665446,
                        0.027357142003844957,
                        0.07653578995635366,
                        -0.060130419575718616,
                        -0.09403149330810323,
                        0.038534524902601695
                    ],
                    [
                        0.010750849033616458,
                        -0.02771480068167336,
                        0.016405867200584186,
                        0.03455150261205765,
                        0.0917367442037424,
                        -0.004008665922536642,
                        0.04928360240518023,
                        -0.022203659307630876,
                        -0.023660489973543006,
                        0.016833773263303497,
                        -0.04850948918276694,
                        -0.05400356871625416,
                        0.04249721525709042,
                        -0.08834153296882678,
                        -0.0012292377165275012,
                        -0.023027895645352056,
                        -0.018146385266178837,
                        -0.056008581762999714,
                        -0.08573012891289464,
                        -0.025663281100071496,
                        -0.048717036065818134,
                        -0.02081390674536677,
                        0.0006320926777092197,
                        -0.0376155246950147,
                        -0.04761831004666454,
                        0.011718302300089991,
                        -0.030874506968131023,
                        -0.037929119034746474,
                        -0.010287287621792172,
                        0.01022891637573852,
                        0.09255633886659634,
                        0.0726495723168815,
                        -0.05327000983339456,
                        -0.055811550454174394,
                        0.001985467586199415,
                        0.021384079884859603,
                        -0.007633635856217005,
                        0.09138124525528964,
                        0.0468521153778068,
                        0.07068651399371173,
                        -0.016647225534055028,
                        -0.039555279920985634,
                        -0.04701090490694287,
                        -0.009204811641958546,
                        -0.05639098798341974,
                        -0.03016730197960949,
                        -0.021972233761969332,
                        0.047521574555471645,
                        -0.01790501046499376,
                        -0.06211621694048305,
                        -0.022235103136130797,
                        0.0037672929695940563,
                        0.02264620873351067,
                        -0.046719137554088144,
                        0.027224738116528556,
                        0.06655848675571484,
                        0.029121228231834013,
                        0.01362170912960161,
                        -0.01968134950333995,
                        -0.025715083037745293,
                        -0.09662150093445164,
                        0.026406304112377668,
                        -0.010720790801357618,
                        0.00034388814582666046,
                        0.011581662102871967,
                        -0.03368484585080082,
                        0.04515341872800365,
                        0.004430658244840207,
                        0.06473045291515807,
                        0.00726684082613346,
                        0.018254573800203455,
                        -0.017849745332104358
                    ],
                    [
                        0.06752626455159468,
                        -0.08820669024742456,
                        -0.021538706238607923,
                        -0.02818437805345511,
                        -0.08122402884486594,
                        -0.04555115850950213,
                        -0.11296515280003022,
                        -0.008554048969457925,
                        -0.04990502877069631,
                        0.014114043653964275,
                        -0.015235504059521034,
                        -0.052381889881418016,
                        -0.08760264254093977,
                        -0.058330081402027764,
                        -0.022915866784194706,
                        -0.02336234402543445,
                        0.04005623700307757,
                        -0.03775472861453614,
                        0.06559884921217363,
                        -0.026341241040965347,
                        -0.05803210967893229,
                        0.027772046402756996,
                        0.032334594647372164,
                        -0.018433823806501572,
                        -0.011364216502192381,
                        0.0435009854487936,
                        -0.03936465521741454,
                        0.03982813254266959,
                        -0.07276871206898271,
                        -0.010095059741566265,
                        -0.01228243531195256,
                        0.04243479109987011,
                        -0.0759309700909413,
                        0.014843071030180226,
                        0.0003160795744711221,
                        0.013880831444569657,
                        -0.029675419142400662,
                        -0.052669571007292366,
                        -0.016077434536251795,
                        0.003942904076331184,
                        0.05918992299229739,
                        0.009240124592811419,
                        0.004937691791584584,
                        0.04767439129930271,
                        -0.04980863166073803,
                        0.04614181584523295,
                        0.04567070795705956,
                        0.04223996950362756,
                        -0.017757314355082446,
                        -0.05222985008607114,
                        -0.031296620519638586,
                        0.02651298895750856,
                        0.03493957661517039,
                        0.06490854443201788,
                        0.0666382947821284,
                        0.045602396475574514,
                        0.0008226453877562498,
                        0.013828605059989597,
                        -0.005047629931317017,
                        0.056874749319236875,
                        0.024828673309276524,
                        0.026984550706456868,
                        -0.017364673940899408,
                        0.04522185780651972,
                        -0.06375919568996447,
                        0.055157703516739126,
                        0.04144916075727055,
                        -0.06276969780315748,
                        0.002160838077380248,
                        -0.053475386629786306,
                        -0.019926262046958992,
                        0.05600387244692031
                    ],
                    [
                        -0.026881700283095306,
                        -0.06652854761378837,
                        0.007047941266358497,
                        0.017904276303691718,
                        0.009181251086901506,
                        -0.05928831288106542,
                        0.011962377571217436,
                        0.025014385987475976,
                        -0.018040221084079076,
                        0.0877720363415024,
                        0.008589471948759881,
                        -0.0035726506806001324,
                        0.026204402596810134,
                        -0.03593514329396262,
                        0.051741057615887785,
                        0.10518029678664091,
                        -0.053577286959027574,
                        0.011993243874240746,
                        0.033166312969822476,
                        -0.06236949769287277,
                        0.08111116749113374,
                        -0.02834060881822748,
                        0.004805168751749008,
                        0.03095932020551344,
                        -0.024107103412115756,
                        0.026660377106138087,
                        0.0037509640682471556,
                        0.019959422998557175,
                        0.006598691582460046,
                        0.0630460269382972,
                        -0.08213187104219151,
                        0.022448284525677827,
                        -0.02036078328631722,
                        -0.04539529489405619,
                        -0.04007455896258293,
                        -0.030912452579797012,
                        0.01077373169117321,
                        -0.03502497270658394,
                        -0.0059185657500755015,
                        0.0014942801065474368,
                        -0.05108254099380145,
                        0.042900756079532906,
                        0.09893965240351488,
                        -0.03842127535236176,
                        0.026425347890211358,
                        -0.014608974286544086,
                        0.027427564822305888,
                        -0.006380979797265963,
                        0.10317028802651332,
                        -0.009565194056436858,
                        0.0266190149842487,
                        0.015783550113915794,
                        -0.0584730760871938,
                        -0.09266458160962639,
