{
    "input_size": 72,
    "layers": [
        {
            "weights": [
                [
                    0.9986571374458826,
                    -0.37611146159961756,
                    -0.32472311738290455,
                    -0.6596674554204469,
                    0.5320577293218928,
                    -1.4149996042491213,
                    1.0727205930546009,
                    -0.467994505144874,
                    0.19614712334522724,
                    -0.1533143818482341,
                    0.8989126079402868,
                    -1.2665866937575625,
                    -0.19822400409805147,
                    -0.23611888889923344,
                    0.6970481592983769,
                    -0.6762196569086706,
                    -0.1060098819003013,
                    -0.5397125477965043,
                    0.02595326117149508,
                    0.358318240695281,
                    -0.6766671802200377,
                    0.7037829077535133,
                    0.5543033078534608,
                    0.30893649176846877,
                    0.553851566094662,
                    -0.42035993201295413,
                    -0.07555363753417582,
                    -0.5753165831796924,
                    -0.16469917588945338,
                    0.3260656779584568,
                    -0.42523712127568436,
                    -0.2439264150746764,
                    -0.4224778406020474,
                    -0.5196374277134417,
                    -0.4126860916026821,
                    -0.007786270325374191,
                    -0.6869290111373693,
                    0.1441201575670135,
                    1.0204561960769252,
                    0.45621313905152117,
                    -0.11794163228302013,
                    -0.5457195373697548,
                    -0.45935733837625764,
                    1.0405310994379655,
                    0.03123690815988354,
                    -0.39162869128632016,
                    0.11737596922253427,
                    1.291249280739046,
                    0.07387443471576727,
                    0.3794601225524201,
                    0.18454648819094785,
                    -0.21656528915232418,
                    -0.7024269460427139,
                    -0.2147779720721525,
                    -0.12842941027057206,
                    0.3606594077654737,
                    0.5158119653661197,
                    0.5724470669756475,
                    0.17558077679124087,
                    0.544190023328919,
                    -0.4638083163248843,
                    0.7702707524468141,
                    0.31535228752958416,
                    -0.183269238215108,
                    0.3003438460348549,
                    -0.046461936165648726,
                    0.6957324408974462,
                    0.9343923683245552,
                    1.3437046874306366,
                    -0.8585742072160524,
                    -0.8878497093893755,
                    -0.3101485964124764
                ],
                [
                    0.23287413315214797,
                    0.6814067535087802,
                    0.12089188651303567,
                    -1.310653605007186,
                    -0.0920111578677399,
                    0.3541758179753744,
                    -0.07269801679520187,
                    0.37316845603727183,
                    -0.15478715864877338,
                    0.13342487733689287,
                    0.34752883557618486,
                    0.32374289204842316,
                    -0.1023739477978094,
                    -1.1369798360328296,
                    -1.5102117260158343,
                    -0.820862807540215,
                    0.23952610890515838,
                    1.04934634295598,
                    0.7663806734116035,
                    0.032369980285369894,
                    -0.5406812991911626,
                    -0.9633715679453623,
                    -1.1178496643768332,
                    -1.1010063861020436,
                    -0.3424307158058008,
                    0.022179927315744048,
                    -0.5450593774002687,
                    0.13587849478591874,
                    -0.2545676098807635,
                    0.469257424155456,
                    0.005415726236313759,
                    -0.23294466017669857,
                    -0.4568410007512224,
                    0.1675388400470877,
                    0.6223690699351916,
                    -0.7866740994192211,
                    -0.18796437842072858,
                    0.2617053515965133,
                    -0.12083877057598277,
                    0.6358830355805645,
                    0.48817342823660664,
                    -0.28269541153659467,
                    0.03764863599257659,
                    -0.9993915099905695,
                    0.15606716969200848,
                    -0.6209243905660173,
                    1.8523655207434921,
                    1.1248309842547832,
                    0.24134256045467825,
                    -0.3800483263084819,
                    0.8273506432518551,
                    1.3542611652834748,
                    -1.092013899875224,
                    1.8237087079363052,
                    2.0237336812004925,
                    1.2071601905818765,
                    -1.0298949225809002,
                    0.24342969364130748,
                    -0.18492917557551491,
                    -0.4308556259490197,
                    -0.733350902542004,
                    0.33462199073772436,
                    0.7560895102258458,
                    -0.25172254091628454,
                    0.8005763370733711,
                    -0.7035478550230375,
                    0.4929889053348249,
                    0.028629850512804225,
                    -0.1147041993130905,
                    -0.06255396424916627,
                    17.98301436583903,
                    25.07041163986613
                ],
                [
                    0.4642653291248044,
                    0.217570831854173,
                    -0.028599932590759016,
                    0.3495707443781799,
                    0.24893017987314456,
                    0.26182422535902233,
                    -0.41741226921912106,
                    -1.6484932372509498,
                    0.6561068005133233,
                    1.6730048904725694,
                    0.49683508061460835,
                    0.01088983728990145,
                    -0.32989775105032054,
                    -1.2883257553061354,
                    -1.0576830497169765,
                    -1.7987555101758281,
                    -0.1597503741453051,
                    -0.318885034234206,
                    0.15510818084773756,
                    -0.2691244152659997,
                    0.02805729352605718,
                    -0.6603358311719713,
                    -0.7318798550493754,
                    -1.023795285470632,
                    1.3021293906978304,
                    -1.237204439819959,
                    -0.57555885138565,
                    0.25629443786335737,
                    1.7295141115879493,
                    -0.5237257267217024,
                    -0.2408406916664298,
                    -0.7860658113921144,
                    1.109515337048391,
                    -0.11643449143455363,
                    0.5888665288112997,
                    -0.36927290560014536,
                    -0.8571320828354989,
                    0.4633999424286976,
                    1.1449149761827437,
                    1.2701325953233304,
                    -0.12261369260188856,
                    -0.1129703620057782,
                    0.17445363701269043,
                    0.008397165972813172,
                    0.36451278379228774,
                    0.43614653084432,
                    1.892055361577471,
                    1.0987990806413137,
                    1.4672221972888904,
                    0.8366368456997498,
                    0.4357278020685348,
                    -0.9407253123641309,
                    0.4842213225035804,
                    1.2861554719341817,
                    1.4815364996707048,
                    1.6687063711405827,
                    -0.529723825567491,
                    0.21864099181349828,
                    -0.4116174186922365,
                    1.1593045826911104,
                    -0.7977875561641622,
                    -1.1272712529940885,
                    -0.8146827724509847,
                    -0.41965390948492914,
                    -0.8498331771780454,
                    1.202608880038602,
                    -0.20073382263544004,
                    -0.8254850171232102,
                    0.6851292456054607,
                    -0.36059838682710676,
                    16.083342049280446,
                    25.095838927650423
                ],
                [
                    0.5230775738462574,
                    -0.16733134475959657,
                    0.8008099453470466,
                    0.060865863754210305,
                    1.0932578211486739,
                    0.17919970455429474,
                    0.7942493907016495,
                    -0.026812894040243746,
                    -0.7699721743908045,
                    1.8598589936145111,
                    -0.13716115563723688,
                    -0.0584922341663594,
                    -0.6784342046078476,
                    -1.2847953478881737,
                    -0.9096289320917414,
                    -0.9167176749177951,
                    0.58719088904487,
                    1.4824612477231807,
                    -0.08893786288267926,
                    -0.8718728584554228,
                    -1.0874980130431338,
                    -0.9409983672191532,
                    -2.5475390376199005,
                    -0.6777709216701698,
                    -0.42265726504020784,
                    -0.2273623867166793,
                    -0.16308999654677098,
                    -1.2257064048205104,
                    -0.4772652302022713,
                    0.11169881363859491,
                    0.11797207566389777,
                    -0.9429779298160142,
                    1.4374988629971097,
                    -0.8041996488546104,
                    -0.12137726855803814,
                    -0.3106140969921526,
                    -1.860449040379818,
                    1.5705985253864108,
                    1.018371530969535,
                    -0.2905521857246488,
                    1.2765081696051817,
                    0.6916799111879731,
                    0.06900078563345113,
                    -0.5350798172542467,
                    0.23764936682430782,
                    -0.505985388750865,
                    1.5915475403655492,
                    0.5677403646216169,
                    0.310913404393933,
                    0.9079377897728544,
                    0.1780308665644495,
                    0.24007929617542273,
                    0.2625434060287102,
                    0.5064870145357688,
                    1.4913922832705206,
                    1.9553312231663798,
                    0.21540112406305048,
                    0.2631955409140849,
                    -0.5964261894649318,
                    -0.6084844075741244,
                    -0.8728629301749908,
                    0.7655653256909273,
                    0.06944948222392357,
                    1.0203930678463256,
                    -0.4383229356611277,
                    -0.268983110471715,
                    0.05866790803652125,
                    0.5665129525112464,
                    0.037349579709817116,
                    0.12980074816384954,
                    16.8297242798767,
                    23.817053711510248
                ],
                [
                    -0.6864123708214558,
                    0.04975446035534316,
                    -0.1147098688098477,
                    -0.03493602696062682,
                    0.302691426719023,
                    -0.4184849472460127,
                    -0.051956035106215395,
                    -0.1828198443995866,
                    0.256559740964682,
                    0.48248163809654687,
                    -0.5874011025671257,
                    0.3602211986526314,
                    1.2700558042045107,
                    -0.9044759797709317,
                    -0.5103945916364205,
                    -0.5413843169263705,
                    -0.17159093004427936,
                    0.9977372170598794,
                    0.008209304398197713,
                    -0.4271017314365653,
                    0.38228847236230784,
                    -0.3687633734955306,
                    0.6906804420991974,
                    0.18767998197079477,
                    0.8538297874013483,
                    -0.40659835248585285,
                    1.8566555510487626,
                    0.5069595048190252,
                    0.4024397495966549,
                    -0.031470960364538926,
                    -0.4461014006895581,
                    -0.5335093157814658,
                    -0.08359966438104847,
                    -0.4831581515231989,
                    0.17379069989330664,
                    -0.5008851044054258,
                    0.37481562124005435,
                    0.5878292790750392,
                    -0.433954918937945,
                    0.7332704490930048,
                    -0.14628810950690788,
                    0.7102778257973698,
                    0.26938726203161306,
                    0.69001409063207,
                    -0.6129736675795815,
                    -0.06565757474928505,
                    0.8923472944928741,
                    -0.3871548005623007,
                    -1.2524833634218466,
                    -1.194315319022762,
                    -1.5341767139811677,
                    -1.2998004842956035,
                    -0.25307819233918377,
                    0.7860466277167825,
                    -0.2790456459345127,
                    0.19184023866711533,
                    -0.06762341874296549,
                    0.005255942220358632,
                    -0.10340964155699126,
                    -0.10708710594258725,
                    0.283526416412595,
                    -0.7230011022403615,
                    0.6210321634423821,
                    0.5656324671891446,
                    -0.11284031496943815,
                    0.4951606410520677,
                    -0.4311907016559947,
                    -0.330287892707397,
                    0.09607193943353141,
                    -0.11694901136347975,
                    -0.2830480663591389,
                    -0.42061381449405394
                ],
                [
                    -0.21655153236647268,
                    0.720977313687016,
                    -1.299108828370502,
                    0.18239914027900145,
                    -0.04785571308002984,
                    0.29056809400444217,
                    0.10914979534118288,
                    -1.8683738505242806,
                    0.3640801675689769,
                    0.4704695502617625,
                    0.24278983009292926,
                    -0.22432273973778716,
                    0.3176713543974002,
                    -1.504945906647812,
                    0.13751810293035585,
                    -0.6849787038760268,
                    1.5401900989080377,
                    -0.18542164264298175,
                    -1.13466024757368,
                    0.3620912519456367,
                    0.26162511297561036,
                    -0.5125263170502083,
                    -2.4634943392453175,
                    -1.4634218303866833,
                    0.291533151835915,
                    -0.13866979626175396,
                    -0.21759993407149889,
                    -0.43756290057635167,
                    -0.5791645611170418,
                    -0.7154207147899426,
                    -1.247036935918549,
                    0.5355823935149416,
                    -0.05689408015328895,
                    0.36799507191727715,
                    -0.5352222413100618,
                    0.36447585053189707,
                    -1.2565035784357554,
                    0.8568070788348607,
                    0.7950952996491568,
                    1.8112850427555647,
                    -0.8863066706255955,
                    0.32317209326446206,
                    0.03551215146446625,
                    0.6522326639602503,
                    -0.09467375832073258,
                    0.5159727701387202,
                    -0.34548200925396527,
                    0.30633013938591436,
                    0.534274880465714,
                    0.832197444282117,
                    -0.16363714871429358,
                    1.4109307860836227,
                    1.2260695186378754,
                    0.96928605122178,
                    -0.6591420908595806,
                    -0.17505238345491597,
                    -0.7533631890362738,
                    0.40253215260055214,
                    0.1232217449648068,
                    -1.3643212879354683,
                    -0.10014165943118,
                    1.0068777586654891,
                    0.01162102003619785,
                    -0.33123491856552245,
                    2.374624102518109,
                    0.03283649913652628,
                    -0.29458861850747686,
                    0.21528484045681423,
                    0.010552975302697287,
                    -0.26383921099928853,
                    18.265934514418177,
                    25.39570180278566
                ],
                [
                    0.5169666595702925,
                    -0.06325566993341833,
                    0.6928775038240073,
                    -0.030557439653314415,
                    0.2868950408478289,
                    0.6292257098380966,
                    0.4972822969374584,
                    1.0935012438948306,
                    0.27972062065614356,
                    -1.0216759265481978,
                    -0.7062832794930863,
                    0.8300536578934005,
                    -0.20367485238656702,
                    0.24881652167637425,
                    -0.5037505427974522,
                    0.6372222243630259,
                    -0.23659714283266875,
                    0.8964535696842877,
                    -0.33438222006519747,
                    0.6676137532182631,
                    0.42315905168063667,
                    -0.4312160899627046,
                    0.6715551293484651,
                    -0.540639373524509,
                    -0.5133240322635139,
                    0.45096237048869303,
                    -0.3691716979750143,
                    -0.36541362283275625,
                    -0.2045269247643042,
                    -0.6120941648788507,
                    0.6560716763166079,
                    0.3741184359415633,
                    -0.03144107646177071,
                    -0.07450852042003388,
                    0.27675827188112273,
                    1.0733380556620378,
                    0.5343761825058142,
                    -0.3196401412685032,
                    0.45037939290748663,
                    -0.07923451187735553,
                    -0.12234526045998988,
                    1.1191386260853593,
                    -0.25756549747481244,
                    -0.28163116579932274,
                    -1.1613052603666467,
                    -0.8602794712549735,
                    0.24213304035898814,
                    -0.4134997853854441,
                    0.32624064252456964,
                    -0.6923815716031613,
                    -0.45862874587290914,
                    0.4079978823157163,
                    0.8852042856192963,
                    0.36425578274209797,
                    0.7089131332094606,
                    1.0022360072819627,
                    0.6388486758945277,
                    -0.565157703402346,
                    -0.0647665523547192,
                    0.3874480258912806,
                    -0.2550503286964113,
                    0.28433289943128326,
                    -0.9557155623325307,
                    -0.5094453826654693,
                    0.3235253320183301,
                    -1.3753740192098318,
                    -0.6810281984304898,
                    -0.010893326653510334,
                    -1.0570938930692706,
                    0.03511832625714079,
                    -0.5355046297272836,
                    -0.28070557940198915
                ],
                [
                    -0.029578778331889134,
                    0.24997606330866523,
                    -0.4319214290874061,
                    0.017162743233217797,
                    -0.29134673165818586,
                    0.18150394408212236,
                    0.861312457346522,
                    0.015777555909731757,
                    0.0973872922238597,
                    -0.48493372762537085,
                    0.6698281694311451,
                    -0.4217943695842208,
                    -0.7482659764375718,
                    -0.8447439107575907,
                    -0.9369116947750495,
                    -0.3283535357824177,
                    1.0918295463407426,
                    -0.02690055790271373,
                    0.07763285136051239,
                    1.0385876251305148,
                    0.3359993140376955,
                    -0.045895274464942924,
                    -0.5125274304887095,
                    -1.5427194458519313,
                    0.29062265425891526,
                    0.8957550217396821,
                    0.9108639726327452,
                    -0.8384979846854077,
                    -0.12423543804595034,
                    -0.08467822467860008,
                    -0.45664576079299657,
                    -0.8756537972130352,
                    0.7026156531072371,
                    -0.17245974271760728,
                    -1.0327116073822842,
                    0.06639803834296226,
                    -0.2932091400721983,
                    -0.25039378267445445,
                    -0.2372964143418481,
                    1.0851797714589222,
                    -1.461306826925318,
                    -0.8134045227680657,
                    -0.37904959319767073,
                    0.6366847504909541,
                    1.0231078333273318,
                    -0.3131701838508956,
                    0.9776061111603264,
                    -0.15426967019113175,
                    0.9064231610946367,
                    -0.8324796480815015,
                    -0.07537443154804943,
                    0.7611645507552548,
                    -0.0441585846544703,
                    1.977879902015522,
                    0.36556644435073204,
                    1.2144612260814012,
                    0.2685055123778664,
                    -0.3886158647046693,
                    0.7982794156845086,
                    0.2907304274925957,
                    -0.9909820004760227,
                    2.490286291994867,
                    0.6641711185316941,
                    0.20789500615168408,
                    -1.1012609173383614,
                    0.05027133865143958,
                    -0.28277557292387656,
                    0.3961524451729874,
                    0.22850509343545553,
                    1.1392411918153482,
                    17.286591539726267,
                    24.773505479989623
                ],
                [
                    0.2289886753600726,
                    -0.09129240922556688,
                    -0.11275552610903797,
                    0.6769014369238469,
                    0.4795652966008532,
                    -0.3869844212662234,
                    -0.6845471019883588,
                    -0.041444082061933556,
                    0.7140601705528752,
                    -0.016925229511548956,
                    1.0737186228735014,
                    -0.476517796968073,
                    0.08708144034876204,
                    -1.5470384974466813,
                    -0.36622013650888396,
                    -0.19004961512752444,
                    0.3141275659115445,
                    1.0517250168354002,
                    0.02148352542920892,
                    0.8938771289728733,
                    0.40680543959899956,
                    0.6064151545842681,
                    -0.2865947632432112,
                    0.8515008701820751,
                    -0.6596647850450627,
                    0.30442644298734506,
                    -0.5853334108811719,
                    -0.3185589504019611,
                    -0.8984795802621185,
                    -0.31745374838986906,
                    0.2158687448017474,
                    -0.04228048747223128,
                    -0.8286138577986144,
                    0.9042195631959642,
                    0.2073254275054264,
                    0.6197645908769293,
                    0.48276215474235734,
                    -0.4087646357681637,
                    -1.1958263749432627,
                    -0.5628083162467217,
                    0.7532330628266153,
                    -0.6477263577470513,
                    0.5017084839519459,
                    -0.37651142941515425,
                    0.24168588894422985,
                    -1.1213567137259446,
                    0.7175247152078711,
                    -0.024388551452641082,
                    0.5446109407890679,
                    0.11672806505635795,
                    0.49065434182977574,
                    -0.06266842065866961,
                    0.4570199998435324,
                    -0.9280942152559516,
                    -0.6644273260280231,
                    0.44602570907275113,
                    -0.024087023653677122,
                    -0.14063941752780088,
                    -0.11042670114321708,
                    0.30846356488707977,
                    -0.36479124968646237,
                    0.3137401289053439,
                    -0.5630342456389102,
                    -0.25038096491013406,
                    0.6055541136789705,
                    0.6586123290073439,
                    -0.6745369902604272,
                    0.5155976030497488,
                    -0.6388954382627774,
                    0.45066701863143027,
                    -1.1674008853825621,
                    -0.6868062613270216
                ],
                [
                    -0.19245901986977137,
                    0.013944715455957095,
                    0.8166958823962865,
                    0.541557073336133,
                    1.0919647508789834,
                    0.6189648105304817,
                    -0.38050014924174536,
                    -0.2706762069313468,
                    0.7006640432591884,
                    0.3075535686821294,
                    0.1098599456150356,
                    -0.795467310861751,
                    -0.2848174590985093,
                    -3.0462751975684754,
                    -1.381719127667126,
                    -1.6982392748424,
                    0.5943230056712883,
                    0.013010994539525134,
                    -0.2228379787469831,
                    0.8280238727102693,
                    -1.0067751775755134,
                    -0.28446433956274986,
                    -2.7248935927995355,
                    -1.1193908264202472,
                    0.1438241060259029,
                    0.5448264002775552,
                    -0.7249345343946596,
                    -0.09328362462361711,
                    0.295688525295424,
                    -0.3484292917271482,
                    -0.14746676620443852,
                    -0.3267530225356439,
                    0.5260899289490543,
                    -0.5958415888906246,
                    -0.6334541579694117,
                    1.5083006155517193,
                    1.2771174830010292,
                    -0.7174976692909263,
                    1.0402028746963092,
                    0.8622537027892254,
                    0.4336516586458172,
                    0.39699069246601354,
                    -0.8236568856327583,
                    -0.27921346904370004,
                    -0.16494774161602951,
                    0.5204655549441471,
                    0.8830058832852654,
                    0.7212877021151407,
                    0.903266992184032,
                    0.9385150517090048,
                    -0.7485431090697598,
                    -0.21207684806997112,
                    -0.4336235985219106,
                    1.8077842172855263,
                    0.9105104619779563,
                    1.9060151195730723,
                    -0.5586991955483992,
                    -0.2778937259608962,
                    -0.9166316360268739,
                    0.7876584662608873,
                    -0.171686073592918,
                    -0.9459463170720316,
                    -0.1133492809946267,
                    -1.326111754622181,
                    0.27806980639146944,
                    0.06915812939174922,
                    0.1771121610328085,
                    0.9210457724466126,
                    -0.18504191970028758,
                    0.4964286738084334,
                    17.070309633004328,
                    23.378176440276395
                ],
                [
                    -1.168168872299837,
                    0.7136287224118072,
                    -0.394321338773224,
                    -0.009001274919669454,
                    -0.7273236564861577,
                    0.02708834541030624,
                    -0.1441837654722346,
                    -0.0901127694654853,
                    -0.08561098735956969,
                    0.955057679831818,
                    0.8306142055232952,
                    0.5380892808807409,
                    1.8926739829062131,
                    -1.5892908885097063,
                    -1.3317789797926964,
                    -1.7087804424747404,
                    0.461505454323234,
                    -0.12201926101826396,
                    -1.7403707965611437,
                    -0.8590570483054325,
                    -0.2613868139287538,
                    0.14543428445552004,
                    -2.4675869202971032,
                    -1.6056102164612924,
                    -0.18441097709308885,
                    -0.4985056600061396,
                    0.2028663810695371,
                    -0.30002111641102186,
                    0.2911751691396068,
                    -0.8244182609419313,
                    0.7863883770305069,
                    -0.6417388585970204,
                    1.110616312352195,
                    -0.23446425522088268,
                    0.4855726493485847,
                    -0.6058403695414452,
                    -0.636283556231354,
                    -0.21866874606105172,
                    0.7338656882600193,
                    0.2560600866379259,
                    0.9496866609580188,
                    -0.44372211514488924,
                    -0.923384132364608,
                    0.9550318222651109,
                    0.5589633305270475,
                    -0.7503580332256106,
                    1.4048682347252284,
                    0.9650037859282841,
                    -1.144433444814422,
                    -0.10549940878633154,
                    -0.008038699560352802,
                    0.5442498393238532,
                    0.6967399751471405,
                    1.0723156327651244,
                    1.6357887070126675,
                    0.8711045442856048,
                    -0.8032543861143301,
                    -0.8766042120458508,
                    0.30043080636983727,
                    -1.297686378033587,
                    0.4731681048957639,
                    -0.7070010719869179,
                    0.01551872848540494,
                    0.45185228459676974,
                    1.5134858193430383,
                    -1.1931421358556296,
                    -0.4956431331850615,
                    0.030163418666752866,
                    -0.3664774043048491,
                    0.5297309791324879,
                    15.088855918786999,
                    24.180567026088436
                ],
                [
                    0.2618582437958258,
                    0.03017491846908077,
                    0.6776616628307024,
                    -0.7559495239082692,
                    0.6815841401866009,
                    -0.43215962142402187,
                    0.44607275008487723,
                    -0.19932267178010035,
                    0.5006629725716284,
                    0.4798375292292048,
                    -0.900108796790657,
                    -0.0949820997570845,
                    -0.05682793616872947,
                    -0.14624712021497682,
                    -0.46458593766615897,
                    1.1382749686826676,
                    0.1285538735478226,
                    0.95603303110433,
                    -0.34991595864540354,
                    -0.6527989292921268,
                    0.08130671671433302,
                    -0.3462811957083836,
                    1.4694758751542607,
                    0.15088741933690802,
                    0.7086247657311162,
                    -0.1378614790371911,
                    -0.20046441940643342,
                    -0.019004522381448705,
                    0.21869707645451186,
                    0.5223310175987745,
                    -0.07510101102135133,
                    -0.41859157488543647,
                    -0.6565368356237462,
                    -0.04714292574344206,
                    0.3522608729443752,
                    0.2815485712335313,
                    -0.010954334547660427,
                    -0.36896888354039575,
                    0.0902321520344046,
                    0.35154902170379065,
                    -0.022635712999999114,
                    0.06908481155958264,
                    -0.09253094963028027,
                    0.5628543651057658,
                    -0.2694081162774071,
                    0.11406839719777548,
                    0.24249668585995138,
                    0.44605556021897885,
                    0.9196788020979034,
                    0.41527299715101534,
                    0.3683998414560615,
                    -0.9039104586585828,
                    0.3728207317861444,
                    1.4101911552232593,
                    -0.5102956633719249,
                    -0.6268068337884908,
                    -0.13197045185991738,
                    0.627869388522067,
                    0.32261970651895583,
                    -0.2933387842867529,
                    -0.022126976604764256,
                    0.6375776999926421,
                    0.4135305996341202,
                    1.49328792746498,
                    0.6183021196071607,
                    0.21737521571865479,
                    0.37793735043274984,
                    -0.21455754478691322,
                    -0.601140624787237,
                    0.10572026196855677,
                    0.30159983136133217,
                    -0.8578282567914814
                ],
                [
                    -0.3211478444598262,
                    -0.2270207125619409,
                    0.16331852031817098,
                    -0.1601360736251881,
                    0.2736480902293135,
                    0.060319989302934945,
                    0.6518956243773244,
                    -1.0520359985494043,
                    1.0188100292211488,
                    0.87159436861413,
                    0.030935242184576238,
                    0.39982255872926153,
                    0.37290954425668316,
                    -0.4532900241527203,
                    0.1012370564640578,
                    0.4784260881449985,
                    0.1904771757318593,
                    0.6463582265470139,
                    0.058404170364493045,
                    0.049646185440714585,
                    -0.4720502845502493,
                    -0.22412014917143505,
                    -0.2826371494934831,
                    1.0485413545070985,
                    0.14786423603023802,
                    -0.6144533245584034,
                    0.24506064671747244,
                    -0.11804500837442485,
                    -1.8774724038446409,
                    0.2950160760716393,
                    -0.9546083959793636,
                    0.35564334714175616,
                    -0.5909905464770097,
                    -0.8965865041157988,
                    0.3039241710131061,
                    -0.9186391649208764,
                    -0.2746333124858163,
                    0.12565243127257056,
                    0.3764041765228236,
                    0.4579594189328711,
                    -0.02230595080357549,
                    -0.5117615833072262,
                    1.1827731030927815,
                    -0.37256090019549215,
                    1.108857173894485,
                    -0.27821503022203864,
                    0.7139653131733994,
                    0.6578211421023896,
                    -0.6428006395341367,
                    0.21843101638529908,
                    0.46441948762662855,
                    0.4309679545625709,
                    -0.12230792113276519,
                    0.1856468219838786,
                    -0.24265755043221668,
                    -0.7204377967223723,
                    0.6049765436201829,
                    -0.34409544866389813,
                    0.8482834973527359,
                    0.3703903775283413,
                    -0.5488044548054488,
                    -0.09910568032840639,
                    -0.17607113992755385,
                    -0.5354268782329638,
                    0.30828187778011934,
                    -0.2942547635717039,
                    1.003173593897787,
                    0.5292810270771556,
                    -0.5411454431241863,
                    -0.011681633033771385,
                    -0.13941350741325667,
                    -0.9618686824550228
                ],
                [
                    0.7159265093515206,
                    0.7150781696367886,
                    0.5042590852318989,
                    -0.31394273239781856,
                    0.7530078660423736,
                    -0.292110616721062,
                    0.3772032331107869,
                    1.0375067703188763,
                    0.09114570736191065,
                    -0.6487214554946688,
                    0.014620835664749065,
                    0.49668368964837,
                    0.5399214335710729,
                    -1.9586547176805904,
                    -1.1944572379086156,
                    -0.9156448576680398,
                    0.44157806448537057,
                    0.8951969569221624,
                    -0.6022517803745872,
                    -0.3743426233622921,
                    0.36306578600011236,
                    -0.2604167539922039,
                    -1.1007838109012986,
                    -0.41773637497199406,
                    -0.04030504651442389,
                    0.32366399793207046,
                    -0.37265415505511956,
                    -1.205379009787805,
                    -0.7933961116218198,
                    -0.306029774715974,
                    -0.3799221330350938,
                    -1.0506042595391223,
                    0.4682055724827595,
                    -0.5346464916790944,
                    0.21374128083475205,
                    -0.18472120940845657,
                    -0.5694940126362108,
                    -1.2734660392694153,
                    1.801521145244707,
                    0.6103589276901566,
                    -1.7403366811241607,
                    0.023593730357520607,
                    0.05263148931975841,
                    -0.30884881989283414,
                    0.5470466298534682,
                    -0.17843183421657746,
                    1.2421355479273106,
                    0.8061657992574791,
                    0.1267616582494255,
                    -0.00968943072088581,
                    0.14311879899185098,
                    0.6720726195162776,
                    -0.25414241532643866,
                    0.740932822370651,
                    1.0364664772797239,
                    0.8947507293917408,
                    -0.02448414442019642,
                    0.16465057588644944,
                    0.738602278272934,
                    -0.13806701822520417,
                    -1.3956170112835016,
                    -0.0576419711172254,
                    0.4762238758399896,
                    0.03541483313940431,
                    0.12676383823290827,
                    -1.4955206216579697,
                    0.31231177483560835,
                    -0.19921699250537536,
                    -0.929018836433777,
                    -0.5357554403157415,
                    16.288723908482115,
                    24.688749082342763
                ],
                [
                    0.4844167282976964,
                    1.0699212976309649,
                    0.32977216327510456,
                    -0.8764471903215197,
                    -0.8089287348085117,
                    0.5591653455582068,
                    0.7801940825587486,
                    -0.25907131221802876,
                    0.36035632645693144,
                    -0.7037638870235873,
                    -1.02007261507324,
                    -0.6617233498270759,
                    -0.47146200620961776,
                    -1.5504492466040167,
                    -1.2203918244681013,
                    -1.404699452936636,
                    0.5991945378441544,
                    1.2286284896014912,
                    0.02476194807354672,
                    1.2259409004419335,
                    -0.7099771504861563,
                    -0.8538227817445847,
                    -1.135540141912647,
                    -1.410160502175053,
                    0.6478223841920526,
                    -0.4223175607605849,
                    0.6910737949736132,
                    -0.1883413181685465,
                    1.7809890965185924,
                    -0.6776454099690101,
                    -0.39577600926340634,
                    -0.5178544164305579,
                    -1.145065432500938,
                    0.43602626551019313,
                    0.45368949850204116,
                    -0.0867142197041658,
                    -1.031030373097344,
                    -0.7697443556148019,
                    1.180856409871909,
                    1.178714411476864,
                    0.991556126723303,
                    -0.2800292698975091,
                    -0.8528381965617188,
                    -0.3372703624056428,
                    -1.1144993857334151,
                    0.09165287289844617,
                    1.684253761645923,
                    1.9212768446121287,
                    0.4280201350001675,
                    1.1911047001507373,
                    0.2776169245280504,
                    0.20136481116411936,
                    -0.017891755074471216,
                    1.1324132992322185,
                    0.7606752573605161,
                    0.8877398974878009,
                    -0.693242289355622,
                    -0.12473725775684921,
                    -0.06236411400807881,
                    -0.9918664740781468,
                    -0.10768905106794459,
                    -0.5548311493021686,
                    -1.0614781365657384,
                    0.45727853628408494,
                    1.8507286498269127,
                    1.4569241369911488,
                    0.9605847683119108,
                    -0.5353739452611149,
                    0.7225475729918385,
                    0.6885205314943899,
                    15.295184367591698,
                    24.92094803483793
                ],
                [
                    0.3855921510579349,
                    0.10009547528567403,
                    0.1774432639416119,
                    0.03584772379431006,
                    1.003323812515912,
                    -0.24702215158688254,
                    -0.12292392157707624,
                    0.004542790887776763,
                    0.17862019092759715,
                    -1.0840564071231502,
                    0.8533345078586296,
                    0.13906894845964138,
                    0.3499011678370192,
                    0.13110204586409982,
                    -0.11462519636971406,
                    -0.21840458372149846,
                    0.059091543217376495,
                    0.0934826785826344,
                    0.7102617605068509,
                    0.21275834931817617,
                    -0.0985328258216735,
                    1.2142737842418103,
                    -0.7588441298878561,
                    -0.8239685285696218,
                    0.21801143908017342,
                    -0.13056835208969053,
                    -1.0819022112526695,
                    -0.19196064262717105,
                    -0.42789638760355203,
                    0.6792724427454687,
                    -0.38194926311229804,
                    0.6459241004205678,
                    0.2826765088591682,
                    -0.12685346515512144,
                    0.01301656544557299,
                    0.26609013659446024,
                    -1.4119570703583708,
                    0.20108359155566996,
                    -0.24289834547089542,
                    1.1053714609967047,
                    -0.4249962434149099,
                    0.6934891910691541,
                    -1.5276924375195475,
                    0.4911697249745878,
                    0.1604354139836235,
                    -0.1518671996782432,
                    -0.07432346313706703,
                    -0.16019419230852205,
                    0.2437385678254738,
                    -0.08253681160364792,
                    -1.1090983237386312,
                    -0.10515408166300111,
                    1.3555949296098473,
                    0.02678867924593475,
                    0.16946576329209012,
                    -0.2596056367652305,
                    0.10700971531370662,
                    0.10007571737554125,
                    -0.1605884850691692,
                    0.530739443796859,
                    -0.5675137879436442,
                    -0.08004478409605727,
                    0.31051003425949486,
                    -0.16415574876659253,
                    -0.7370304904377819,
                    0.3432241436611142,
                    -0.6038383663951908,
                    -0.2750077036359949,
                    -0.5091500362560387,
                    -0.06807648390168991,
                    -0.2832114223529454,
                    -0.3275678964014011
                ],
                [
                    0.5591657958050722,
                    1.2256026941753007,
                    -0.30225548536391517,
                    0.2956521434027558,
                    -0.14849194016730768,
                    -0.10879904672706014,
                    0.5001054537323248,
                    -0.07691627531471823,
                    -0.5362142893571537,
                    -0.20627505048308825,
                    -0.1760638437311011,
                    0.0790912607853005,
                    0.3270491176497175,
                    -2.1353469760676655,
                    -1.751338924582962,
                    -1.663230434175944,
                    -0.9610386977294126,
                    1.1693940771415912,
                    -0.028365046636679627,
                    1.1356680432335748,
                    -1.2260771054382649,
                    0.35616006200729866,
                    -1.8962168737304874,
                    -1.4430871257364255,
                    -0.746050108644655,
                    -0.635739846083995,
                    -1.0152951038746065,
                    -0.16065066912978052,
                    -0.8193880704922454,
                    -0.5191145505686243,
                    -0.24963263385042755,
                    -0.1710058118329883,
                    0.3147940439211235,
                    0.2728314262353023,
                    0.4755142850276212,
                    -0.18322537585908186,
                    0.2306669139563454,
                    -0.4032954100061987,
                    0.2958160496436124,
                    1.67020981278301,
                    -0.05958627196246506,
                    -0.1732651302664669,
                    0.688318247164372,
                    -0.24959312827333574,
                    -0.25369553023116076,
                    -0.4961603872846133,
                    1.6421902963622037,
                    0.13713518273862957,
                    -0.11454641586279687,
                    0.548352807612863,
                    0.1315065447705881,
                    0.024987970412623087,
                    -0.03876016125723381,
                    1.7642552236602855,
                    2.410522721505111,
                    0.614717901086615,
                    0.09034980863547179,
                    0.9274159622996531,
                    0.6116727778890975,
                    -0.5015440793634454,
                    -0.22783096222080051,
                    -0.391829328640051,
                    -0.34439261734140497,
                    -0.24558967637430582,
                    0.5637914131144132,
                    -0.3609089045961893,
                    0.5386928582056697,
                    0.07577818805021612,
                    -0.24415521878485003,
                    0.5447733240903456,
                    17.381000298267736,
                    24.40473368733118
                ],
                [
                    0.750778168760955,
                    0.5040080706014948,
                    -0.11327660420657801,
                    0.5680164003487403,
                    0.2777564556597919,
                    1.7579573489746225,
                    0.5314055128565386,
                    0.6309090684200149,
                    0.8213190874130855,
                    0.3528390836324251,
                    1.0867759191333646,
                    0.0636366180743546,
                    -0.7280687911279901,
                    -1.5223587937210081,
                    -0.6633018373495214,
                    -2.0343480354462122,
                    0.2881699352183918,
                    -0.17317002812188037,
                    0.40911028193540505,
                    -0.5612182116378122,
                    0.9357341640214296,
                    0.0419401175535085,
                    -2.269784607925941,
                    0.061845776021965025,
                    -0.25302655983025335,
                    -0.5152112765000724,
                    -0.8240834189671329,
                    0.08822076998400562,
                    1.080797267946777,
                    -0.6807382391929478,
                    -0.9402821566073195,
                    -1.3662548152842786,
                    1.1849405702441103,
                    1.2040586199153036,
                    -0.0703315673675688,
                    0.21398101743796671,
                    -0.019636490171294096,
                    0.14431771250616499,
                    1.3263367280038456,
                    0.6628994981489592,
                    0.17040464018118456,
                    0.06462449532764526,
                    0.28271339802179274,
                    -0.33024681599837435,
                    0.1396350601140851,
                    0.5760268947047653,
                    0.1370874752744751,
                    0.5372981878195462,
                    0.09073147359784295,
                    0.1317089895988928,
                    -0.689363527585064,
                    -0.6977372670014843,
                    1.1094140697101262,
                    1.740175584435554,
                    1.4883102431818163,
                    2.1070871227465715,
                    0.021886754924326783,
                    -0.3386135543670225,
                    0.2685401629958928,
                    -1.2145428026252403,
                    -0.6547960205953145,
                    0.48379447467000775,
                    0.29728087541541837,
                    -0.6859729340441946,
                    0.8772844950809033,
                    0.6141306422200064,
                    0.4106163047780261,
                    -0.01862663920187471,
                    -0.514008165498311,
                    0.06615000440098048,
                    16.123450982601774,
                    21.703070786048787
                ],
                [
                    0.4537293535335772,
                    0.3522093229405818,
                    0.20690852704205578,
                    -1.29605715523495,
                    0.6664282074915775,
                    0.8628396500929609,
                    -0.32059338660967573,
                    -0.9538689049956294,
                    0.31448688257847107,
                    -0.08037154020369698,
                    -0.4675379869241366,
                    0.8105072776090151,
                    -0.945204210688077,
                    -0.39006117269654544,
                    -1.4967656216974368,
                    0.2837661586171812,
                    0.44046812938401986,
                    0.17910180936174142,
                    0.06781676994649548,
                    0.29584457524260394,
                    0.3088625857228965,
                    0.22998751324253972,
                    -0.555017229727747,
                    -1.1143156495048676,
                    0.4413208900440895,
                    -0.8712372886381211,
                    0.4963366835345867,
                    0.416872230561444,
                    1.0378988113194152,
                    -0.6088269891266098,
                    -0.16139191305465125,
                    0.127291449780851,
                    0.34726792599369427,
                    -0.24894175053609202,
                    0.3397390004892059,
                    -0.13183270722604257,
                    0.6933579483838821,
                    -0.3289891379839734,
                    0.7696536529556193,
                    0.3906678449616308,
                    0.5469763261872833,
                    0.16817068055341544,
                    -0.1936971985588965,
                    -0.10584275046686026,
                    0.10017453859198408,
                    0.32427620649941286,
                    0.4008675505779169,
                    2.3029241796576305,
                    -0.3467327522425112,
                    -0.6237260842671035,
                    -0.47661403237157185,
                    -0.41956424797742875,
                    0.008506492066756636,
                    1.5364306230294604,
                    1.6705342086074455,
                    0.7654756542611292,
                    -1.7507410417026914,
                    0.056612733882470484,
                    -0.8181096522338803,
                    -0.30544240387756444,
                    -0.6652056158712143,
                    0.2723755191929604,
                    -0.22610021991921264,
                    0.5816442567187854,
                    0.31601094569036986,
                    -0.14759618963083923,
                    0.049528992353955845,
                    0.5640350988445774,
                    -0.228788903009512,
                    0.562927906609663,
                    10.6912211808381,
                    14.65093011647986
                ],
                [
                    0.6332391030185328,
                    0.9548410806242505,
                    0.24986807751975937,
                    0.010081653447174214,
                    0.5198632518437084,
                    -1.153098181532453,
                    0.8263137241793777,
                    -0.9469513879438436,
                    0.5821237166320176,
                    -0.09986364011126249,
                    0.5387355918009955,
                    0.013184818888226826,
                    -0.0476998183482911,
                    -1.7366903358174781,
                    -2.490132628800391,
                    -0.7885847909266317,
                    -0.2135637980054537,
                    -0.08419198601398374,
                    -0.4587065702294064,
                    1.1835080706567915,
                    -0.6758642713346744,
                    -0.27742472442200916,
                    -2.20403964331201,
                    -0.1799855037572313,
                    -0.4666645423097866,
                    -1.7073940671696408,
                    1.5936746414612983,
                    -1.030151987644241,
                    0.9431206492613914,
                    0.1380071403683779,
                    0.18928470717425247,
                    -0.7822708074552613,
                    0.38504796201735936,
                    0.8533662297650839,
                    -0.06701731006883953,
                    -0.00638731223949239,
                    0.6196572736321705,
                    0.322581503758315,
                    0.5052212713760754,
                    1.348525789459662,
                    0.19166763845813586,
                    0.21861658596943137,
                    -0.7014072648571995,
                    -0.8133572191701339,
                    0.7516370295505485,
                    1.118991967972296,
                    -0.35104982155629105,
                    0.43491623207278707,
                    0.8509687620698351,
                    1.6966562627753117,
                    1.3858219717701257,
                    0.6778788744977479,
                    0.9653377671597722,
                    0.6617512044409775,
                    1.4440738294748792,
                    0.16494934845745898,
                    -0.6180556128994045,
                    -0.08570818695911889,
                    1.3012071584035032,
                    0.40335415732420965,
                    0.21769408145332028,
                    -0.12118416203697767,
                    -0.6053727107437841,
                    0.5194975247934931,
                    0.010906303416768426,
                    0.1469660989508539,
                    -0.5467659062288192,
                    0.07454826274977637,
                    -0.9449744387904536,
                    0.3098045241205813,
                    18.169564045095317,
                    24.913950814880213
                ],
                [
                    1.4566274135150055,
                    0.3223516310957671,
                    0.2401568553211022,
                    0.29709446624654257,
                    -0.48033077150665704,
                    1.2018763709457487,
                    0.41129763369113775,
                    -0.2622828032576445,
                    -0.5794432171070375,
                    0.6356016722431822,
                    0.7615041010048755,
                    0.17558579764534,
                    -0.12306335942827595,
                    -1.334966285892487,
                    -1.070944972794371,
                    -0.18533436019994476,
                    1.077497135665508,
                    -0.6461920267233398,
                    0.09729017759128036,
                    -0.8793882829448658,
                    -1.1681653371905436,
                    -0.13092123517619533,
                    -1.985370929215805,
                    -3.267953108454442,
                    0.30907454906894594,
                    0.8132365709229554,
                    1.156313688212204,
                    -0.5759249090438096,
                    1.0272754558224815,
                    -2.122839405785008,
                    -0.950438797252535,
                    -0.2692980528833927,
                    0.5673112669303222,
                    0.9161133346583874,
                    0.7627477401262832,
                    -0.22557737784273196,
                    1.005934116321219,
                    0.7267503470730021,
                    1.9772951249892623,
                    -0.1317222649315544,
                    0.1523983864281146,
                    0.021543485870103695,
                    0.3183092619527395,
                    -0.30327554071571267,
                    0.0038839478760491755,
                    -0.4074792429086631,
                    1.3317201330760529,
                    1.578362611894555,
                    0.8787755712388853,
                    -1.8125766020260132,
                    -1.0160052334593093,
                    1.3529803472532487,
                    -0.03471795901793787,
                    0.9111159891903544,
                    1.703522090366663,
                    1.1017288655944852,
                    -0.6623560225282163,
                    -0.4201868489259131,
                    1.1313349060512639,
                    -0.9303659190488093,
                    0.867412196109012,
                    -0.21119695453701942,
                    0.0648809262948833,
                    1.3118928101219949,
                    -0.3327490202006478,
                    0.5133988223237783,
                    -0.22320740897909366,
                    -0.8804432782319305,
                    -0.10206999788179551,
                    0.7186628490376136,
                    16.880984295688847,
                    24.619331942615833
                ],
                [
                    0.2507352689483057,
                    0.16049494225413366,
                    -0.33996169944576604,
                    0.04362987839959234,
                    -1.184829736070966,
                    -0.4563411203259886,
                    -1.3706378077374517,
                    0.06183407550222949,
                    0.21620406015329227,
                    -0.24873277131246002,
                    0.7384728101109833,
                    0.3146664561347999,
                    -0.04127495473211717,
                    -1.4571986506031112,
                    -0.7581878993594943,
                    -0.3762951871507923,
                    -0.2651662452336867,
                    -0.20561002582878443,
                    0.7600067839634288,
                    -1.587393464752294,
                    -2.0054949791782506,
                    -1.7499017367446261,
                    -1.2836327399156753,
                    -1.0511322601245576,
                    0.20017617255357198,
                    0.04320070018440662,
                    0.8565928438493638,
                    0.712116822121413,
                    0.8164323602813587,
                    -1.1352076852294135,
                    -0.021900560179631046,
                    -1.204794355178031,
                    -0.07325084181674027,
                    -0.6081638537795149,
                    0.14837837979597557,
                    0.19959312760976283,
                    0.04138449742570605,
                    -0.5598985588815664,
                    -0.2239967506003299,
                    -0.07728719492811845,
                    -0.5486105596138768,
                    0.7814377370772534,
                    -0.39415689256063924,
                    -0.2702520304526264,
                    0.0788925956535538,
                    1.1907921800508983,
                    2.198954519715773,
                    1.136825742331608,
                    0.09771668380359935,
                    1.0246302487001335,
                    0.2950530806346483,
                    -0.16207035799723302,
                    0.745776707791512,
                    1.1457835127033553,
                    -0.00888164834675541,
                    1.395909434531565,
                    -0.09075082360614581,
                    -1.4704863204914418,
                    -1.4208907582592174,
                    0.0327818103013374,
                    0.4766770479184687,
                    0.37133498016121413,
                    -0.6171636778877122,
                    -0.0778296417421343,
                    0.9465899190285887,
                    -0.9441895418099437,
                    0.052432481885380376,
                    0.13115609665029968,
                    0.5679306337191082,
                    -1.508667273331299,
                    17.342136140094834,
                    26.338121852341683
                ],
                [
                    -0.2564578970031947,
                    -0.06755189521646661,
                    0.5221687834555542,
                    -0.5190401717338899,
                    0.8213589283092304,
                    0.1716349849904745,
                    -1.2239553825994618,
                    -0.04510684480496735,
                    -0.9499288365080659,
                    0.8737899871092508,
                    -0.8399280193474208,
                    -1.0815266122991578,
                    -0.9589084291854167,
                    -1.7649291909754283,
                    -0.2043322432951478,
                    -1.067784639329423,
                    0.3616096093067251,
                    1.0141695697315738,
                    -0.45390632359300076,
                    -0.47452544145840403,
                    -0.8491719124066734,
                    0.01554494354851136,
                    -0.28823808665252726,
                    -1.007044811001932,
                    -0.5099331915388473,
                    -0.3569146271249043,
                    -0.864915882538523,
                    0.1707496947670549,
                    -0.6651932840081725,
                    -0.5412581656881617,
                    -1.043352248815844,
                    -1.8793700643678155,
                    -1.3896971218363727,
                    -0.5083709074639877,
                    0.2700616030596453,
                    -0.38113713225005225,
                    -0.15960842987007007,
                    -0.478146639049702,
                    0.203936489837319,
                    -0.2928564548672434,
                    0.08277711319488591,
                    1.5993080514282891,
                    -0.28913762218638867,
                    -1.049364318940333,
                    0.998904157857653,
                    -0.20870225047288962,
                    1.486132803070779,
                    0.5623126447112904,
                    0.2834963891044445,
                    2.334164709261924,
                    -0.46038707993763683,
                    -0.2672038087984326,
                    0.33873607132949457,
                    0.9947877704956668,
                    0.6602833867163255,
                    0.5234797442177765,
                    0.1038752585429367,
                    0.3782949051799073,
                    -0.6561460402473215,
                    -0.7643945377220352,
                    1.2017460834960674,
                    -0.9150408093657608,
                    0.6939124247004111,
                    0.4039384065702864,
                    -0.7429695489243715,
                    0.46694115331387837,
                    -0.6782639351202636,
                    -0.6698624599378575,
                    -0.8543037056840423,
                    0.5129222493035177,
                    16.727415109743625,
                    25.2852513203711
                ],
                [
                    -0.3747957906149623,
                    0.4919407042820731,
                    0.80719148022908,
                    -0.08069840916461818,
                    -0.6485545322393095,
                    -0.3764699539679554,
                    0.595249202502801,
                    0.3586807919571923,
                    -0.24712392063565278,
                    -0.8446161171918676,
                    0.6750299702841508,
                    1.1156873973771446,
                    0.8148991448557623,
                    -0.8609200889469589,
                    -1.194773497330281,
                    -1.5722226688626937,
                    -0.22146959998200838,
                    -0.7425979658269746,
                    1.3683133483928063,
                    -0.09187600617995255,
                    1.2492581120138337,
                    -0.5592269753627842,
                    -2.4904802937209407,
                    0.031166160360121695,
                    -0.6367344999737325,
                    -0.3034502759636427,
                    0.9288339496446774,
                    0.6369124497359854,
                    -1.2674335320607277,
                    -0.3689044196898412,
                    -1.0164298291747633,
                    -0.28258333602929847,
                    1.4457156280813426,
                    -0.2922075122691056,
                    1.0720849446239964,
                    -0.7568951452138492,
                    1.4334864611406446,
                    -0.30008680414480243,
                    0.4430235653859927,
                    0.6106133925307885,
                    -0.9285448894330581,
                    1.3158071850499335,
                    -0.8780870859723741,
                    0.2506465965707082,
                    -0.6862475589083801,
                    0.5726206621304781,
                    1.0900813511600866,
                    0.5585356780132845,
                    0.5583830272386862,
                    -0.5875179086674652,
                    0.9726464113764541,
                    0.2084019863422844,
                    -1.6900322942234334,
                    2.330627299363392,
                    1.2437382811630264,
                    1.9751345126821092,
                    -0.3894300400779471,
                    -1.7263463557386556,
                    -0.32215971819319955,
                    -0.8330805710215892,
                    0.020192019070317525,
                    -0.3189368337148953,
                    0.3710567348875878,
                    -0.9691950072666267,
                    0.34765179306168564,
                    -0.28255362942212303,
                    0.3894850009061765,
                    -1.040437616859943,
                    -0.2613361501534775,
                    1.0195937234060242,
                    15.878103494245988,
                    24.57805368536035
                ],
                [
                    0.9659968132625646,
                    0.11216021195170374,
                    0.5438673551244944,
                    0.6281701426836167,
                    1.0699439880611434,
                    -0.3924994706406301,
                    -0.2911828645351908,
                    0.3997995396423491,
                    -0.47837492769302226,
                    0.2931477561285981,
                    -0.22809945047843538,
                    -1.3988987246032953,
                    -0.027610578201460876,
                    -0.06817172429039178,
                    -1.3138363219912919,
                    -1.013568142486555,
                    -0.11846636307735706,
                    -0.15666523318433764,
                    0.09550522074241352,
                    0.5938007944490556,
                    1.1522319260513545,
                    0.04334907062785949,
                    -2.0675203467441947,
                    -2.1275549304382544,
                    0.7363099643435493,
                    0.18649949406963215,
                    -0.5649002591713697,
                    -1.0157587405037252,
                    -0.4682994296702532,
                    0.47527353361439945,
                    -0.2723581617401868,
                    -1.5471652705272805,
                    0.826207977314206,
                    0.25905373447027685,
                    -0.06065373217658031,
                    0.22829381059016174,
                    -0.5479808156781275,
                    0.9126672161534634,
                    -0.15576645127135144,
                    -0.210640315410754,
                    -0.9184413472134112,
                    0.029982946299789724,
                    -0.6895174296188734,
                    -0.3961321786124657,
                    0.17137900462589745,
                    0.8417748331327326,
                    1.2228527552874804,
                    1.0078686475374918,
                    1.2615369107334233,
                    -0.03901399300699584,
                    -0.913236478031697,
                    0.6839206084224125,
                    1.2616702934136717,
                    1.1326449868513833,
                    1.4872263866231634,
                    0.5449036444269415,
                    -0.14973332861120836,
                    0.11344367201238308,
                    0.17864667458038005,
                    -0.4031716314083448,
                    1.0757252535878057,
                    0.09570620900090968,
                    0.8309100763399301,
                    0.39555924140889803,
                    1.1936742226670054,
                    0.573769646855547,
                    -0.13289346439029612,
                    0.5125506652876873,
                    1.3282609597863477,
                    1.2289921140129747,
                    17.713070636594395,
                    25.727255223156426
                ],
                [
                    -0.6866121754824097,
                    1.0433184530282162,
                    -0.03677947979887664,
                    -1.1562054860181619,
                    0.18094669789822831,
                    0.4733520688717535,
                    -0.6571587431710675,
                    1.1224247167692867,
                    0.874562726533733,
                    -0.5367497230132586,
                    0.8578767297688183,
                    0.13981975846272712,
                    -0.6025302917124022,
                    -1.3870216261734214,
                    -1.3683204399108977,
                    -1.8545842643158783,
                    -0.11526427250055107,
                    0.7675627148739614,
                    0.9053939486441297,
                    0.8687691501428931,
                    -0.6897153734859396,
                    -0.5945100469854124,
                    -1.9835688158222657,
                    -0.5082417499752988,
                    -1.1712861913580825,
                    -0.9231840570091236,
                    -0.5552114665566854,
                    -0.16393256185492106,
                    -0.1304725951151965,
                    -0.33385621032069634,
                    -0.23822991162534563,
                    -0.4930549100629242,
                    -0.391949127788334,
                    -0.16318485578708664,
                    0.4709103980462621,
                    0.019204299237853523,
                    0.7157407849452154,
                    -0.2466738034068421,
                    1.396143605561984,
                    1.3713750427333828,
                    -0.11754095078252964,
                    0.4718032396071973,
                    -0.08201117892751979,
                    0.18680488004572945,
                    0.43446173481162226,
                    1.492402314853959,
                    1.4428639407582968,
                    1.3725531601889134,
                    0.4570971777298627,
                    -0.54546258240471,
                    0.27270141961522193,
                    -0.06614254516243132,
                    -0.31488703486591035,
                    0.42691791742224594,
                    0.8964510666699284,
                    0.5699663508501545,
                    1.017798395075001,
                    0.7181984701134129,
                    -0.21373335734956986,
                    0.3790479407106727,
                    0.7761818461646851,
                    -0.11651535410120493,
                    1.4224313261856616,
                    0.7200654410848463,
                    0.25842946011404283,
                    -1.1062197475506677,
                    -0.5938749755648552,
                    0.19593406034092006,
                    -0.2694472681522725,
                    -0.012759227984501402,
                    16.226205044348248,
                    24.086437877077913
                ],
                [
                    -0.1544222462949467,
                    -0.8441838208271729,
                    -0.29227886123550173,
                    -0.3988785237765493,
                    -0.8863903125209501,
                    0.7448880211130591,
                    -0.26805258606452487,
                    -0.31542881006491946,
                    0.47063981916964037,
                    0.20927954654408157,
                    0.7168418330943892,
                    -0.8702067741114479,
                    -0.8943616475723524,
                    -0.8528650378864745,
                    -0.09472635885478485,
                    -1.049234999034767,
                    0.30056742764660604,
                    -0.22276861601282913,
                    -0.024220000209467362,
                    -0.559027835706879,
                    -0.4001804865492544,
                    -0.033125747696269296,
                    -2.7789206411780176,
                    -1.037432097025131,
                    -0.6269710547627649,
                    -0.4388550656942231,
                    0.5972276586900728,
                    -0.13504432673935027,
                    0.6795049624571101,
                    -1.5585068356580887,
                    -0.5377874084589633,
                    -0.9234294674565476,
                    -0.13052409625107794,
                    0.3436877618426594,
                    0.710280681012001,
                    -0.8939112212208303,
                    -0.6510660700681439,
                    -0.5991623417121154,
                    1.5997165545215768,
                    0.07322572405497385,
                    -0.11682496022689615,
                    0.05866407637283464,
                    -0.8224483487488319,
                    0.08140856209175754,
                    0.42474571915164017,
                    1.0735420290245632,
                    0.958904972852851,
                    0.6584715211557453,
                    -0.13164920470964286,
                    1.0798714508514675,
                    0.657764453912111,
                    0.07965372185790599,
                    0.5141112372566266,
                    0.6232576808235201,
                    2.2938115193032003,
                    0.5933630916798688,
                    -0.5039198079329908,
                    -0.5343749165067174,
                    0.9958457184812358,
                    0.03986045551009481,
                    0.7303056429906686,
                    -0.08324152488258955,
                    -0.5227958963051951,
                    0.628059663860418,
                    -0.29633325502078334,
                    -0.8106354389608784,
                    -0.2558057056014035,
                    0.3883465218876261,
                    1.0846928897551624,
                    -0.8530296409423517,
                    15.187613637295199,
                    25.13997296599335
                ],
                [
                    0.2948343735634487,
                    -0.2288624756249081,
                    0.19158868873731819,
                    0.4317003386003842,
                    1.2921314594750322,
                    -0.22223620985781944,
                    0.6281329223901159,
                    -0.3878403128172428,
                    -0.3392103965377366,
                    0.5336886936019242,
                    -0.504666201283411,
                    -0.7739451591053658,
                    0.40014650627058673,
                    -2.479962875740154,
                    -0.9481755297470282,
                    -1.2550972559346205,
                    -0.08590245224016148,
                    -0.5362941758672624,
                    -1.3580120238576774,
                    -0.49419533872662,
                    -1.0754928902257237,
                    -0.7727083230961276,
                    -1.3411301920248877,
                    -1.6768906356191124,
                    -0.8373899187707209,
                    0.14901293210231256,
                    -0.6425252470165674,
                    -0.930252300073332,
                    -0.1014292356430841,
                    -0.12341077541328858,
                    1.180805173695264,
                    0.4635594465224012,
                    -0.5707433997081531,
                    -0.795357525879431,
                    0.20331560625196768,
                    0.2139001139518638,
                    -0.09141409348216387,
                    1.7039248143341195,
                    1.5485111090004897,
                    1.5037338494106105,
                    -0.3057258790895595,
                    -0.29949010555736916,
                    -0.9028103323509,
                    -0.22161078456066557,
                    -0.6639359958933704,
                    0.0298793142600949,
                    0.7673331229368939,
                    1.4506862707072943,
                    -0.07160821936357177,
                    -0.8054169841503026,
                    -0.2943690325864926,
                    0.2121987168456795,
                    0.45721782842008474,
                    0.36974336284511583,
                    1.385262481940815,
                    1.8444527872664422,
                    0.05312315662322912,
                    -0.13750053140602456,
                    -0.3395422683122626,
                    -0.43468582889021123,
                    -1.2443101943093147,
                    0.3834913974201606,
                    0.03841437952797252,
                    0.23619407032668327,
                    0.7217216952441724,
                    -0.4834850749295194,
                    0.6252549629951345,
                    0.06954105477569693,
                    0.920361532862683,
                    0.1038638774500814,
                    16.94943846582009,
                    23.079829722252178
                ],
                [
                    1.0573861367996098,
                    -1.1901363233008724,
                    -0.41246173414015297,
                    -0.23102411688824223,
                    -0.8668156754403109,
                    -0.6763117218713625,
                    -1.605576486400281,
                    0.011678048233526483,
                    -0.9153659094395357,
                    0.49973364641287754,
                    0.06240788096685471,
                    -0.46943635891553986,
                    -1.2259995002337793,
                    -1.6714570433834106,
                    -0.8648427821412172,
                    -1.151350689770822,
                    0.5907703503168396,
                    -0.18722462664892175,
                    1.028278620787294,
                    -0.24137262114409277,
                    -0.8476972307652938,
                    0.34008491499733967,
                    -0.47730687157210405,
                    -1.2123474943814057,
                    -0.43311614612803345,
                    0.5846811243280818,
                    -0.7231658729470916,
                    0.29157223244899444,
                    -0.8814096754101528,
                    -0.41234340488193033,
                    -0.2626817313336218,
                    0.17617280514092598,
                    -0.9308775868587149,
                    0.20984696342093626,
                    0.06302695420898934,
                    -0.15677928898439264,
                    -0.5988294435124445,
                    -0.6326283470408951,
                    0.4930314508597714,
                    0.26724822251903313,
                    0.8897999823201792,
                    0.3458306557309947,
                    -0.19108839490852977,
                    0.3053496975873659,
                    -0.8707286693957176,
                    0.9408153187072885,
                    1.713620428002794,
                    1.4539591070197404,
                    0.04334017080157675,
                    -0.6768234665756224,
                    -0.611633559209358,
                    0.2624104907286107,
                    0.44222272011993025,
                    1.8503173260385588,
                    1.9532176231225369,
                    1.5555502223177526,
                    -0.257328213520632,
                    -0.1336496480336085,
                    -0.21905217757226314,
                    0.6081260544810632,
                    0.4203405931221578,
                    0.12293207498024135,
                    -0.5499739345136915,
                    0.7985947205761001,
                    -1.246886365623713,
                    0.7573069746892233,
                    0.6053560430453008,
                    -0.9757392979671226,
                    -0.029796160461613527,
                    -0.7632165337464316,
                    17.085743138311635,
                    24.87516997352019
                ],
                [
                    0.0470517947288173,
                    -0.7317186535184115,
                    0.08643931214168406,
                    0.13019374126393268,
                    0.0718702371253676,
                    -0.8348533471634736,
                    -0.4427228228939291,
                    0.06105956878288513,
                    -0.11152109875748059,
                    1.6308933189924733,
                    0.3725624351951293,
                    -0.04429290208030066,
                    0.054240115984793315,
                    -1.9456323196902003,
                    -0.7925015254468788,
                    0.01245356694113275,
                    -0.40243997466409565,
                    0.5201691917141906,
                    0.4883651548345505,
                    -1.1959203838733679,
                    0.7621752243851875,
                    -1.2277933914584758,
                    -1.6310271245482153,
                    -0.9062496165253578,
                    -0.25762921236271463,
                    0.4952823250834883,
                    -0.03121756880307789,
                    0.06441664537231927,
                    0.11048762063079447,
                    0.6457362718949525,
                    -1.6353329345254364,
                    -0.3793421183810215,
                    0.07536734112650756,
                    -0.5853380897057292,
                    -0.3984652118778398,
                    -0.5351468588265473,
                    0.37335623815654756,
                    -0.35389743535547535,
                    0.6887001153599139,
                    0.5762911307818868,
                    -0.783519808555694,
                    1.0128492543417886,
                    1.34630518437164,
                    -0.5979868512506836,
                    0.7745909849279345,
                    0.2716283083712998,
                    1.4630115117778466,
                    0.7148974331360307,
                    1.6741799496418874,
                    -0.08221068215327355,
                    0.5024079866340379,
                    0.4844931848430479,
                    -0.5958352175243168,
                    -0.4267450291214226,
                    1.3075467981054854,
                    1.5247553470952047,
                    -0.6022866613646572,
                    -0.7059366179964875,
                    0.5663238660692705,
                    0.47523762069516506,
                    0.655261666130116,
                    0.15808905020866795,
                    -0.26460020724898875,
                    -0.6191007927659747,
                    -1.6606681058995418,
                    -0.03546308594231581,
                    1.1799163046274768,
                    0.2938123997583286,
                    -0.04902477338507358,
                    -0.9349637690714169,
                    16.420397171482893,
                    23.994903840707707
                ],
                [
                    -0.13662184805627922,
                    0.5584526142686504,
                    -0.09751238027627063,
                    0.4274782385494263,
                    -0.07022206192013775,
                    -0.1166699763863686,
                    0.7741227416664791,
                    -0.462320174435938,
                    -0.1740225774319324,
                    -0.7947826015661675,
                    0.05947592741119073,
                    0.6575355414437186,
                    0.41892992478492475,
                    0.4512748023560425,
                    0.6474166814355081,
                    0.38438783946030347,
                    0.46618238392586425,
                    0.2482119505811563,
                    -0.5996746470350942,
                    0.3234463790835199,
                    0.5815365380799247,
                    -0.5483513315987893,
                    0.14508803619941385,
                    0.6657198811498433,
                    -0.2296155338546071,
                    -0.8122241357174969,
                    0.02905466414077356,
                    0.9712189556389711,
                    -0.5612842437666938,
                    -0.07359175367110894,
                    -0.4617382686099072,
                    -0.22069521564751768,
                    0.14433877224240937,
                    0.9079537418112191,
                    -0.4405969860542692,
                    -0.43568528208605,
                    -0.5364196611288927,
                    -0.6724688355640712,
                    -0.9349470673915533,
                    -0.5233610350957264,
                    -0.06505462395077814,
                    0.025124281352975175,
                    0.7121885364713741,
                    -0.505124837612869,
                    -0.47951057189860014,
                    -0.4566167387879503,
                    0.12034574885548271,
                    -0.0974297791135432,
                    0.4691437964564401,
                    -0.48516843573177865,
                    0.5614769444238373,
                    0.5794626552106573,
                    -0.16136669570587853,
                    -0.38273970873532,
                    0.11138382781145104,
                    -0.4866396408722608,
                    1.224819255217354,
                    0.08661834728925405,
                    0.48719727173322996,
                    -0.7790250631814837,
                    -1.0763761187123295,
                    0.42253532806850286,
                    0.3171702062404959,
                    -0.4589334935002341,
                    -0.33974237374189514,
                    -0.4180334705275532,
                    0.14006933483327558,
                    0.5679897528051372,
                    -0.9497891947893329,
                    0.2943353383784782,
                    -0.546335349151528,
                    -0.33526976268494296
                ],
                [
                    -0.09863651488585547,
                    -0.8370299967689342,
                    1.7484702543323127,
                    1.490890494880231,
                    0.46249995894072565,
                    0.4033220138105401,
                    -0.6416177192680491,
                    1.461608150711219,
                    0.011261562788015683,
                    -0.07586428942139084,
                    0.7402223739405972,
                    0.16034142293253187,
                    -0.47746049371581095,
                    -0.12644542595650005,
                    -0.2312197616003158,
                    0.04793434308560199,
                    0.3408837744695503,
                    0.3275433253065217,
                    0.7999866195695441,
                    -0.0025225881488249065,
                    0.58902619192439,
                    1.0492657949039568,
                    -0.7537659510943107,
                    0.43809259722870003,
                    -0.6592761241002704,
                    -0.9265589873922787,
                    0.9742595950805593,
                    0.690066220051294,
                    0.32177278162437783,
                    -0.2932202442807077,
                    0.9164075620327994,
                    -0.8405428040355669,
                    0.041433565728088,
                    0.2982900297760109,
                    0.7913332517804412,
                    -0.9384567782658647,
                    -1.8760533870479672,
                    0.07093035101406098,
                    0.18701944304881468,
                    0.10677965894602333,
                    -0.5393365591755165,
                    -0.027150320949141698,
                    -0.9388634416864461,
                    0.2585833049824176,
                    0.5487686253415798,
                    -0.45005753256207726,
                    -1.2320352520052769,
                    -0.0797905631127198,
                    -0.12203917048018424,
                    -0.04955765689534166,
                    0.8014458980948956,
                    0.08520932034263425,
                    1.2813310541710958,
                    0.23408332716030733,
                    -0.6684376916216209,
                    0.6889159890749895,
                    -0.0555442515867599,
                    -0.30049921412589725,
                    0.17177760336648917,
                    0.07056976618566485,
                    -0.9582329286970488,
                    -0.5222891685716817,
                    0.7082604532666288,
                    0.10816150888294578,
                    0.38475524142650896,
                    0.6271958799648208,
                    1.1021091195946735,
                    -0.392920308522842,
                    -0.43245144250417605,
                    -0.5683939671245293,
                    -0.37741008007913707,
                    -0.5693516661385136
                ],
                [
                    0.11687792173833057,
                    0.06309825023649529,
                    0.2941286292926528,
                    -0.7813761108356365,
                    -0.3180440820858213,
                    0.07549144460971012,
                    0.2389962065819144,
                    -1.5797878350783454,
                    -0.3922655483679036,
                    0.11896201461797108,
                    -1.0937603914560816,
                    0.3674403414875088,
                    0.5550368644729923,
                    -2.482100362396949,
                    -2.1035885009040287,
                    -0.43086745570633417,
                    0.8995112700673061,
                    -0.5049428783472494,
                    -0.6528538685047443,
                    0.35190151464310787,
                    -0.47394320882618457,
                    -0.8776881977122767,
                    -0.3311605323701999,
                    -0.9280286110065471,
                    -1.2871230096044803,
                    0.13202691684327325,
                    -1.0668748953071077,
                    0.1903163309499929,
                    0.7181254999927056,
                    -0.07456550737459423,
                    0.38382667748590465,
                    0.6903848536347403,
                    0.7316662981739526,
                    -0.17757714028779875,
                    -0.6002110046295557,
                    -0.017611481729924494,
                    -0.7117875516709222,
                    -0.7497715739309994,
                    0.44711379155387,
                    -0.7490475590420995,
                    -0.8758798336106903,
                    0.6172683099712477,
                    -0.5268243401416582,
                    -0.36625689841856235,
                    0.1579124398011437,
                    -0.8772160815649896,
                    1.2224653320888152,
                    0.825658278565846,
                    0.23462506176432268,
                    0.34747518871494076,
                    -1.3812785996803632,
                    1.3125663964495016,
                    -0.10874484602742948,
                    0.05867397297320199,
                    1.003848371506641,
                    0.13018901342855005,
                    -0.2307339690129242,
                    0.04633277728550643,
                    -0.885872877147515,
                    0.4829583857798983,
                    0.1401728442613732,
                    0.21988794686341584,
                    0.5273532044949791,
                    0.47513675613103495,
                    1.3914494826685306,
                    0.5290124840097091,
                    0.2993553653493238,
                    -0.4699205232349189,
                    0.17603805542237072,
                    -0.3429596147094731,
                    15.646452688197419,
                    23.87799056762684
                ],
                [
                    -0.4391031333037873,
                    0.8440688848720143,
                    -0.10122329006879471,
                    -0.010768051237409256,
                    0.5924113301079645,
                    -0.4371639318450086,
                    -0.38325941121579593,
                    0.6278074068153979,
                    -0.9015104051138513,
                    -0.2942406111742147,
                    0.14386452351690507,
                    0.575684277901106,
                    -0.06935119940005197,
                    -2.0011838491147773,
                    -1.6740466600846973,
                    0.04436332958518883,
                    0.36497783133943995,
                    -0.07768332434069113,
                    -0.3165272073314777,
                    2.3324353241906284,
                    0.5801774839964733,
                    -1.6306825035483081,
                    -1.7228685338330954,
                    -0.6852622987419179,
                    -0.2853647047640879,
                    0.7333297926131465,
                    1.0039903458340742,
                    -0.3174118297932295,
                    0.24012219618466035,
                    -0.48330349938780337,
                    0.33344546489048926,
                    0.35713816970687917,
                    0.8531898641115601,
                    -0.6469347929323765,
                    0.6313356552875342,
                    -0.5397843167833551,
                    1.1516344212178011,
                    0.5590343813602474,
                    1.5192732427836066,
                    0.4132954142210404,
                    -0.0727415848861355,
                    0.5525967536646071,
                    -0.20818783880461872,
                    0.8767691129380637,
                    -0.5641842012606325,
                    0.91600341834509,
                    0.7021734729557564,
                    1.4235080725007156,
