{
    "input_size": 72,
    "layers": [
        {
            "weights": [
                [
                    0.01624345363663242,
                    -0.006117564136500754,
                    -0.005281717522634557,
                    -0.010729686221561705,
                    0.008654076293246785,
                    -0.02301538696880283,
                    0.0174481176421648,
                    -0.007612069008951028,
                    0.0031903909605709856,
                    -0.0024937037547741008,
                    0.01462107937044974,
                    -0.02060140709497654,
                    -0.003224172040135075,
                    -0.0038405435466841564,
                    0.011337694423354375,
                    -0.010998912673140309,
                    -0.0017242820755043575,
                    -0.008778584179213718,
                    0.0004221374671559283,
                    0.005828152137158223,
                    -0.011006191772129213,
                    0.011447237098396141,
                    0.009015907205927955,
                    0.005024943389018682,
                    0.009008559492644118,
                    -0.006837278591743331,
                    -0.0012289022551864818,
                    -0.009357694342590688,
                    -0.002678880796260159,
                    0.00530355466738186,
                    -0.006916607517253091,
                    -0.003967535268559774,
                    -0.006871727001195994,
                    -0.008452056414987195,
                    -0.006712461308368191,
                    -0.0001266459891890136,
                    -0.011173103486352778,
                    0.0023441569781709214,
                    0.016598021771098707,
                    0.007420441605773356,
                    -0.0019183555236161492,
                    -0.008876289640848363,
                    -0.0074715829375083765,
                    0.016924546010277465,
                    0.0005080775477602897,
                    -0.006369956465693534,
                    0.0019091548466746602,
                    0.021002551364788423,
                    0.0012015895248162916,
                    0.006172031097074192,
                    0.003001703199558275,
                    -0.0035224984649351865,
                    -0.011425181980221402,
                    -0.003493427224128775,
                    -0.002088942333747781,
                    0.005866231911821977,
                    0.008389834138745049,
                    0.009311020813035573,
                    0.002855873252542588,
                    0.008851411642707281,
                    -0.007543979409966528,
                    0.012528681552332879,
                    0.005129298204180089,
                    -0.002980928351027157,
                    0.00488518146537497,
                    -0.0007557171302105572,
                    0.01131629387451427,
                    0.015198168164221988,
                    0.021855754065331613,
                    -0.013964963354881376,
                    -0.014441138054295895,
                    -0.005044658629464512
                ],
                [
                    0.0016003706944783048,
                    0.008761689211162249,
                    0.0031563494724160526,
                    -0.02022201215824003,
                    -0.003062040126283718,
                    0.008279746426072461,
                    0.002300947353643834,
                    0.007620111803120248,
                    -0.0022232814261035926,
                    -0.0020075806892999744,
                    0.001865613909882843,
                    0.004100516472082563,
                    0.0019829972012676976,
                    0.0011900864580745882,
                    -0.006706622862890306,
                    0.0037756378632091943,
                    0.0012182127099143692,
                    0.011294839079119197,
                    0.01198917879901507,
                    0.0018515641748394385,
                    -0.003752849500901142,
                    -0.006387304074542224,
                    0.004234943540641129,
                    0.0007734006834855941,
                    -0.003438536755710756,
                    0.0004359685683424694,
                    -0.006200008439481292,
                    0.006980320340722189,
                    -0.004471285647859982,
                    0.012245077048054989,
                    0.004034916417908,
                    0.005935785232370669,
                    -0.01094911845741042,
                    0.001693824330586681,
                    0.007405564510962748,
                    -0.009537006018079346,
                    -0.002662185060036221,
                    0.0003261454669335856,
                    -0.013731173202467558,
                    0.003151593920422918,
                    0.008461606475850335,
                    -0.008595159408319864,
                    0.0035054597866410737,
                    -0.013122834112374318,
                    -0.0003869550926605112,
                    -0.01615772354703295,
                    0.01121417708235664,
                    0.004089005379368278,
                    -0.00024616955875778355,
                    -0.007751616191691596,
                    0.012737559301587766,
                    0.019671017492547346,
                    -0.018579818644467522,
                    0.012361640304528203,
                    0.016276507531489064,
                    0.003380116965744758,
                    -0.011992680323351861,
                    0.008633453175440215,
                    -0.0018092030207815047,
                    -0.006039206277932573,
                    -0.012300581356669617,
                    0.005505374959762154,
                    0.007928068659193478,
                    -0.006235307296797916,
                    0.005205763370733708,
                    -0.011443413896231427,
                    0.008018610318713447,
                    0.0004656729842414554,
                    -0.0018656977190734877,
                    -0.001017458725291452,
                    0.00868886157005868,
                    0.007504116398650082
                ],
                [
                    0.0052946532435270924,
                    0.001377012099973861,
                    0.0007782112791270591,
                    0.006183802619985245,
                    0.002324945591787379,
                    0.0068255140686448515,
                    -0.0031011677351806,
                    -0.024348377641071388,
                    0.01038824601859414,
                    0.02186979646974258,
                    0.004413644435685821,
                    -0.0010015523328349978,
                    -0.0013644474389603303,
                    -0.0011905418777480989,
                    0.00017409408300004598,
                    -0.011220187287468883,
                    -0.005170944579202279,
                    -0.009970268276502629,
                    0.002487991613877705,
                    -0.0029664115237086276,
                    0.004952113239779604,
                    -0.0017470315974250094,
                    0.00986335187821242,
                    0.002135339013354418,
                    0.021906997289697333,
                    -0.018963609228910924,
                    -0.00646916688254908,
                    0.00901486891648711,
                    0.02528325706806398,
                    -0.0024863477771546005,
                    0.00043668993178389107,
                    -0.002263142425136052,
                    0.013314571125875918,
                    -0.002873078634760189,
                    0.0068006983987810455,
                    -0.003198015988986712,
                    -0.012725587552459942,
                    0.0031354772046343214,
                    0.0050318481343532605,
                    0.012932258825322618,
                    -0.0011044702641731631,
                    -0.006173620637123609,
                    0.005627610966190263,
                    0.0024073709223773223,
                    0.0028066507712263904,
                    -0.0007311270374727777,
                    0.011603385699937697,
                    0.0036949271637572376,
                    0.01904658708340981,
                    0.011110566985605046,
                    0.006590497961002102,
                    -0.016274383406162572,
                    0.00602319280295629,
                    0.004202822036470596,
                    0.008109516728035558,
                    0.010444420947072588,
                    -0.004008781917889267,
                    0.008240056184504076,
                    -0.005623054310190898,
                    0.019548780750090346,
                    -0.013319516665172481,
                    -0.017606885603987835,
                    -0.016507212658241004,
                    -0.008905555841630485,
                    -0.01119115398559728,
                    0.01956078903703642,
                    -0.0032649949807818423,
                    -0.01342675789377436,
                    0.01114382976779792,
                    -0.005865239388215925,
                    -0.012368533765413975,
                    0.008758389276492995
                ],
                [
                    0.006233621765780327,
                    -0.004349566829552278,
                    0.014075400002412286,
                    0.0012910157971072545,
                    0.016169495988573,
                    0.005027408819999043,
                    0.015588055406198594,
                    0.0010940269642542818,
                    -0.012197443969790327,
                    0.024493686490613974,
                    -0.005457741679825677,
                    -0.0019883786288889672,
                    -0.007003985049212547,
                    -0.0020339444896455843,
                    0.0024266944108179457,
                    0.0020183017887400404,
                    0.00661020287598693,
                    0.01792158208975567,
                    -0.0012046457178850746,
                    -0.012331207354464267,
                    -0.011823181265096336,
                    -0.006657545181991266,
                    -0.01674195807618932,
                    0.008250298244389859,
                    -0.004982135636310781,
                    -0.003109849783028509,
                    -1.8914828380037016e-05,
                    -0.013966204245954319,
                    -0.00861316360776042,
                    0.006747115256879724,
                    0.006185391307862932,
                    -0.0044317193070063775,
                    0.018105349141254563,
                    -0.013057269225577374,
                    -0.0034498721015497947,
                    -0.002308397431354695,
                    -0.0279308500014654,
                    0.0193752881361608,
                    0.0036633201454005825,
                    -0.010445893819077916,
                    0.020511734428574444,
                    0.005856620001723825,
                    0.004295261400219645,
                    -0.006069983982000461,
                    0.001062227240352178,
                    -0.015256803162293577,
                    0.007950260944248447,
                    -0.0037443831884322065,
                    0.0013404819655462314,
                    0.012020548621997059,
                    0.0028474811084905796,
                    0.002624674454632686,
                    0.0027649930482218366,
                    -0.0073327160389531285,
                    0.008360047194342688,
                    0.015433591108044837,
                    0.00758805660097931,
                    0.008849088144648834,
                    -0.008772815189181883,
                    -0.008677872228729257,
                    -0.0144087602429184,
                    0.01232253070828436,
                    -0.002541798676073683,
                    0.013998439424809859,
                    -0.007819116826868007,
                    -0.00437508982828581,
                    0.000954250871912577,
                    0.009214500686595115,
                    0.0006075019579950675,
                    0.0021112475500771675,
                    0.0001652756730561561,
                    0.001771877202759604
                ],
                [
                    -0.011164700178847445,
                    0.000809271009732786,
                    -0.0018657899351146629,
                    -0.000568244808858473,
                    0.004923365559366489,
                    -0.006806781410088858,
                    -0.000845080274046298,
                    -0.0029736188277350362,
                    0.004173020049748626,
                    0.007847706510155896,
                    -0.009554252623736893,
                    0.005859104311026157,
                    0.020657833202188343,
                    -0.01471156925832625,
                    -0.00830171895315114,
                    -0.00880577599844171,
                    -0.002790977215432903,
                    0.01622849085954001,
                    0.00013352676347176595,
                    -0.006946935952872263,
                    0.006218035043055724,
                    -0.005998045310708474,
                    0.011234121620219353,
                    0.0030526704024401077,
                    0.013887793963702684,
                    -0.006613442431530186,
                    0.030308571123720304,
                    0.008245846250334574,
                    0.006545801525867005,
                    -0.0005118844760766421,
                    -0.007255971191344275,
                    -0.008677686776235904,
                    -0.0013597732610058932,
                    -0.007972697854931297,
                    0.0028267571224842025,
                    -0.008260974318473202,
                    0.006210827008390084,
                    0.009561217041246965,
                    -0.007058405074022839,
                    0.011926860677546936,
                    -0.0023794193575218266,
                    0.011552878860882252,
                    0.004381663472912375,
                    0.011223283216570923,
                    -0.009970197955296824,
                    -0.0010679398677922512,
                    0.014514292605909354,
                    -0.0061803684768157886,
                    -0.020372012256807952,
                    -0.019425891814764555,
                    -0.02506440652676061,
                    -0.02114163921916826,
                    -0.004116391631884825,
                    0.012785280828417218,
                    -0.004422292795131728,
                    0.003235273536014321,
                    -0.0010999149016360681,
                    8.548945436024693e-05,
                    -0.0016819883974471597,
                    -0.001741803443079907,
                    0.004611640999770175,
                    -0.011759826714413153,
                    0.010101271773347244,
                    0.009200179332477632,
                    -0.0019505734087590118,
                    0.008053934242321816,
                    -0.007013444262571769,
                    -0.005372230238753384,
                    0.0015626385027008327,
                    -0.001902210250848615,
                    -0.004487380326716228,
                    -0.006724480387865963
                ],
                [
                    -0.005574947217860433,
                    0.009391687441964877,
                    -0.01943323405668353,
                    0.0035249436436933304,
                    -0.002364369518129867,
                    0.007278134999996489,
                    0.005150736136393656,
                    -0.027825344676529227,
                    0.005846466104774262,
                    0.0032427424344842106,
                    0.0002186283662655242,
                    -0.004686738162778914,
                    0.008532812219556223,
                    -0.004130293097110322,
                    0.01834717626649687,
                    0.005643828554943137,
                    0.021378280674394824,
                    -0.007855339969202355,
                    -0.01755925640232852,
                    0.007147895974858154,
                    0.008527040617252863,
                    0.0003536009705475734,
                    -0.015387932457446431,
                    -0.004478951847161186,
                    0.006179855339203347,
                    -0.0018417632565374533,
                    -0.0011598518547239623,
                    -0.0017545896866175258,
                    -0.009339146556265013,
                    -0.005330203260835993,
                    -0.01426555420520532,
                    0.017679599483110264,
                    -0.004753728751379821,
                    0.004776101818175573,
                    -0.010218859446413094,
                    0.007945282396010823,
                    -0.018731609776353016,
                    0.009206151180549562,
                    -0.0003536792487871091,
                    0.021106050536007098,
                    -0.013065340728440185,
                    0.00076380480159592,
                    0.003672318138838647,
                    0.012328991923762371,
                    -0.004228569613907754,
                    0.0008646440652428742,
                    -0.021424667290773684,
                    -0.00830168864022708,
                    0.0045161595055524155,
                    0.011041743263032136,
                    -0.0028173626906561285,
                    0.020563555231982937,
                    0.017602492264490933,
                    -0.000606524917748099,
                    -0.024135030011737876,
                    -0.017775663758059876,
                    -0.007778588266274128,
                    0.011158411079241686,
                    0.0031027228778376732,
                    -0.020942478162228124,
                    -0.0022876582887016244,
                    0.016133613745631156,
                    -0.003748046873026527,
                    -0.007499696172756662,
                    0.02054624102518116,
                    0.0005340953679834792,
                    -0.0047915709878607994,
                    0.0035016715882827893,
                    0.00017164726374088564,
                    -0.004291422782350938,
                    0.01208456328551963,
                    0.011157018027844863
                ],
                [
                    0.008408615581411037,
                    -0.001028872175735376,
                    0.01146900376399483,
                    -0.0004970257915867584,
                    0.004666432672288408,
                    0.01033686867939501,
                    0.008088443602656821,
                    0.01789754683206271,
                    0.004512840160401709,
                    -0.016840599858682373,
                    -0.011601701049822761,
                    0.013501068186817261,
                    -0.003312831699326283,
                    0.003865391451330911,
                    -0.008514556565308268,
                    0.01000881423680301,
                    -0.0038483224883279045,
                    0.0145810823860952,
                    -0.0053223402089817755,
                    0.011181333967176956,
                    0.0067439610482086885,
                    -0.007223919054141509,
                    0.010989963327471793,
                    -0.00901634490475998,
                    -0.008224671889042518,
                    0.007217112921126926,
                    -0.00625342001465988,
                    -0.005938430672545097,
                    -0.003439007092103924,
                    -0.010001691898725159,
                    0.010449944096738975,
                    0.006085146984848497,
                    -0.0006932869669048288,
                    -0.0010839206717353981,
                    0.00450155512767179,
                    0.017653351005190717,
                    0.008709698025322423,
                    -0.005084571342754008,
                    0.007774192052488628,
                    -0.001187711721030893,
                    -0.0019899818380372442,
                    0.01866471375152125,
                    -0.004189378976781231,
                    -0.004791849151274058,
                    -0.019521052872452326,
                    -0.014023291454531368,
                    0.004511229387345986,
                    -0.006949209011852391,
                    0.005154138017832411,
                    -0.011148710523659369,
                    -0.007673098263317348,
                    0.0067457070695600375,
                    0.01460892380463078,
                    0.005924728014240198,
                    0.011978308417212511,
                    0.017045941713724068,
                    0.010400891531540953,
                    -0.00918440038300026,
                    -0.0010534471250754213,
                    0.0063019567068491105,
                    -0.004148469012882354,
                    0.0045194603732122305,
                    -0.015791562853944653,
                    -0.008286279788564058,
                    0.0052887974558517405,
                    -0.022370865111124707,
                    -0.011077125022845524,
                    -0.0001771831791014226,
                    -0.01719394474619523,
                    0.0005712099608209208,
                    -0.007995474906917599,
                    -0.0029159459550083273
                ],
                [
                    -0.0025898285340053236,
                    0.001892931975586576,
                    -0.005637887345823028,
                    0.0008968640732259017,
                    -0.006011568006493835,
                    0.005560735100773853,
                    0.01693809113288081,
                    0.0019686977925029146,
                    0.001698692553475717,
                    -0.011640079711612022,
                    0.006933662256603845,
                    -0.0075806732855623225,
                    -0.008088471964721285,
                    0.005574394528580335,
                    0.0018103874435787086,
                    0.011071754509490623,
                    0.014428769284963092,
                    -0.005396815622024924,
                    0.0012837699015594438,
                    0.017604151835753225,
                    0.009665392502290574,
                    0.007130490503032692,
                    0.013062060651354486,
                    -0.006046029691643759,
                    0.006365834094146309,
                    0.014092533893640083,
                    0.016209122856217475,
                    -0.008061848173822241,
                    -0.002516742076314244,
                    0.0038271517372436394,
                    -0.002889973430098159,
                    -0.003918162398080485,
                    0.00684001328181953,
                    -0.0035340998286701435,
                    -0.01787912891199716,
                    0.0036184731583956825,
                    -0.004244927905709274,
                    -0.007315309817303334,
                    -0.015657381506559053,
                    0.010138224669717056,
                    -0.022271126318500145,
                    -0.01699333604722296,
                    -0.0027584606256114337,
                    0.012289555856506974,
                    0.013097059056826534,
                    -0.011549826349293644,
                    -0.0017763219598355099,
                    -0.015104563750875688,
                    0.010112070637749085,
                    -0.014765626605201802,
                    -0.0014319574500723765,
                    0.010329837789497512,
                    -0.002224140285299086,
                    0.014701603438257403,
                    -0.00870008223190852,
                    0.0036919046954687375,
                    0.008532821858237331,
                    -0.0013971173044107247,
                    0.013863142642463189,
                    0.005481295846881931,
                    -0.016374495930083416,
                    0.03958602704037963,
                    0.006486436440906672,
                    0.0010734329382358966,
                    -0.013988128186664764,
                    0.0008176781880561645,
                    -0.004599428308406871,
                    0.006443536660303223,
                    0.0037167029121186537,
                    0.01853009485069379,
                    0.0014225137252631779,
                    0.005135054799885475
                ],
                [
                    0.003724568515114425,
                    -0.0014848980305939366,
                    -0.0018340019732002392,
                    0.011010002026684817,
                    0.007800271353386294,
                    -0.0062944160405378,
                    -0.011134361029729903,
                    -0.0006741002494685439,
                    0.011614399816743937,
                    -0.00027529386267978006,
                    0.017464350892279726,
                    -0.007750702870734348,
                    0.0014164053766580517,
                    -0.02516303860965749,
                    -0.005956678809102904,
                    -0.0030912131864186216,
                    0.005109377744920892,
                    0.017106618386711354,
                    0.0003494358936374005,
                    0.014539175816088174,
                    0.006616810764659825,
                    0.009863521802120643,
                    -0.0046615485682592805,
                    0.013849913436486387,
                    -0.01072964278711645,
                    0.004951586112003165,
                    -0.00952062100706259,
                    -0.005181455523987548,
                    -0.014614036047221063,
                    -0.005163479086460222,
                    0.0035111689651096535,
                    -0.0006877046307863847,
                    -0.013477649412536636,
                    0.01470739856691369,
                    0.003372209383084586,
                    0.010080654330757633,
                    0.007852269196346882,
                    -0.006648677669672133,
                    -0.019450469586120393,
                    -0.009154243682317062,
                    0.012251558492732309,
                    -0.010535460737003151,
                    0.00816043684324061,
                    -0.006124069731288238,
                    0.003931092448539835,
                    -0.01823919852625194,
                    0.011670751659999642,
                    -0.00039668700090482125,
                    0.008858257989659071,
                    0.0018986164938309567,
                    0.007980637952989431,
                    -0.0010193203926360005,
                    0.007433565435138623,
                    -0.015095726842240434,
                    -0.010807106924455065,
                    0.007254740044815356,
                    -0.00039178256209496684,
                    -0.0022875417122021255,
                    -0.0017961229465135791,
                    0.005017251093451655,
                    -0.00593343754242419,
                    0.005103075967452559,
                    -0.009157918490686793,
                    -0.004072520430199658,
                    0.00984951671719211,
                    0.010712524278458908,
                    -0.010971543602553622,
                    0.008386347472283773,
                    -0.01039182322034903,
                    0.007330232317190784,
                    -0.018988120593192947,
                    -0.011171106924391126
                ],
                [
                    -0.005089722778228615,
                    -0.0016648595488595935,
                    0.014236144293489872,
                    0.00903999174003527,
                    0.015754679085723807,
                    0.012066078980355681,
                    -0.0028286355163484453,
                    -0.002663268843187201,
                    0.010689716222012627,
                    0.0004037143102283927,
                    -0.001569936724933179,
                    -0.013352027230151916,
                    -0.0010646012155553987,
                    -0.027909964066938464,
                    -0.004561175551486853,
                    -0.009798902516618007,
                    0.006925743475393558,
                    -0.004786723564156615,
                    -0.003290515493410809,
                    0.013471054646704977,
                    -0.010490677451686161,
                    0.0031665889515665436,
                    -0.01895266947476466,
                    0.0008972911744465112,
                    0.0041026574539684444,
                    0.008598709717969121,
                    -0.008986831933186461,
                    0.003196569419445935,
                    0.0031815419967868934,
                    -0.0001923163409763723,
                    0.0015001627872780374,
                    0.004635343217316655,
                    0.003978804248818512,
                    -0.009960108890883997,
                    -0.01195861510324482,
                    0.02505980285318673,
                    0.01919792286428088,
                    -0.013916938760540336,
                    0.004502177420378455,
                    0.006274370827531105,
                    0.007513372351604846,
                    0.0014039543644735017,
                    -0.009268719392086244,
                    -0.0018242040636309755,
                    -0.004911251377908181,
                    0.0013437311603975441,
                    -0.0026837130412057666,
                    -0.0013167562628701832,
                    0.010185524747678821,
                    0.012305581999547247,
                    -0.01181103172771823,
                    -0.004599301044345813,
                    -0.007907999537751677,
                    0.012237222119601092,
                    -0.0005936790254849917,
                    0.014489894041582357,
                    -0.004775808546567209,
                    0.00025999994185658173,
                    -0.013486964467972422,
                    0.013025355364861801,
                    -0.0036261208757725877,
                    -0.014851564513254542,
                    -0.005924612851532694,
                    -0.02304907937770138,
                    -0.00031817172698791454,
                    0.0011248774241419584,
                    0.0028807816700515054,
                    0.01498108183577034,
                    -0.0030097615395533843,
                    0.008074559170052701,
                    0.003122386890129999,
                    -0.0019332164047400392
                ],
                [
                    -0.02076802021923554,
                    0.00947501167345676,
                    -0.005039739491423175,
                    0.00017955891650826426,
                    -0.012704607763854797,
                    0.0028299553381100164,
                    0.0010803081731234534,
                    0.00029417618970765643,
                    -0.0013479312929572363,
                    0.010492182907525679,
                    0.009662208625783415,
                    0.007259168525208212,
                    0.03321078756170365,
                    -0.006002253303773149,
                    -0.0037951751553387965,
                    -0.01014803690858671,
                    0.004359861962964099,
                    -0.006874873930601744,
                    -0.02698361741666047,
                    -0.012133381258287047,
                    0.0007225189915588459,
                    0.010097873349475586,
                    -0.015569415578650315,
                    -0.006124421282843443,
                    -0.0013935180545092125,
                    -0.007285374894247016,
                    0.0053116379345622515,
                    4.000841975375483e-05,
                    0.0032126591448383163,
                    -0.007252149257453662,
                    0.015365363280210986,
                    -3.7500875835609605e-06,
                    0.012935496206633083,
                    -0.004389976636662776,
                    0.005900394641608302,
                    -0.006793837829972344,
                    -0.009509092510507697,
                    -0.007043503315234588,
                    -0.00045866686069767474,
                    -0.0021873345896770914,
                    0.015392070096550628,
                    -0.011487042296369458,
                    -0.010903383324548148,
                    0.01700188146645526,
                    0.006087836589081089,
                    -0.018814108671660598,
                    0.004972690986459772,
                    0.002373326993395966,
                    -0.021444440467284505,
                    -0.003695624253374333,
                    -0.00017454951836177974,
                    0.007314025171250657,
                    0.009544956665476875,
                    0.0009574677111013468,
                    0.010334508032642374,
                    -0.0014627327461135381,
                    -0.00857496824739772,
                    -0.009341818431479491,
                    0.005426452945663161,
                    -0.019581690855990107,
                    0.006778075711198115,
                    -0.011065730673918852,
                    -0.003592240957107388,
                    0.005053819027529176,
                    0.012179409008013474,
                    -0.019406809643648933,
                    -0.00806178211953457,
                    0.0004906169237310281,
                    -0.00596086334587662,
                    0.008616231013412039,
                    -0.02086390565456526,
                    0.003618016405710469
                ],
                [
                    0.00425920176502816,
                    0.0004908039714163048,
                    0.011022367325853422,
                    -0.01229574253546429,
                    0.011086167579896751,
                    -0.007029204029101687,
                    0.007255505180787332,
                    -0.0032420421948521107,
                    0.008143431291489254,
                    0.007804699297583744,
                    -0.014640535735805918,
                    -0.0015449119381052859,
                    -0.0009243231854158614,
                    -0.002378752654568325,
                    -0.007556627651019651,
                    0.018514378945735096,
                    0.00209096676575521,
                    0.015550159943330888,
                    -0.0056914865351197046,
                    -0.010617967613108481,
                    0.0013224777891978463,
                    -0.005632366041174566,
                    0.023901459623335116,
                    0.0024542284918911963,
                    0.011525991350106037,
                    -0.0022423577212349853,
                    -0.003260613057601363,
                    -0.0003091141760413597,
                    0.0035571726157601685,
                    0.008495868450948218,
                    -0.0012215401511168331,
                    -0.006808515740173175,
                    -0.010678765764865553,
                    -0.0007667936270573186,
                    0.005729627259567562,
                    0.004579470763097417,
                    -0.00017817549053938988,
                    -0.00600138799235613,
                    0.0014676526338688947,
                    0.005718048788649898,
                    -0.00036817656517027414,
                    0.0011236848879221898,
                    -0.0015050432565045162,
                    0.009154992680625727,
                    -0.004382002673386686,
                    0.001855356209665554,
                    0.0039442803001211255,
                    0.007255225582535588,
                    0.014958847658844756,
                    0.00675453809204212,
                    0.005992132354592584,
                    -0.014702370890213132,
                    0.006064039443038369,
                    0.022937176123571778,
                    -0.008300109855676734,
                    -0.010195198494057162,
                    -0.002146538422260227,
                    0.010212481260989012,
                    0.005247504922968238,
                    -0.004771242064693321,
                    -0.00035990181727191316,
                    0.010370389817739079,
                    0.00672619748121479,
                    0.024288769695229792,
                    0.010056866803112163,
                    0.003535672160026291,
                    0.0061472627582744846,
                    -0.0034898419091555256,
                    -0.00977773001532967,
                    0.0017195713216759082,
                    0.004905610438096389,
                    -0.01395283025065327
                ],
                [
                    -0.005223564651356953,
                    -0.0036925590182896816,
                    0.002656424025142851,
                    -0.0026046605886537984,
                    0.00445096710344572,
                    0.0009811224622199124,
                    0.010603275091568075,
                    -0.017111676596244928,
                    0.016571246380429255,
                    0.014176740129993605,
                    0.0005031708614713537,
                    0.006503232142523461,
                    0.006065484004132949,
                    -0.007372896277599319,
                    0.0016466506584920661,
                    0.007781741790995665,
                    0.0030981675860748837,
                    0.010513207678487513,
                    0.0009499611006916124,
                    0.0008075098862302005,
                    -0.007678037460245602,
                    -0.003645380497066375,
                    -0.004597176810380681,
                    0.017054835177554423,
                    0.0024050555214736214,
                    -0.009994265013581794,
                    0.003985983881614373,
                    -0.0019200369663104442,
                    -0.030537643804263048,
                    0.004798523711538174,
                    -0.015526987831768356,
                    0.00578464420256242,
                    -0.0096126359903051,
                    -0.01458324460393154,
                    0.004943416509823787,
                    -0.014941937652746845,
                    -0.0044669920347712,
                    0.00204377394921163,
                    0.00612232523128053,
                    0.007448845364406519,
                    -0.00036281288553702225,
                    -0.008323953476886891,
                    0.01923815425970925,
                    -0.006059813205385978,
                    0.018035889814864974,
                    -0.004525249732840256,
                    0.011612856933418075,
                    0.010699655389501331,
                    -0.010455342473768945,
                    0.0035528450700622956,
                    0.007553920291908553,
                    0.0070098212152324415,
                    -0.00198937450283896,
                    0.003019600454061449,
                    -0.003946896809955577,
                    -0.011718133792211222,
                    0.009840122369402406,
                    -0.0055968142191855684,
                    0.013797581916062172,
                    0.006024509012396099,
                    -0.00892646673512884,
                    -0.0016119831954123738,
                    -0.0028638491539517376,
                    -0.008708876496519611,
                    0.005014295898933301,
                    -0.004786140738611845,
                    0.016316915136307973,
                    0.008608912410184296,
                    -0.008801890645415797,
                    -0.0001900052154731654,
                    -0.00226760192169584,
                    -0.015645078538111964
                ],
                [
                    0.00931255678768119,
                    0.009498088152113294,
                    0.009255012147023857,
                    -0.004569878575935375,
                    0.010689859716189179,
                    -0.0020975293542255416,
                    0.00935147779591075,
                    0.018125278151175407,
                    0.0014010988130475283,
                    -0.014191487771444869,
                    -0.0031690119652834628,
                    0.006409858663835063,
                    0.012198743790306214,
                    -0.01133792035393578,
                    -0.0019054829766145195,
                    0.0023333912626012183,
                    0.004349983242628411,
                    0.009104236030030839,
                    -0.009484396564537968,
                    -0.004234782972255359,
                    0.010079664776005784,
                    0.003923349111243075,
                    0.004483806507816874,
                    0.011253234986642538,
                    0.0010405338970908944,
                    0.005280034220718364,
                    -0.003145638619172873,
                    -0.013450100202683753,
                    -0.012952578852810872,
                    0.0007432055368263172,
                    -0.001995607179962165,
                    -0.00654603168524978,
                    0.0031801429641916887,
                    -0.00890271552108249,
                    0.0011133726638297003,
                    -0.00019522558320273308,
                    -0.00839988914612247,
                    -0.022982058805378517,
                    0.01456527386472777,
                    0.0031663723570395756,
                    -0.02664125939262139,
                    -0.004264286176335223,
                    0.003937877312493187,
                    -0.002281406907004562,
                    0.005803301126032293,
                    -0.009732675852492401,
                    0.001751677292180687,
                    -0.0005348369273515635,
                    -0.001830619869619735,
                    -0.002210289017883356,
                    0.0019975955519262755,
                    0.00932721413688092,
                    -0.005301198002000516,
                    -0.0040724002401193084,
                    0.0016056499174251157,
                    -0.0012014997562874899,
                    0.0038560229234432526,
                    0.0071829073575434286,
                    0.012911889028508759,
                    -0.0011644414827166405,
                    -0.022772979966603657,
                    -0.0006962453945512911,
                    0.0035387042688284037,
                    -0.0018695501653274958,
                    -0.001532361617670917,
                    -0.024325085126471132,
                    0.005079843366153793,
                    -0.003240323290200066,
                    -0.015110766079102028,
                    -0.008714220655949576,
                    -0.008648299414655872,
                    0.006087490823417022
                ],
                [
                    0.005616380965234054,
                    0.01514750382482251,
                    0.006479248123129182,
                    -0.013516493853176744,
                    -0.014092092764721913,
                    0.01130725354529131,
                    0.015666862010961444,
                    -0.0023774809814536353,
                    0.005588029881851114,
                    -0.015048912837795124,
                    -0.019439217583317875,
                    -0.011740236765428439,
                    -0.003571875256030163,
                    -0.00521376385408038,
                    -0.002301140634512672,
                    -0.0049101443269911026,
                    0.006793011449496629,
                    0.014275469513273447,
                    0.00036197462760435324,
                    0.020299974874404613,
                    -0.006344047103008461,
                    -0.005251033939389392,
                    0.003877346627429501,
                    -0.0035479876201067405,
                    0.011770522557766417,
                    -0.006411078151978892,
                    0.0132269398510864,
                    0.0019417501629377704,
                    0.025654527807167798,
                    -0.004641149056482057,
                    -0.0020269390770746233,
                    0.0014565181728648767,
                    -0.021810279670819496,
                    0.006022651275385377,
                    0.004808461132651687,
                    0.0010931836390543528,
                    -0.015443957813866982,
                    -0.015465610399686571,
                    0.005866185186008445,
                    0.011751786875573551,
                    0.015944646318222212,
                    -0.008954415239499193,
                    -0.010307980277587836,
                    -0.0027193879968455043,
                    -0.01975730141873837,
                    -0.005889311760437443,
                    0.00851789637515316,
                    0.01634602501369415,
                    0.0027915545363466385,
                    0.01640553648555269,
                    0.00410872937999071,
                    0.0019136391513892002,
                    -0.0017144118747753334,
                    0.001869370457719954,
                    -0.002548529472438891,
                    -0.0014091075239015822,
                    -0.006618918349396726,
                    0.002590319017920037,
                    0.00014448415017786456,
                    -0.014795800346161122,
                    -0.0024070050175198634,
                    -0.008556713923944985,
                    -0.020482004587407752,
                    0.004838836493413234,
                    0.015586882545223812,
                    0.023697301890649038,
                    0.015624195294929633,
                    -0.008708015526080607,
                    0.011752449927080539,
                    0.011198990035561388,
                    -0.019878295313946217,
                    0.008612885153914503
                ],
                [
                    0.006271770353915255,
                    0.0016280825030679181,
                    0.002886167156768053,
                    0.0005830738274408398,
                    0.016319358486550282,
                    -0.004017888338318871,
                    -0.0019993939322127943,
                    7.388983706183854e-05,
                    0.002756640751500719,
                    -0.017632498009912314,
                    0.013879738095489653,
                    0.002261997568431567,
                    0.005691245958247787,
                    0.0019731599174779044,
                    -0.0018644127128388415,
                    -0.0035524151349696164,
                    0.0009611414233952064,
                    0.0015205234093342904,
                    0.011552617554181506,
                    0.0034605774628467395,
                    -0.0013348866936606068,
                    0.019865651109424003,
                    -0.01279426156313522,
                    -0.013402091759035006,
                    0.0035460205211282794,
                    -0.0021237328549062037,
                    -0.017745959882248336,
                    -0.003122296613778122,
                    -0.007106557706807829,
                    0.011311286004249618,
                    -0.006212517704302449,
                    0.010506146488672723,
                    0.004597817002101838,
                    -0.0020633091204487982,
                    0.0002117182858814892,
                    0.004286587396338862,
                    -0.023080385136282994,
                    0.003270684075693673,
                    -0.0037911961080083867,
                    0.017979193663881118,
                    -0.006912689567621623,
                    0.011425639200052216,
                    -0.02514924624405778,
                    0.008146250149842884,
                    0.002761027539232751,
                    -0.0024701649088573535,
                    -0.0012088931048633651,
                    -0.002605605906223512,
                    0.004230032095832759,
                    -0.001342485646303186,
                    -0.01787737708417842,
                    -0.0018581085678032868,
                    0.022347217376258856,
                    0.00046846204858301294,
                    0.0029078794646870553,
                    -0.004380545074876235,
                    0.0017405446616172856,
                    0.001779455579616107,
                    -0.002612019194565117,
                    0.008632633989374148,
                    -0.009230779570843294,
                    -0.0013019520820167561,
                    0.005050537522920976,
                    -0.002670041793419147,
                    -0.012238796505752448,
                    0.005582642185676373,
                    -0.00982160958028669,
                    -0.004473081617533774,
                    -0.00828147589188274,
                    -0.001107284140410984,
                    -0.004293859732130132,
                    -0.00474589867079408
                ],
                [
                    0.006809789273140514,
                    0.017626089014166478,
                    -0.0035751421401901302,
                    0.005226551740981221,
                    -0.0035541349049214156,
                    0.0009894224603249626,
                    0.011277513449502294,
                    0.0005029323902704858,
                    -0.008155473512047462,
                    -0.007299266122876394,
                    -0.006167464250611666,
                    -0.00013304221307496947,
                    0.00858011452091081,
                    -0.013587968411019296,
                    -0.010372891693549846,
                    -0.009245412115760477,
                    -0.01749405421729222,
                    0.013259226834884818,
                    -0.0003637864376409459,
                    0.019007793197238256,
                    -0.014243336751810016,
                    0.012941823132591743,
                    -0.007016485321639636,
                    -0.004073696851743843,
                    -0.009889644570915375,
                    -0.009498638594876591,
                    -0.013237454112285541,
                    0.0021633295762047405,
                    -0.013142010325268221,
                    -0.002418018653228728,
                    -9.201544243399692e-05,
                    0.006666106854061105,
                    0.001003917223995476,
                    0.0032132583346258753,
                    0.005144115605663222,
                    -0.00017250865259717214,
                    0.0036334791857426506,
                    -0.009797201914449796,
                    -0.007754704347039222,
                    0.018975108071393503,
                    -0.00011734214376557669,
                    -0.00710500674666955,
                    0.013798799010709467,
                    -0.0015684261051476848,
                    -0.006464910267839939,
                    -0.014489915485220451,
                    0.007794918660522116,
                    -0.010863009072108918,
                    -0.005390325800200371,
                    0.006440999879429353,
                    0.001836335742581206,
                    -0.0008642687384180807,
                    -0.0021398778156152833,
                    0.011459273541343218,
                    0.02230274147801679,
                    -0.005487608291523853,
                    0.005689040905027159,
                    0.019288003053541173,
                    0.010790570549507297,
                    -0.006868316257783892,
                    -0.0043068062707394906,
                    -0.005979685425002383,
                    -0.009134434096547732,
                    -0.006239051526686622,
                    0.0026187547894034025,
                    -0.005870290051548039,
                    0.00876199862650358,
                    0.0012325546357279294,
                    -0.003971256828561419,
                    0.008860899202069915,
                    0.003189718257204604,
                    0.0026486762578577074
                ],
                [
                    0.010400384545344801,
                    0.005732654485250398,
                    -0.0010889846683804266,
                    0.009375548428677462,
                    0.0030931780220466148,
                    0.02917308762873108,
                    0.010986885010471199,
                    0.011532126213747223,
                    0.01290993371628489,
                    0.0007983961125628634,
                    0.013128954115297282,
                    0.00023357027569657568,
                    -0.008311734031854028,
                    -0.005639864584101567,
                    0.005279505543325393,
                    -0.01561119890658687,
                    0.002083529214542517,
                    -0.007283500854473724,
                    0.007182163825618534,
                    -0.007461737106573472,
                    0.018723032622753263,
                    0.0076781812899086276,
                    -0.012688589591737997,
                    0.01758759350083834,
                    -0.002272525093603447,
                    -0.00727476109719801,
                    -0.010237993163261986,
                    0.005677647396556529,
                    0.015045218666646716,
                    -0.005784269725316454,
                    -0.009976208418380527,
                    -0.011397000880327838,
                    0.014964053113602141,
                    0.016707292217109246,
                    -0.0034847114011929787,
                    0.005377050874408872,
                    -2.905450275541419e-05,
                    -0.0006063030227924242,
                    0.009640226322174183,
                    0.004409560006804435,
                    0.003294899667614772,
                    -0.002925789353599082,
                    0.00815600359710878,
                    -0.002820059024109606,
                    0.0004992248806785643,
                    0.002194774937754363,
                    -0.012011556552534499,
                    -0.0029909496676114424,
                    -0.003126030136650717,
                    0.0010120308649831946,
                    -0.011118180907755213,
                    -0.011865517009450086,
                    0.016234621032930864,
                    0.011564436063936468,
                    0.008890393567021026,
                    0.01824818786589987,
                    0.004195952375495597,
                    -0.0009107873492717967,
                    0.004821757484334599,
                    -0.018792869914501683,
                    -0.010980831454210313,
                    0.007586370630214484,
                    0.0003261548315667647,
                    -0.012776363350812349,
                    0.0065853687155979545,
                    0.009989016489932808,
                    0.006678795613643352,
                    -0.00030296779438812,
                    -0.008360494800523846,
                    0.0010759493816851504,
                    0.004269243288256842,
                    -0.0035858879766530465
                ],
                [
                    0.006030359101266989,
                    0.003144319337524709,
                    0.0033311455047149896,
                    -0.020325397888215874,
                    0.010810929930210923,
                    0.01724391719951887,
                    -0.0040246762456961635,
                    -0.014768989811854809,
                    0.0063892931941980854,
                    -0.004656597324338331,
                    -0.009670123710082098,
                    0.01217716255875353,
                    -0.013833793524861639,
                    0.0071742862203705736,
                    -0.012477341209058204,
                    0.01462267982775474,
                    0.005165524660423712,
                    -0.0025739499650682994,
                    0.0014936995811488732,
                    0.005820873874833424,
                    0.008298943774311117,
                    0.008277914282922317,
                    0.005467302659164261,
                    -0.0047738166223266106,
                    0.006640795475273731,
                    -0.013113243820094933,
                    0.01004093104601491,
                    0.008730058373155313,
                    0.0139408104250043,
                    -0.005887796071685205,
                    0.0018621169846960365,
                    0.008582860008822078,
                    0.00317857879102256,
                    -0.0042666728403845285,
                    0.0030733106704705815,
                    0.0006803203466841243,
                    0.009957039414105046,
                    -0.006284625527547907,
                    0.0033948780556898746,
                    0.0029293112568057112,
                    0.007573281242970629,
                    -0.00072892245211876,
                    0.001273146355720885,
                    -0.0007094967490085848,
                    0.000340658625538518,
                    8.359162757482943e-05,
                    -0.0032674455138175726,
                    0.0282729979405965,
                    -0.00843911487937803,
                    -0.011734099063320942,
                    -0.00795626612789125,
                    -0.007100525489930525,
                    0.00011436571155416278,
                    0.01430932797842637,
                    0.01688383782995006,
                    0.0023732436396319365,
                    -0.024982127142596625,
                    0.003843593530746588,
                    -0.013106545656253939,
                    -0.005007015751875076,
                    -0.01149722788141142,
                    0.004256225796110372,
                    -0.00626607444597052,
                    0.007721196774406992,
                    0.004773023963918842,
                    -0.0024006956675279084,
                    0.000805603706020881,
                    0.009174197664022405,
                    -0.0037213191587612245,
                    0.009156188854932334,
                    -0.0001931600668758013,
                    0.002693974528048613
                ],
                [
                    0.0079924087113552,
                    0.013315325235789282,
                    0.005208121988777386,
                    0.0005837188396299674,
                    0.0072068593476216905,
                    -0.015454476374197937,
                    0.016389616031539603,
                    -0.01325491265694986,
                    0.009037094332179562,
                    -0.0056416393054538275,
                    0.005072515845393727,
                    -0.0011656742405674566,
                    0.0030358975906877674,
                    -0.008007870395667669,
                    -0.021606280042996678,
                    0.004066556493485382,
                    -0.006005043386242819,
                    -0.006486357676015769,
                    -0.007253231367820491,
                    0.019844112488851217,
                    -0.005821924381263328,
                    0.0032681297911905513,
                    -0.01160443193869437,
                    0.015230967139279846,
                    -0.005562679686162673,
                    -0.026006418091130946,
                    0.027119498738951555,
                    -0.010981486325572188,
                    0.013089323342815009,
                    0.007330725605424461,
                    0.006521796358150284,
                    -0.0023148483037082924,
                    0.0018919875182509855,
                    0.012239360089168974,
                    -0.0030093071619939947,
                    0.0025130963208627745,
                    0.009282902149250672,
                    0.0008338883723590933,
                    -0.0042498319509845775,
                    0.014516789083179342,
                    0.003416885988728869,
                    -0.0012517266458702857,
                    -0.007758948239718666,
                    -0.01005597221955974,
                    0.008937841053810411,
                    0.00949268086233381,
                    -0.0217071105907707,
                    -0.00615491639425755,
                    0.009648881368696259,
                    0.02424306619264515,
                    0.021503538075928946,
                    0.009418661752421256,
                    0.013733324551261111,
                    -0.0052741945696700085,
                    0.007745345235289796,
                    -0.012371647009313789,
                    -0.005618763462688589,
                    0.003209710832687655,
                    0.021679370700501563,
                    0.007479633293378322,
                    0.002738270906665688,
                    -0.0017008356268584848,
                    -0.013224429713422498,
                    0.006028630022873443,
                    -0.0034909369658323174,
                    0.002390447056304451,
                    -0.008893309139745153,
                    0.001212549537035784,
                    -0.01537028866939562,
                    0.005039062191897026,
                    0.013197259119719253,
                    0.009139508148791163
                ],
                [
                    0.021138237591194438,
                    0.003245535159290734,
                    0.005053634415125542,
                    0.00514864837855844,
                    -0.008797298016122248,
                    0.021532334692629523,
                    0.00988578084408599,
                    -0.002428264214741834,
                    -0.009028317425037818,
                    0.005815092832414559,
                    0.008575475535903945,
                    0.0013788486790982752,
                    0.0018607451711335347,
                    -0.0018811683343096669,
                    -2.7473957279734153e-05,
                    0.013351413277186313,
                    0.0140061788580469,
                    -0.01500176883494792,
                    0.0013887887453617105,
                    -0.012041013496697027,
                    -0.013356954516986081,
                    0.005859527865195065,
                    -0.00841569337976489,
                    -0.03153357450191049,
                    0.006451526531285782,
                    0.012821418300893202,
                    0.020387771395785605,
                    -0.00396293291842643,
                    0.014454453080128968,
                    -0.026210116358079984,
                    -0.010433996069036862,
                    0.005189693714083458,
                    0.0047153426808728485,
                    0.013204179127318201,
                    0.009566894896320623,
                    -0.0008157001965169976,
                    0.015292478634014344,
                    0.006864826401316458,
                    0.017170887330563232,
                    -0.008042769927232138,
                    0.003002536763201884,
                    -0.004295956739003253,
                    0.008059133073385901,
                    -0.0021955216709416557,
                    -0.002518521972500833,
                    -0.013264896477767879,
                    0.0030820413383639915,
                    0.01115489374094808,
                    0.010081956109102624,
                    -0.030160319852092984,
                    -0.01619645693820656,
                    0.020051405255465917,
                    -0.0018762634911122615,
                    -0.0014894122914447525,
                    0.011653354411392074,
                    0.0019664529496690466,
                    -0.006325901423895697,
                    -0.0020984694852691855,
                    0.01897160687385881,
                    -0.0138139115312187,
                    0.013012248377291613,
                    -0.003123921151914365,
                    -0.002712287151202614,
                    0.018629130897734717,
                    -0.00642873594919632,
                    0.008350583653611483,
                    -0.0036305345079469197,
                    -0.014320670261489078,
                    -0.001660198696946643,
                    0.011689263743278715,
                    -0.0018589217762224536,
                    0.005494218269801783
                ],
                [
                    0.0018855331528016264,
                    0.0004683135799744122,
                    -0.004174978227341644,
                    0.0013178230051752347,
                    -0.020328934519997986,
                    -0.004483216556249541,
                    -0.018039436253159024,
                    0.002696988468097705,
                    0.003546604863959199,
                    -0.007960652494953289,
                    0.00801307608457432,
                    0.003958305511361479,
                    0.0029357208724825686,
                    -0.003614038605351397,
                    0.0047279300368474,
                    0.010542070356357671,
                    -0.006604431907601538,
                    -0.008168444258601902,
                    0.011890107570583902,
                    -0.02318428477687406,
                    -0.02617290094387935,
                    -0.01814727087567263,
                    0.0018174102982953032,
                    0.0015237420731890447,
                    0.004965050383582789,
                    0.0007597729042272197,
                    0.015373798077309975,
                    0.01575783445862164,
                    0.011590106388629562,
                    -0.011558002714875353,
                    0.0036357788599044407,
                    -0.00866202680700942,
                    -0.005007103655935266,
                    -0.010233622014868476,
                    0.00010712426627731694,
                    0.005441240835875532,
                    0.000786920498406861,
                    -0.011933686903629274,
                    -0.015260351879826028,
                    -0.007620848052451318,
                    -0.007776383573759467,
                    0.007842731671070845,
                    -0.0031928085874831907,
                    -0.0018866633890511854,
                    -0.0015693506698282466,
                    0.010968481478561417,
                    0.016361151221599528,
                    0.004270585371741792,
                    -0.002483058331869234,
                    0.014025015262856405,
                    0.004382413930175328,
                    -0.0042109688506581375,
                    0.010105737112975396,
                    0.002072299460115002,
                    -0.014340307289520845,
                    0.006269063059702962,
                    0.0029982520177529053,
                    -0.018566414222240667,
                    -0.021510431552039577,
                    0.0013630100537027235,
                    0.006833562545792692,
                    0.006085800501276962,
                    -0.013609797739045559,
                    -0.0034700994911158545,
                    0.0066658991902858854,
                    -0.015357522087918914,
                    0.0008528298217914626,
                    0.002133292693976545,
                    0.00923755969063965,
                    -0.024538919303312673,
                    0.0014498732700110627,
                    0.020181218523403634
                ],
                [
                    -0.006212073387910747,
                    -0.003162393276322203,
                    0.00953992230218348,
                    -0.007631426010826767,
                    0.011569548845980252,
                    0.005405331612446118,
                    -0.015740734251337336,
                    0.0010059341767972574,
                    -0.01458981958986978,
                    0.00952547818431495,
                    -0.016806744727713117,
                    -0.018117537147191384,
                    -0.011373044112741126,
                    -0.008030726661534777,
                    0.013149407875180262,
                    -0.0001825753517404701,
                    0.0029100454237039114,
                    0.010748997485451033,
                    -0.006978099001267304,
                    -0.005783257170197853,
                    -0.00847452537849712,
                    0.00784904647387373,
                    0.016332762095790373,
                    0.0025874249431226447,
                    -0.006232799937115167,
                    -0.005203610271366949,
                    -0.01112314290206408,
                    0.007311453695585632,
                    -0.01062928762372351,
                    -0.0025463306546560224,
                    -0.01168961344799233,
                    -0.018994630996214505,
                    -0.025399554033056743,
                    -0.008899615103210369,
                    0.0021807849778616916,
                    -0.0031781556631478147,
                    -0.002235748874552203,
                    -0.010713798803867008,
                    -0.009316815621596366,
                    -0.010677023428943548,
                    0.002112336611600396,
                    0.02047654837143558,
                    -0.0013637250975649887,
                    -0.013692804052133245,
                    0.01272623331294494,
                    -0.00998566414789205,
                    0.0055753264137732095,
                    -0.004426554096701531,
                    0.0008108320579792591,
                    0.034326634317955594,
                    -0.007475262685796005,
                    -0.00586680439697456,
                    0.00375235451102576,
                    -0.0002194676383127246,
                    -0.004060709011954884,
                    -0.0068840754316859265,
                    0.005904938662003054,
                    0.010773765676263815,
                    -0.009520840716488203,
                    -0.011364331013176956,
                    0.01829906238047157,
                    -0.014251561722623799,
                    0.007153334491047734,
                    0.004391273732188019,
                    -0.01102969548924372,
                    0.0075949359299509415,
                    -0.011032163462730862,
                    -0.010895510984630416,
                    -0.01389550238470516,
                    0.008342832052517575,
                    -0.0044934584755239315,
                    0.010852513203699437
                ],
                [
                    -0.00810140030643709,
                    0.006146625861253558,
                    0.01407410594657888,
                    -0.0008601351309313744,
                    -0.011254527462501987,
                    -0.0034257094231237885,
                    0.012567374708813323,
                    0.007390938362426234,
                    -0.0038598809352874508,
                    -0.017443723745538924,
                    0.007155367850567184,
                    0.016309062540803745,
                    0.016485940770510847,
                    0.004327901996345385,
                    -0.0019102917139960775,
                    -0.007861212702401676,
                    -0.005726018173106335,
                    -0.016497503040146723,
                    0.021345515589126642,
                    -0.00026964389283029913,
                    0.02384405138467877,
                    -0.0007449741537318714,
                    -0.016183179316099756,
                    0.018615651022774897,
                    -0.008598270238675055,
                    -0.004379082110154881,
                    0.016485510899956077,
                    0.014587732107662718,
                    -0.020262064158338595,
                    1.0547699418268316e-05,
                    -0.010895350051014767,
                    0.005391382220705605,
                    0.01812177091595017,
                    -0.00517489822461975,
                    0.014932228006540538,
                    -0.009286442753793525,
                    0.02172270515821458,
                    -0.008256538909305323,
                    -0.004633379678363312,
                    0.002969573677573097,
                    -0.014005944466686508,
                    0.015496088532112626,
                    -0.010700169041291103,
                    0.00613951564079822,
                    -0.012891300394749205,
                    0.0010978294611235116,
                    -0.00010526175421014809,
                    -0.0038824090698920655,
                    0.004892191937564925,
                    -0.0111683225723625,
                    0.01521865766667497,
                    0.002024473569139789,
                    -0.027914440379218326,
                    0.020055615758879812,
                    0.004527136222363632,
                    0.015535652215621068,
                    -0.0017693655722537192,
                    -0.022626153263456038,
                    -0.004197178699128385,
                    -0.012260699612397164,
                    -0.0003848246228477962,
                    -0.004827268623655486,
                    0.002090122800700362,
                    -0.017644080806307177,
                    0.0005378240442707993,
                    -0.00459581833172368,
                    0.006335088707785933,
                    -0.016923025488503853,
                    -0.004250709757555864,
                    0.016583993398079262,
                    -0.011810628977377974,
                    0.007380536853593031
                ],
                [
                    0.013305061151948568,
                    -0.00010089768356528128,
                    0.009885106422191401,
                    0.010414396343771429,
                    0.01569755509912194,
                    -0.003678322013658868,
                    -0.0011229908338733986,
                    0.008041228510204734,
                    -0.007456440496702341,
                    0.0004805070666646386,
                    -0.006985706620498542,
                    -0.023290411224270054,
                    0.003349151437670593,
                    0.01702430046907942,
                    -0.0037206468100995987,
                    0.0008429739091029077,
                    -0.004531049513779336,
                    -0.007409633426063588,
                    0.0013610446388547396,
                    0.010729310979967937,
                    0.022158433358479186,
                    0.008264765570684349,
                    -0.009613638025614542,
                    -0.014270156287116269,
                    0.01306830585767448,
                    0.0031671499153867405,
                    -0.006104632434424176,
                    -0.010561721364058085,
                    -0.008077223666950639,
                    0.01233424909299263,
                    -0.00022359372022848556,
                    -0.014004699771244003,
                    0.008725789897317253,
                    0.0031010259613170037,
                    -0.0029113217079433824,
                    0.0060771524847228935,
                    -0.00827683957273003,
                    0.009639045974419587,
                    -0.014248609016543665,
                    -0.00903442726359496,
                    -0.013768830410058717,
                    -0.004165590598739013,
                    -0.007574510334031589,
                    -0.0036264591876742458,
                    4.767831776312462e-05,
                    0.0055425253990876115,
                    0.0014653207276507372,
                    0.0025185970325350337,
                    0.01604323943116341,
                    -0.002664905609060913,
                    -0.014583359393639644,
                    0.00951381812479946,
                    0.018358695455399286,
                    0.0018728869413965669,
                    0.008395342227862144,
                    -0.006556166871463462,
                    0.0018567535375888507,
                    0.006370253187948584,
                    0.0037857557679582864,
                    -0.005396976528131852,
                    0.016306297921390364,
                    0.001728160841036588,
                    0.009301982055403866,
                    0.0040577898662854965,
                    0.008736742226670051,
                    0.009332532965859973,
                    -0.0021615514939953132,
                    0.008336788128625254,
                    0.02160455726859277,
                    0.019989920138971086,
                    0.007640414200481108,
                    0.01687255223155202
                ],
                [
                    -0.01307971343663687,
                    0.014723963067285685,
                    0.0007487609788866708,
                    -0.017869354037797817,
                    0.0016521058652925406,
                    0.009762962980812676,
                    -0.006960276712961552,
                    0.019371315806243107,
                    0.013492276782627105,
                    -0.012751138646701632,
                    0.010090902626721503,
                    0.0011197268749652818,
                    -0.005516802438110114,
                    -0.0031663164258546,
                    -0.004449950027159164,
                    -0.012162710225821391,
                    -0.004483231067225823,
                    0.006926889116345142,
                    0.014259420274975508,
                    0.014583383367524927,
                    -0.0057336072925712805,
                    -0.0011724767712955894,
                    -0.008593713169178759,
                    0.010300024885667107,
                    -0.01648152918607603,
                    -0.013632765570451368,
                    -0.006358466985837092,
                    0.0025147344447120183,
                    -0.0032114798005329443,
                    0.0003306390572946029,
                    0.0004753462216510061,
                    0.0023327972705604184,
                    -0.010344629811999486,
                    -0.0033935977058127164,
                    0.005776123357717127,
                    0.0028022915571566703,
                    0.010933066330173305,
                    -0.007462242754132891,
                    0.00906261413418604,
                    0.014666247402727144,
                    -0.0014259029182964555,
                    0.0026593014436825167,
                    0.002251894342996509,
                    0.005356705893698189,
                    0.0038792111490031787,
                    0.01469487707806396,
                    0.0051336493561318095,
                    0.008645017035225614,
                    0.003315267305007079,
                    -0.010417702820212885,
                    0.004333603521044893,
                    -0.0022995602264588777,
                    -0.006350874191471966,
                    -0.008943706438088924,
                    -0.000703970805746775,
                    -0.006074641019327619,
                    0.020396722657066248,
                    0.01596771898021652,
                    -0.002669302956497443,
                    0.007091571718730511,
                    0.011569624970582311,
                    -0.0017283937189547308,
                    0.018482333679679015,
                    0.009221103681405612,
                    -0.0010170911376114855,
                    -0.017992991295513863,
                    -0.009659552082324909,
                    0.0031869254278046504,
                    -0.0043826394902083165,
                    -0.00020753261598423553,
                    -0.007873135419683121,
                    0.0024692273113875694
                ],
                [
                    -0.0045830203800475465,
                    -0.015527058747717511,
                    -0.0034164325129870977,
                    -0.005720258872130944,
                    -0.015516576391918181,
                    0.014231771863257673,
                    -0.0007605096615502984,
                    -0.0032686607871554537,
                    0.00750374811492497,
                    -0.0008259523896167562,
                    0.0076729362648741695,
                    -0.014806546192802672,
                    -0.010366558675618028,
                    0.0054522759098484495,
                    0.014918973608952574,
                    0.00030011526171675737,
                    0.002164342643492667,
                    -0.00823443904193359,
                    -0.00029935876835249854,
                    -0.007089367136405759,
                    -0.0016023811578968906,
                    0.007222801236347161,
                    -0.019987639441733346,
                    0.0021302572639485618,
                    -0.008045415853534424,
                    -0.006465822153813857,
                    0.011381727692810775,
                    0.0029543966465863936,
                    0.009336296282088858,
                    -0.017637747157512904,
                    -0.00410216819271666,
                    -0.004536671247229997,
                    -0.005894296712511074,
                    0.00440234504380224,
                    0.008959214811709535,
                    -0.011067788698814538,
                    -0.009626625643799945,
                    -0.012519574324073269,
                    0.011476066746067716,
                    -0.005147349220683212,
                    -0.0010138078120071551,
                    -0.0033221067941041934,
                    -0.009636565849010377,
                    0.003732609736504448,
                    0.003830268697572058,
                    0.00941325584549539,
                    -0.002254200823580782,
                    -0.0029708742122388733,
                    -0.00585521746777713,
                    0.014881415667730762,
                    0.01007566985398126,
                    -0.00040385207883615777,
                    0.006489736060200502,
                    -0.005858437473736149,
                    0.02054474761985308,
                    -0.005915662502667263,
                    -0.0037968895545024686,
                    -0.003710315178948072,
                    0.017012349653430764,
                    0.001476024359868073,
                    0.010844185634328799,
                    -0.0011009695831866167,
                    -0.012129749711766358,
                    0.007754801738720201,
                    -0.006264565463300497,
                    -0.013185225114045476,
                    -0.004160755441601828,
                    0.006316571009908744,
                    0.017642850588125585,
                    -0.013874779344949347,
                    -0.021990579909687995,
                    0.009301569973916998
                ],
                [
                    0.0030005125894933793,
                    -0.0056347291057348686,
                    0.004183619166335985,
                    0.007294430737809866,
                    0.01912068746537096,
                    -0.0013034193228200616,
                    0.012798001716306422,
                    -0.004517559415950883,
                    -0.005096687406137472,
                    0.004237734301945048,
                    -0.01114967504195502,
                    -0.013019590260159631,
                    0.00963193097140422,
                    -0.019630750679485994,
                    0.001133482551732908,
                    -0.003247422640409677,
                    -0.0037302019231505628,
                    -0.013323052935164283,
                    -0.0203590243500699,
                    -0.006609084760600732,
                    -0.011652180020300365,
                    -0.004254190248049608,
                    0.0008803609612487994,
                    -0.007417602315025393,
                    -0.010725253019909581,
                    0.002900413643555045,
                    -0.007618346905784482,
                    -0.009595318228949353,
                    -0.002991532708608496,
                    0.002854914361618232,
                    0.021087484299986265,
                    0.016135615510922866,
                    -0.012633809410664474,
                    -0.013242492171803183,
                    0.0006471737218755258,
                    0.005569989401724988,
                    -0.001317055625742911,
                    0.021723327962554256,
                    0.01177070220220244,
                    0.01640057367649072,
                    -0.00417870617781906,
                    -0.008968795864161178,
                    -0.010702882915960799,
                    -0.0011378156431374926,
                    -0.012583499172829835,
                    -0.006337920536966861,
                    -0.0043076973939226845,
                    0.00944284729199289,
                    -0.004728755590295527,
                    -0.014070641104975221,
                    -0.004474732727296367,
                    0.0018858291237770644,
                    0.0056091805841334665,
                    -0.009216590545137944,
                    0.006473751158514062,
                    0.013868255939410441,
                    0.0048951661814178715,
                    0.002387958575229506,
                    -0.004481118060935155,
                    -0.006107950028484128,
                    -0.020299450691852884,
                    0.0060794658608913504,
                    -0.0035410888355969002,
                    0.0015258149012149537,
                    0.005012748490408392,
                    -0.007864027706953625,
                    0.010169956856725696,
                    0.0011311058187402881,
                    0.014969952476612732,
                    0.00168937667856272,
                    0.0031862469532000243,
                    -0.0027337713839561914
                ],
                [
                    0.01476413992844696,
                    -0.02103492781801827,
                    -0.005328319611205531,
                    -0.003050539939480451,
                    -0.015304207351052828,
                    -0.007947026517589073,
                    -0.021721227104650142,
                    0.0019038723727463625,
                    -0.014052275440762697,
                    0.0036986047372036,
                    -0.00261781695961315,
                    -0.00832713512784787,
                    -0.015537826099971513,
                    -0.006828478444517395,
                    0.0031062382021547047,
                    -0.0012544719386657144,
                    0.006662437992860968,
                    -0.00788330268522488,
                    0.016059935215654783,
                    -0.0023795341636452818,
                    -0.00845195429064242,
                    0.01310159231391461,
                    0.013575664779629647,
                    -0.0009016931708943248,
                    -0.004843021166665138,
                    0.00910074638935635,
                    -0.008941369681633936,
                    0.00935191541792802,
                    -0.013871805199607892,
                    -0.0008339327290337441,
                    0.0001175550719321743,
                    0.012080994611405486,
                    -0.018292196337498966,
                    0.0023443672196787665,
                    -0.0012071046677601316,
                    2.9082871580884228e-05,
                    -0.008841055458017947,
                    -0.01301894830490606,
                    -0.00463137061750672,
                    -0.0024166378467026235,
                    0.01475183478308824,
                    0.0011138164353145053,
                    -4.276254670764191e-05,
                    0.006983462926143922,
                    -0.016118546409077904,
                    0.007225664471510274,
                    0.009153761413074753,
                    0.009071438675546177,
                    -0.003329940622799779,
                    -0.01235249995930351,
                    -0.009849285055946013,
                    0.002474538689467184,
                    0.005367648452373013,
                    0.012765497755140973,
                    0.015214340450144985,
                    0.0087124828088928,
                    0.000339287983914027,
                    0.0026491995671020134,
                    -0.002353123697547818,
                    0.010548684521714893,
                    0.0059427154933613825,
                    0.0021585967236060627,
                    -0.012556005380398678,
                    0.010466613849577998,
                    -0.015268863656237133,
                    0.012317821873805423,
                    0.009846295039767347,
                    -0.015870688200862234,
                    -0.00048464336042870233,
                    -0.01241394259928706,
                    -0.0014461931987276866,
                    0.005551699735190978
                ],
                [
                    -0.001366380997067782,
                    -0.013638680246204356,
                    0.0026082727718927078,
                    0.002594877065664214,
                    -0.0002723481056049539,
                    -0.010451389747928103,
                    -0.0034978166203129615,
                    0.002685271684183746,
                    -0.0015504982130166351,
                    0.021126221193063364,
                    0.002560794374519645,
                    -0.0020676133405836982,
                    0.004825979515241575,
                    -0.011054323532277288,
                    0.004207551998530761,
                    0.01616794227523432,
                    -0.008837713185733427,
                    0.002988350190684363,
                    0.007671130964448215,
                    -0.016933487080721045,
                    0.016388889307188653,
                    -0.010449981890682136,
                    -0.0033505405763656778,
                    0.0038067217763811663,
                    -0.0023260288408099676,
                    0.008029366671164617,
                    0.001509254169753576,
                    0.005697512910046693,
                    0.0007497342370336639,
                    0.014720016145678616,
                    -0.02015498008993193,
                    0.003640942466137382,
                    -0.0030061512780074225,
                    -0.009590326169807149,
                    -0.008116100105728403,
                    -0.005719799781794556,
                    0.005784105367328022,
                    -0.008961304362464841,
                    -0.001631835763614176,
                    0.002752488701157913,
                    -0.011557916510992894,
                    0.011123486525866415,
                    0.024215893039376307,
                    -0.006740173072064805,
                    0.009194471844182163,
                    -0.0030967948041971567,
                    0.005333674564269574,
                    -0.0018170519548628135,
                    0.02208661629981109,
                    -0.0032433181561683446,
                    0.007939304091428137,
                    0.006073661526176927,
                    -0.010839601368846468,
                    -0.02160269413049301,
                    0.005790872157500357,
                    0.008445184395768824,
                    -0.0053670541820727115,
                    -0.0063337466753765476,
                    0.009768032555621366,
                    0.008528334249127995,
                    0.0095587664736448,
                    0.002614020355402196,
                    -0.007882764611222934,
                    -0.012179733796945995,
                    -0.019931365457322752,
                    -0.0005768175790433768,
                    0.019191687587935317,
                    0.004778945560383348,
                    -0.0007974024353979176,
                    -0.015207462166329034,
                    -0.006679300665709081,
                    4.938775623546407e-05
                ],
                [
                    -0.0022221947567800547,
                    0.009083396901692497,
                    -0.0015860676989364743,
                    0.006953059952393552,
                    -0.0011421826013137608,
                    -0.0018976716644371677,
                    0.012591335295997604,
                    -0.007519774342109412,
                    -0.0028305286792145536,
                    -0.01292737402624507,
                    0.0009673935459673665,
                    0.010695010010337899,
                    0.0068140191013360595,
                    0.007340118099189075,
                    0.010530423760226738,
                    0.006252181869673088,
                    0.007582594321492001,
                    0.004037240770776157,
                    -0.009753885453711425,
                    0.005260950996672287,
                    0.009458863748241042,
                    -0.008919096552187087,
                    0.002359899810321978,
                    0.010828130715711141,
                    -0.003734764553885792,
                    -0.013211065736558692,
                    0.0006153397186295915,
                    0.01593685559521686,
                    -0.009129454192771608,
                    -0.0010539007040558325,
                    -0.0075103094717834705,
                    -0.003589672940570473,
                    0.0023477128105090735,
                    0.01476813608626184,
                    -0.007166440259683587,
                    -0.007086549942283279,
                    -0.008725024403880956,
                    -0.010937904454878218,
                    -0.015347000602121186,
                    -0.008512621990105282,
                    -0.0010581326947661123,
                    0.0004086538652840479,
                    0.011724491875207434,
                    -0.00821600484572795,
                    -0.007799381239922421,
                    -0.007568372405228574,
                    0.001957459190548047,
                    -0.0015847241666001066,
                    0.007772087951112211,
                    -0.007891408068160674,
                    0.009132588525940285,
                    0.009425131430139393,
                    -0.0026246770206827504,
                    -0.0062253745360902535,
                    0.0018116908947882018,
                    -0.007915337654795832,
                    0.019922047356774587,
                    0.0014088730311117162,
                    0.007924407685637149,
                    -0.012671073005022024,
                    -0.017507575847901604,
                    0.0068726620518365445,
                    0.005158867189559166,
                    -0.007606047569132229,
                    -0.005667756498026532,
                    -0.006799438007764533,
                    0.0022782691486061338,
                    0.00923852128005498,
                    -0.015448602099407767,
                    0.004787451311669462,
                    -0.008741677208714415,
                    -0.00530931964302213
                ],
                [
                    -0.0016043520807602725,
                    -0.013614540401483558,
                    0.02843938569739298,
                    0.0242497747453344,
                    0.007522698590240822,
                    0.006560151814185348,
                    -0.010436101925859639,
                    0.02377348875883683,
                    0.00018317264871405513,
                    -0.0012339550999896653,
                    0.012039935790829601,
                    0.002608000655858127,
                    -0.007766036112085257,
                    -0.00218921430497509,
                    -0.0037608577925288844,
                    0.0006465569336967153,
                    0.005544575388744446,
                    0.005327589038428345,
                    0.013012018917862488,
                    -4.103064215267418e-05,
                    0.009580685182660604,
                    0.017066618414821415,
                    -0.012260226077977773,
                    0.007125705634905099,
                    -0.010723321101925028,
                    -0.015070755907081497,
                    0.015846620395874346,
                    0.01135483968796023,
                    0.005233729439128036,
                    -0.004769313976443531,
                    0.015035612241102963,
                    -0.01367167725038839,
                    0.0006739291981889342,
                    0.004851775536625464,
                    0.012871269332031164,
                    -0.015264276993735632,
                    -0.030641413561051007,
                    0.001153703132862659,
                    0.0031742715534436644,
                    0.0017368027267708264,
                    -0.00877246861311612,
                    -0.00044160799840172794,
                    -0.015400790713414785,
                    0.00420593391685113,
                    0.008925883958304511,
                    -0.007320318846051872,
                    -0.020039417678250966,
                    -0.0012978171025513718,
                    -0.001985003194006996,
                    -0.0008060699432624299,
                    0.013035754514576024,
                    0.0013859547911853221,
                    0.020841228476909005,
                    0.003807434533098883,
                    -0.0108723367066726,
                    0.011336134582784587,
                    -0.0009034436761133893,
                    -0.004887708573317057,
                    0.002794013512216662,
                    0.001147838114006333,
                    -0.015585941928171034,
                    -0.008495187764148104,
                    0.011520065700146511,
                    0.0017592789245984334,
                    0.0063898595369320955,
                    0.010201526445153519,
                    0.017926130716325067,
                    -0.00639096500196793,
                    -0.007033950585259874,
                    -0.009245095945483305,
                    -0.00600450541555805,
                    -0.009125867671295468
                ],
                [
                    -0.0001500073249781529,
                    -0.0010823276892106414,
                    0.0058123827172090895,
                    -0.011906512335608766,
                    -0.006538245233132641,
                    0.003594610656512877,
                    0.006986479775844115,
                    -0.023166173104182224,
                    -0.006020706223552576,
                    -0.0025362038959397797,
                    -0.020411541793372043,
                    0.004487003567731619,
                    0.012041275262588092,
